[UNK]	-0.009908605	0.022395384	0.0011029951	0.0002245307	-0.046526443	-0.0061431043	0.025822412	-0.011634849	-0.030570304	0.036842573	-0.018413961	0.0040410534	-0.02387631	0.017241787	-0.0036870837	0.04438598	-0.040641557	0.01566035	0.030447159	0.010098077	-0.045908153	-0.03940171	0.0022819862	-0.0046295747	-0.029261375	0.0479191	0.029265735	0.0030871406	0.031350885	-0.0064302683	-0.045186665	-0.031191682	-0.015556969	-0.03918053	-0.003722012	-0.044061244	-0.033670545	-0.009472884	0.014130715	0.0091918	-0.016809188	0.008437265	-0.023614192	0.041418646	0.049357105	-0.038032554	0.018179882	0.005918443	-0.045955766	0.021531034	0.005096793	-0.017383419	-0.042288195	-0.03149861	0.0018107407	0.011055242	-0.046563424	0.019608881	-0.0041541234	-0.023997916	0.010176409	0.03620963	0.021655392	-0.03468903	0.024083268	0.016817722	-0.008632265	-0.02238034	0.0090454	-0.0011718646	0.0051874295	0.013900224	-0.0052572004	0.03974339	-0.0019050017	0.0066904426	-0.04121082	-0.045732904	0.008929931	0.029358577	-0.03054036	0.037049714	0.0077315457	0.0052668937	0.044326592	-0.040904295	-0.034646906	-0.020171368	-0.04671551	-0.04503652	-0.044223525	0.017313968	-0.020154357	0.030557428	-0.0016696677	-0.011962641	0.0098045245	-0.006766297	0.0047321543	0.012700889	0.001443971	0.019790124	0.041793253	-0.010132968	-0.041181434	-0.04357753	0.0006675944	-0.0010932311	-0.00022137165	-0.0448408	0.041483138	0.009462822	-0.027116848	-0.018354546	-0.0069388263	-0.0060526617	-0.047666322	-0.028193248	0.022566166	0.000713598	-0.03943031	-0.0233374	0.046356644	0.032768477	0.027309027	-0.030540992	0.015598569	-0.029263033	0.045475353	0.011071719	-0.009791601	-0.001629509	0.012370706	0.036977652	-0.028730143	-0.030571401	-0.043098975	-0.017569803	-0.03243736	-0.03199377	0.039832998	0.003386069	-0.022493899	0.031662237	0.02982365	-0.049469378	0.018356886	0.012024891	-0.018421888	-0.029362475	-0.041219078	-0.014800012	0.040723752	0.013422135	-0.04649185	0.04480208	0.044070076	-0.00040521473	-0.03832226	0.043070797	-0.004846107	-0.028304016	0.03212494	0.014317941	-0.0046138763	0.049598645	0.034426156	-0.027685452	-0.038883545	-0.03884052	-0.035232317	-0.011036634	-0.016883064	0.030701663	0.034967903	-0.03612671	-0.0072653405	0.046743166	-0.026186824	-0.0424906	0.030751836	0.023279633	0.0102338195	-0.0054632053	-0.02683947	-0.012182891	-0.02889061	0.03293517	0.031849515	0.002353035	-0.012347698	-0.04208187	0.0065505877	-0.003866218	0.012496613	-0.018399976	-0.044165004	-0.009828843	-0.021765912	-0.007611312	0.0037499443	0.0481552	0.018221918	-0.030604316	0.025712837	-0.014421593	-0.024569297	-0.009852111	0.018567864	0.0151829235	0.008041251	-0.02952732	0.012074184	-0.015390061	0.038337376	0.027089562	0.022222582	0.044129852	-0.047951113	0.011279393	0.02448025	0.01787934	-0.031129336	0.030199949	-0.0006462559	-0.02845478	-0.029588247	0.00027237087	-0.029208397	-0.008342899	0.003498625	-0.029763317	-0.02582941	-0.047446955	0.022080127	-0.024567677	-0.045428585	0.04311243	0.03447089	0.035179827	-0.03481839	0.016471814	0.015834522	0.003369201	0.015682016	0.015556205	-0.048879612	0.044761326	-0.0041128173	0.019104246	0.024867248	0.034247246	0.026396189	-0.049133755	0.025981274	-0.031755283	0.0064598545	-0.0018107407	-0.033638515	-0.007484127	-0.0029251948	-0.008098055	-0.03050064	-0.031094206	0.03477407	0.013407912	0.03947505	-0.02557118	-0.02622248	-0.02559849	-0.046402313	-0.03562392	0.028555725	0.042955313	-0.03893782	0.019574527	0.012323607	-0.0472878	-0.0066176057	0.02720746	-0.0060798638	0.005746998	-0.038999476	0.04699037	-0.049772847	-0.047030367	-0.025979424	-0.037236582	-0.021449387	-0.04152317	0.03591392	-0.045571793	-0.038060308	-0.02114681	0.036233533	0.008913219	0.03400184	-0.049209263	-0.007671904	0.013530519
leads	-0.020028105	0.015670532	0.0014500208	0.015847709	0.01475614	-0.062615685	0.025848888	0.010932069	0.055591304	0.04669754	-0.03395348	0.04351763	0.045612242	-0.005386167	0.060348913	0.010847776	0.06957963	0.028468233	0.046959966	-0.047735363	-0.010591218	-0.016642563	-0.010679131	-0.02021616	-0.0007785442	0.013577005	-0.06644467	-0.030543942	0.018981695	0.018482812	0.033030923	-0.050371103	-0.017799404	0.057808857	0.009912429	-0.06938446	-0.033797782	0.046926714	-0.05772936	0.024913628	-0.021802552	0.029598394	0.031309124	0.067997836	0.014313369	0.051722	-0.052586865	-0.03321612	-0.017133435	-0.054000773	-0.036130335	0.03852659	0.033442046	0.038584862	-0.047058918	0.06883409	0.0281131	0.063590564	0.003811929	-0.063067995	-0.039149534	-0.02659684	0.042776354	0.0672041	0.06798492	-0.031715006	-0.035567135	-0.030704778	0.0036079371	0.051966507	0.024502771	0.027562786	0.066117644	0.011789394	0.037919942	0.012477936	-0.042374577	-0.029748013	-0.03227875	0.021986332	-0.033125784	0.048871014	0.018197956	0.010278899	-0.059767094	4.69159e-05	0.04730272	0.0066534523	-0.06295808	-0.053896524	-0.0153775355	0.019433495	0.044707146	0.03395176	-0.028047077	-0.008710161	-0.034485888	-0.023213338	0.0018379111	0.04625567	-0.020103803	0.045736093	0.024724513	-0.044980574	0.028392438	0.008378262	0.053743184	-0.0018009597	0.051104873	0.050623633	0.039924607	0.03032933	-0.008705006	-0.051295508	-0.04522701	0.050245874	0.012328208	-0.013680467	-0.011995326	-0.053525507	0.061604787	-0.012723461	0.0636157	0.0036645494	-0.059100218	0.049159527	-0.035886344	-0.0016591854	-0.008623588	0.036761075	0.04954464	-0.016114315	0.0062042046	-0.0028966614	0.01529514	0.029415425	0.02745686	-0.030072669	-0.025929162	-0.011169619	0.045965858	-0.041922223	0.029576011	-0.0002233918	-0.010824368	0.0013591632	0.03618113	0.053798128	0.047041576	-0.061511096	-0.013660214	-0.043194443	0.048519336	0.03565008	-0.008062815	-0.069828175	0.014255844	-0.01886389	0.049734864	0.018944867	-0.025109038	-0.018811172	0.026985068	0.009487251	-0.065479964	-0.0036056468	0.024800021	-0.05759959	-0.02253163	-0.047918122	-0.0009080166	-0.018252116	-0.010048033	-0.0060475767	0.033669583	0.054590374	0.042803895	-0.027674904	0.02925477	0.020104818	-0.02549056	0.030408049	-0.047155995	-0.032783296	0.020216042	-0.021892568	0.070399426	0.06135824	0.022824649	0.027019028	0.02165388	-0.043523494	0.06931416	0.016525483	0.019363504	0.017260758	0.004886216	-0.06793679	-0.034088787	0.052092545	0.029726317	0.016801722	-0.0129413195	-0.043224555	-0.0019209074	-0.059384644	0.02023982	-0.02896299	-0.015903698	-0.01252103	0.053890076	-0.045031577	0.036533054	0.04002962	0.0169584	0.043221675	0.009479235	-0.017832637	0.01701957	0.012739647	0.00063565257	0.06746875	0.028629133	-0.028845478	-0.06344956	0.065325715	0.0135597205	0.03175525	0.023886831	0.0097500095	0.019963903	-0.023058755	0.029200718	0.036649913	-0.047633246	-0.009584139	0.0018459952	0.02546723	0.06780362	0.026118392	-0.016967498	-0.069634005	-0.007467138	0.06066974	0.050906252	-0.0024163309	0.05784224	-0.06020648	-0.029913764	-0.0011038746	0.056947105	-0.00011110818	0.06446494	-0.02004875	-0.043770023	0.04897056	-0.0013228998	0.020324934	0.008585798	0.004003988	-0.050232537	0.018853107	-0.06565236	0.023524163	0.0109345205	-0.026419561	-0.0043041566	-0.016118018	0.04750708	0.06930841	0.064585865	0.04186409	-0.00014213956	0.03701589	-0.04381546	0.051554002	0.00045316544	-0.020853706	0.057658855	0.01737317	0.06843071	0.04246237	0.02725961	-0.012308718	-0.025877956	-0.04884413	0.060270756	-0.0543047	-0.06326107	0.00745801	-0.036544684	-0.048130326	0.028371034	-0.07013005	-0.06707586	-0.06741229	0.029117284	-0.011495391	0.01989368	-0.026688363
heart	0.009478889	0.035179865	-0.045514263	0.041397143	-0.03309517	-0.044997107	0.019444373	0.018123712	-0.0035417564	0.009637557	0.005102493	-0.019764518	-0.038034417	-0.04530411	-0.033120885	-0.04988389	0.019701425	0.002740465	-0.02701999	0.043841507	-0.022421611	-0.038731873	-0.029943526	0.046920728	-0.0038302913	0.023186814	0.011029672	0.019977424	0.017546032	0.046809737	-0.04043267	0.03305823	0.006492041	-0.016354285	0.042240445	0.011515617	0.01931322	-0.008108128	0.019259658	-0.015108131	-0.008704592	-0.028754318	0.019232336	0.012509946	0.0060149916	0.04643556	-0.04411242	0.04203398	-0.03833573	0.02322537	0.042402092	-0.038516738	0.049350385	0.040694598	-0.03131461	-0.005004585	-0.011280049	0.03434732	-0.005355753	0.0019413717	-0.01910205	-0.015937675	0.0019499883	0.0039264075	-0.01084144	0.037443046	-0.0014074072	-0.049346756	0.006369747	0.036522184	-0.040011548	-0.035651743	0.04985923	0.016454462	-0.004415501	0.020818476	-0.03502195	0.0128609575	-0.008397173	0.044785213	-0.03994857	-0.035648514	0.023025695	-0.014515925	-0.049515963	0.018898416	-0.014109194	-0.0053920373	0.045175444	0.04864687	-0.03418477	-0.013042964	0.0007606745	-0.0035387762	0.027245317	0.030223075	0.03687154	0.034611057	-0.0031605735	-0.040777363	0.040555086	-0.04613452	-0.03818692	-0.0064933896	-0.041974567	0.029549573	0.026199173	-0.02662803	-0.0026517734	0.020180788	0.033588674	-0.034687508	0.015270237	-0.024327552	0.012075949	-0.028485512	-0.036513567	-0.017969467	0.038507488	-0.009319268	-0.031988397	0.009104323	-0.0274683	0.04188284	0.049353566	0.04569671	0.034320723	0.0054148547	-0.027290726	0.03782708	-0.0037737712	-0.007857334	-0.0007465482	-0.042138852	0.019564975	-0.0036114827	0.032356706	0.03684063	0.015360478	0.0019872785	0.011491336	-0.009496771	-0.0009966865	0.039844822	0.016724024	0.038232338	0.04292884	0.020113591	-0.018634818	-0.015892018	0.039515343	0.030576888	-0.013964117	0.015621055	0.010464691	-0.013183463	0.0019100085	0.045198504	-0.03707262	-0.008209683	0.03365386	-0.033566914	-0.04245161	0.04448613	-0.013270091	0.033561658	0.0074175373	0.045750488	-0.0248991	0.028318252	0.021966878	0.009143449	0.021204006	0.02843691	-0.04558604	-0.01716479	0.046399448	0.035827648	-0.025614798	0.012742672	0.017604087	-0.010694921	0.0415758	0.023077313	0.010877132	-0.006009519	-0.003577482	-0.01004846	0.010279678	-0.016379356	0.0127107985	0.01734287	0.0048915744	0.029074911	0.014716115	0.028935526	-0.009202886	-0.012368668	0.012967993	0.005907692	0.013659406	-0.023938764	-0.018155098	-0.0020808205	0.044502582	-0.027732288	0.0177253	-0.015452467	0.016042236	-0.004522871	-0.03860116	-0.028038371	-0.020808304	-0.040121652	-0.042921484	0.036296282	-0.023192061	0.018392313	-0.016540956	0.024226341	0.03934752	0.015423331	-0.0118409395	-0.046714295	0.029017035	0.04966687	0.016405929	-0.007283926	0.019371439	-0.03822998	0.036990773	0.016502228	-0.004488349	0.010009147	0.03249264	0.032914747	-0.009724282	0.00060873106	0.033722136	-0.041449644	-0.01363945	-0.049714364	-0.047966123	-0.042391386	-0.04686705	0.042582262	0.036572706	0.0027821176	-0.020384336	0.045423094	0.044196438	-0.0334635	0.035485532	0.027316544	0.027514946	0.013400998	-0.0005909093	0.03628577	-0.049836803	-0.029631615	-0.036816586	-0.033722773	-0.015211664	0.018344093	-0.034066573	-0.022934366	0.0072326176	-0.032453764	-0.040086925	-0.023256434	-0.0033869967	0.029031638	0.048321772	0.02854972	-0.01148976	0.0055511966	0.020609822	0.02716067	-0.03958695	-0.001698684	-0.016921915	0.018691827	-0.011074793	0.030488957	-0.04636711	0.034987632	0.00252676	0.030751873	-0.038214207	0.007515155	-0.03584702	-0.012947284	0.01402935	0.02431545	0.023944605	0.015472557	0.014588762	0.029732738	0.01505271	-0.03538959
wave	-0.006418787	0.02146833	-0.015405703	0.021382634	-0.044490624	-0.027233316	-0.039750587	0.01322696	0.01717249	-0.022906292	0.005315125	0.003933836	0.025644992	0.013302948	-0.041041218	-0.008779943	0.023197498	0.011617087	0.013267625	0.0022919178	0.04374725	0.049947027	0.035588954	0.0007234812	-0.049035776	-0.039754223	0.015391234	-0.046975423	0.03064536	0.027819764	0.041920308	-0.011492275	-0.024532367	-0.023862649	0.04639337	-0.007937349	-0.015249692	0.015089277	0.03489859	0.006858241	-0.038509857	-0.041042842	-0.03131471	-0.002313733	-0.032275118	-0.04274205	-0.005099345	0.035990823	0.030044641	-0.025439585	0.047879566	0.047856163	0.03012624	0.04438385	0.045365963	0.047012497	0.033734713	-0.03388331	-0.03323213	-0.01959232	0.013259519	-0.045643177	-0.025223065	0.029683087	-0.0057092085	-0.04125272	-0.010455407	0.043495502	0.016864728	-0.048737943	-0.03813492	-0.0215253	-0.009552039	-0.010623742	0.04663862	-0.031580426	-0.027829504	-0.013003241	0.009686053	-0.003001321	0.009847961	0.048914302	0.0374004	0.04716785	0.008715592	0.008780085	-0.026041234	-0.032713965	0.010059454	-0.016963422	0.024931934	0.027494524	-0.023288572	-0.036148835	-0.016124595	-0.011679687	-0.044981804	-0.010439895	-0.0019008294	0.020662677	0.03302363	-0.018498123	0.03517871	0.010819294	-0.028662384	-0.010205723	0.036506306	0.009819604	-0.042815756	0.004993152	0.04561052	0.031730924	0.034441378	-0.013930738	-0.04786552	0.024474945	0.015043225	-0.025721407	0.027777757	0.03218477	0.018333722	-0.048545755	0.03699832	0.01780523	-0.0055974945	-0.048294544	0.028276768	-0.037372995	0.024153236	-0.037431262	-0.04780642	0.0047998056	-0.033020236	0.041679848	0.04875542	-0.030098617	0.0012826808	-0.041667722	-0.032873526	-0.020331694	-0.039292715	0.0032263622	-0.026594091	0.03464264	0.036456194	0.026321363	0.03217194	-0.025658727	0.046286095	0.047401655	-0.048911523	0.036606517	0.013848174	-0.0435079	0.020359483	0.014573645	0.0033400431	-0.026761949	-0.036150336	0.046216022	0.035229	0.0074072704	0.013746027	-0.04208964	-0.038781367	0.03220668	-0.007070612	0.0053805485	0.045545723	0.018577967	-0.020387173	0.04706453	0.020070087	0.045905065	-0.014087439	-0.048531186	0.035363022	-0.011278212	0.013305318	-0.027890338	0.00015226752	0.024169032	-0.012098443	-0.04659579	-0.043004073	-0.026457323	-0.010100663	-0.045483768	0.026084546	0.015735518	-0.030009985	0.0004333146	-0.009104632	0.019166324	0.046429466	0.006519176	0.04420409	0.022298064	-0.022779977	0.00086814165	0.01488233	-0.023696912	-0.02346213	0.045165826	0.0054996237	-0.014209092	0.029478136	-0.0012548193	0.024472568	-0.038128436	-0.019131398	0.019620229	-0.038668834	0.038467173	-0.027956832	-0.044946946	-0.026601767	0.02621572	-0.03316959	0.035534803	-0.009516083	-0.03635298	-0.018867208	0.017352853	-0.021060599	-0.0022420771	0.0048171766	0.017639007	0.034494106	-0.038392782	0.013255466	0.016054843	0.016048554	-0.03587228	-0.010756552	0.007361926	0.0066205747	0.0331504	-0.03823491	-0.011326931	-0.040917765	-0.005193483	0.008172594	-0.021133794	-0.040247213	-0.019903792	0.0097211	0.0019892342	-0.022099555	0.030368004	-0.0045325756	-0.041934274	-0.0007909052	0.028523158	-0.004747223	-0.019755555	0.029681537	-0.010826778	-0.011749435	0.04880703	-0.045530964	-0.033353496	0.0015328042	0.042234007	-0.03105755	0.014181618	-0.036246706	0.02845836	-0.0033835545	0.016255785	0.0022486337	-0.017405473	0.002334047	-0.007397294	0.015228812	0.018424857	0.03991944	0.044657853	-0.031725466	0.0024748817	-0.022276163	-0.039101075	-0.009673011	0.03970431	-0.030217802	-0.042217817	-0.047107793	-0.041052617	0.049882147	-0.024353195	0.017374698	0.034563694	-0.019435132	0.042974617	0.038774278	-0.0034882054	-0.0011304617	0.044715654	0.04078025	0.037106145
lead	-0.0284863	0.03454646	0.015044477	0.032583717	0.046329584	-0.02610575	-0.009920467	0.036791775	-0.039253928	-0.013154648	0.008093081	0.035704914	0.04519013	-0.021086419	-0.0042458773	-0.008114409	-0.0025661364	-0.03939859	-0.011216473	-0.04380442	0.018579576	-0.02760961	-0.03993591	0.039185774	-0.013303209	0.039722566	0.0056161284	-0.0023094043	0.047411013	-0.033874083	-0.0052225366	0.015766632	-0.028756117	0.038969386	-0.02780422	0.006575525	-0.033978842	0.04045293	0.028334785	0.026032832	-0.018417142	-0.01328988	0.000983309	-0.00918752	-0.023401737	-0.01803577	-0.015987195	-0.011927567	0.03910139	-0.042840183	0.015842829	-0.04753491	-0.028093314	0.03544296	-0.030420696	0.010903705	-0.011365414	-0.036658786	-0.01783185	0.02467065	-0.030914426	0.01263373	0.00453024	0.0037789457	0.03880081	0.028101448	0.0042964593	-0.034894813	0.018349614	-0.048744347	0.00993086	0.0044572465	-0.021912886	-0.011014245	0.04956193	-0.026610447	-0.039689742	0.048320506	-0.0068424344	0.036919836	0.024147693	0.011887241	-0.048843514	0.039805602	-0.030438675	-0.030698312	-0.04012575	-0.03971243	-0.0034858696	0.03810786	-0.042830873	0.007947851	0.018391464	0.022608545	-0.008177031	-0.042493083	-0.03831909	0.016031358	0.04273652	0.035066497	-0.02079221	-0.04622027	-0.02092408	0.043345157	-0.0015471354	-0.022995805	0.024989609	0.03362796	0.00040441751	0.048449066	-0.004550539	0.014773261	0.01699033	-0.027846325	0.04736371	-0.04852852	-0.0195377	0.007998694	0.031877544	0.035610247	-0.030243946	-0.046779107	0.044919778	-0.013725568	0.015345346	0.037418578	-0.018111229	-0.029304206	0.024965119	-0.018718936	0.03260226	0.031422798	0.005318094	0.032262716	0.024199191	-0.04718722	0.010646295	0.0038168319	-0.021204818	0.037832294	0.013634112	0.038471032	0.0073212273	0.040138256	-0.025130654	0.031908724	-0.019280804	0.00053641945	0.020433355	0.009269752	-0.030867696	-0.033919416	-0.039328195	0.028814528	0.03224125	-0.026559163	0.032843936	0.042051937	-0.035508525	0.023590121	-0.025029017	-0.039994895	-0.026504004	0.02079023	-0.002530504	0.029393766	0.033449654	-0.005810678	-0.019771148	-0.029729342	0.009677209	-0.025126373	0.044689927	0.035347912	-0.0038156994	-0.028483152	0.044724736	-0.038160823	0.035785746	0.002886355	-0.04490743	-0.03994014	-0.041248403	-0.027863383	-0.04852283	0.04064289	0.0073587894	-0.027961124	0.031085018	-0.02779813	-0.038019	0.0068640225	0.023827385	-0.019544948	0.03146212	-0.04494207	-0.021403706	0.027393255	0.0063200966	0.04370885	-0.009994198	-0.00041462108	-0.0042975433	-0.015540946	0.038105372	-0.047692835	0.020154323	0.0003769286	-0.016979564	0.042957257	0.019904505	-0.03125353	0.024864528	0.010102462	-0.0032703392	-0.030249132	-0.033268534	-0.008598756	-0.0046179667	0.04068922	0.030014839	0.032819215	-0.006805826	-0.033121943	0.035002533	0.013360623	-0.03134768	0.031534616	0.03565896	0.022806693	-0.035601996	0.04966053	0.0342093	-0.025907958	0.0039453506	-0.03662925	-0.020020282	0.042471442	0.012200963	0.02539866	0.048440304	-0.03503132	-0.013249755	0.036566857	-0.048924495	-0.01130005	0.046455156	-0.048359837	0.008041631	0.049680162	-0.044777393	-0.010201264	0.0051621795	0.03263021	-0.025844682	0.01122532	-0.040475536	-0.0042868145	0.04299802	-0.03789263	0.027891565	0.023881678	-0.008282185	0.04160959	-0.013926826	-0.028755618	0.034022573	-0.00097621605	0.03934369	-0.0019306764	0.00012538582	-0.021849012	0.035789993	0.004890036	0.017833818	-0.031031406	0.047957946	-0.026328504	0.034580473	0.017516281	-0.010107718	-0.0312742	0.006687414	-0.024220873	-0.039206933	0.046129677	0.030968223	-0.016131472	-0.028037881	-0.010639071	0.017606083	-0.006521035	0.042077076	-0.026548386	-0.013982903	0.030787494	-0.014110912	0.039139453	0.038639154	0.043217424
ecg	0.0076927543	0.019825865	0.0008189678	-0.01193732	-0.020535637	0.027754378	-0.04917903	0.023593042	-0.0255471	0.016987074	-0.0074371584	-0.03365095	0.043519523	0.016563166	-0.01271566	-0.03248898	0.033868317	-0.010922968	-0.002086915	0.004728973	-0.044769432	-0.0011710636	0.030897174	0.03565189	0.039553773	-0.04606792	0.03952649	-0.03919052	-0.046912875	-0.011219252	0.0468317	0.005310785	-0.020792127	-0.028233184	0.043828312	-0.03374733	-0.049802076	-0.015004493	-0.0006692633	0.037373353	-0.026528431	0.003940247	0.02559315	0.009934377	0.04011986	0.0013478175	-0.029029954	0.03312557	-0.04745425	0.040423486	0.02459282	0.0118481405	0.0121978745	-0.015413582	-0.03533262	-0.004792534	-0.049170565	0.007663917	-0.011036612	-0.03558538	0.03683306	0.04707328	-0.033885777	0.034759965	-0.0036457554	0.016543772	0.022848275	-0.042795647	0.018675935	-0.02675029	0.031135235	0.01969758	0.03673807	-0.04571203	-0.023653269	0.03256091	0.03468517	0.0461835	-0.005317878	-0.014098667	-0.044344973	-0.02310375	0.021342326	-0.0027816668	0.03708793	0.01625302	-0.028023457	-0.037600387	-0.038077343	-0.027111053	0.01893336	0.017207991	0.04110254	-0.037226953	0.040343117	0.030317906	0.046239708	-0.037672378	0.025615696	0.017341886	-0.024309052	-0.024220277	0.03299341	0.010047637	0.031693008	-0.049181808	0.0056606755	-0.033287752	-0.031387925	-0.0140141845	0.0032974966	-0.0013559945	-0.0014276728	-0.037879325	-0.04998919	0.017905477	0.045884717	0.04858644	0.04627366	-0.0084062815	0.009763859	-0.036170922	0.028306875	0.013151292	-0.02917309	-0.013823293	0.002608575	-0.047280323	0.012220811	0.025773596	0.03154392	-0.047335494	0.016712379	0.010175694	0.01019305	0.026481893	-0.045518365	0.044932913	-0.024433482	0.043132607	0.028122727	0.0102152005	0.0004219897	-0.013646733	-0.015673459	0.029855613	-0.0079315305	0.0069710016	-0.033815183	-0.040712655	0.019721184	-0.044344403	0.032901857	0.020872798	-0.012059558	-0.033827484	-0.019779135	0.02641518	0.0011174902	-0.006898273	-0.034232903	-0.037266303	-0.044147886	-0.038118742	-0.005765807	-0.011616457	-0.0091433525	-0.017689705	0.035627153	-0.015267037	-0.047549356	-0.024521697	-0.038803063	-0.04599799	0.00882002	0.047948625	0.011628173	0.021291707	-0.013822366	0.016610827	-0.023803009	-0.036794998	0.037313733	-0.024668336	-0.030924797	0.004289113	0.016373996	0.033475447	-0.006328035	-0.025836134	0.042758558	-0.012564994	-0.03348209	-0.038418125	0.02682444	0.047157396	0.0100912675	0.048649076	0.020244088	0.045026872	-0.024760997	0.031141292	-0.016016625	-0.019790912	-0.023386372	-0.002939891	0.044338886	-0.038605534	-0.0037804618	-0.013368119	-0.021828342	-0.011639118	-0.009706698	-0.027085245	-0.017430197	0.013990965	-0.0014787689	-0.046510518	-0.011866309	-0.045522224	0.0014229417	0.048548494	0.04833806	-0.040690027	-0.044340875	-0.027408814	-0.005626224	-0.013786148	0.009492587	-0.014361512	0.026422512	-0.036400475	-0.044492092	-0.0017629489	0.040613282	0.006134093	0.041848395	0.021929909	-0.023217475	-0.037639834	0.045561325	-0.020942558	0.02101529	-0.026872648	0.0038524866	0.013432059	0.0042661205	0.015478756	-0.031906415	0.013392698	0.020848844	-0.013135862	0.014204744	0.010757934	-0.035757028	-0.04782144	-0.017451681	-0.017148983	-0.0210984	0.023598101	0.018311765	-0.039512657	0.028039578	-0.04184904	-0.00880884	0.0026442297	-0.02978555	0.0040197484	-0.04902444	0.029107127	-0.048535205	-0.032010186	-0.016025126	0.00645528	0.029633652	0.0025126822	0.01694021	-0.012743868	0.013439391	0.010504495	-0.02505523	-0.00089871883	-0.04428935	0.04459125	-0.03285545	-0.026171947	-0.04187467	-0.014230885	-0.03984387	0.022705946	-0.03838563	-0.035762798	-0.011468399	-0.04054867	0.027425136	-0.0123466365	0.024706755	0.04635601	0.00053133816	-0.041294552
left	0.011292946	-0.043070544	-0.037646912	-0.022898365	0.022938777	-0.0436682	-0.046543445	0.024461176	-0.0032681115	-0.009333622	-0.0020386092	0.006735336	0.032914642	-0.018141411	0.038793836	-0.047782052	0.046216916	-0.04862554	-0.03667102	-0.006769359	0.0040349737	0.035795536	-0.0076434016	0.0037652627	0.0061241873	0.0047497153	-0.046450745	-0.013648726	-0.028783524	-0.030655896	-0.04325631	-0.025542343	0.029956844	0.04681262	-0.017339624	0.042323414	0.01821028	0.012655441	0.0471414	-0.024868703	-0.018091358	0.0026910529	0.025736008	-0.0045153983	-0.006109141	-0.04584855	-0.017036092	-0.036119796	-0.034745075	-0.033242956	-0.032331526	-0.038333096	-0.049253214	0.007275559	-0.01817875	0.038344357	0.02486397	0.003548719	-0.0048250183	0.037442196	0.03818536	0.03607023	-0.02855444	-0.005511701	-0.0448272	-0.032570004	-0.015278745	0.016106192	-0.0017228723	-0.021693408	-0.041554164	-0.008895673	0.011634432	0.036547516	0.022062745	-0.014120758	-0.042944193	-0.045708276	-0.018007457	-0.012383651	0.021425668	0.03783072	-0.04530692	0.042776134	-0.009539209	0.006508518	-0.0017683133	0.0014698878	-0.046368457	0.044549946	-0.014061332	-0.037545253	0.0032212958	0.011911035	0.0040744543	-0.017124284	-0.016802013	-0.010336995	0.012136601	-0.030606652	-0.02133329	0.023093674	-0.033608653	0.0067078248	-0.03620409	0.042347465	0.046271894	-0.043974172	0.009199213	0.038034048	-0.013142478	-0.034731794	-0.012078475	0.047744665	-0.026192917	-0.033658765	0.038138356	-0.0017438047	-0.01609788	0.0020773187	-0.04302751	0.034129713	0.008407008	-0.015675604	-0.0030337088	0.0204059	0.021151472	0.015831482	-0.033978928	0.02318624	0.007880997	-0.025957251	-0.04710109	-0.039537966	0.017770696	-0.026486576	-0.004383862	0.014448199	-0.04440547	0.030846063	0.013206158	-0.017826188	-0.017024387	-0.011112809	0.047835086	0.024021294	-0.036410462	0.01824477	0.0069753043	-0.020851398	-0.0017607585	-0.012394201	0.030551318	-0.00024414062	-0.000120114535	0.029229667	0.018902909	0.042421926	-0.019697	0.04298984	-0.03269382	0.039079394	-0.0037243478	0.0044747703	-0.00039416552	0.025673103	-0.032719277	0.035554852	-0.04342247	-0.011078548	0.043098714	-0.0061824694	-0.019501258	-0.021284604	0.0062413216	0.009262431	0.048859667	0.037717607	0.04864559	0.0071468577	0.021213476	-0.02533412	-0.0023587346	0.01951256	0.014344785	0.047510352	0.0022285357	0.01220163	-0.013614871	-0.032688774	-0.0073596016	-0.0020309798	-0.003542114	0.0017848015	0.005012881	0.0025980473	0.017954003	-0.03677255	0.03960104	-0.013419796	0.04888178	0.01516353	-0.019023359	-0.02778008	0.03914428	0.008568086	0.022671584	0.00096415356	-0.020681143	-0.0026483051	0.018931452	0.040955428	0.049002077	-0.010518372	-0.04159968	-0.0023004785	-0.040338278	-0.040024243	-0.033842564	-0.01086811	-0.015348386	-0.042601466	-0.0069791786	-0.03792423	-0.024083316	0.04148482	0.004737735	-0.002462197	-0.006980099	-0.0009846315	-0.0046155676	0.019638252	0.010045122	0.025871705	-0.032958806	0.020906638	0.012289725	-0.0022329092	-0.04120914	0.03772534	-0.03779347	0.04760026	-0.036779143	-0.007887196	0.024072025	0.04992639	-0.021250118	0.015006427	0.041420612	0.034526955	0.041187834	0.040848326	0.04781672	-0.026085973	-0.04332731	0.043029282	0.045879174	0.021934237	0.038587395	0.017622296	0.028079059	-0.017799377	-0.028502632	-0.04187852	-0.033305634	-0.004208375	0.042577792	0.03660288	-0.02049668	-0.00699234	0.04627836	-0.026072383	-0.039685737	0.030105542	-0.021534229	-0.01226294	0.03124347	0.031393792	0.04844674	0.0443162	-0.045467664	-0.0028115287	-0.015126906	-0.019773377	0.047366943	0.038298216	0.047445502	0.043143142	0.024990093	0.029493738	-0.0037513003	0.044195008	0.034704115	0.020378362	-0.03089242	-0.042304505	-0.022736644	0.00039641932	0.013416145	-0.041843913
right	-0.04182998	0.0025893077	0.030338142	-0.048675347	0.0085706115	0.04236256	-0.013607778	-0.022612834	0.04613043	0.012936894	-0.0068858042	-0.034491815	0.029965546	-0.020851195	0.0036123395	0.028202478	0.036497775	-0.043834984	0.010760676	0.012181032	-0.03491036	0.032723118	-0.0021273978	0.013312373	-0.03502209	0.03415895	0.04779953	-0.04404497	0.001914978	0.010100998	-0.008557368	-0.00019028038	-0.0377808	0.009325385	0.04809307	0.01309533	-0.018010508	-0.020074427	-0.0020336285	0.012360275	-0.030385746	-0.040215492	0.046956185	0.010569654	-0.04815426	-0.034755718	-0.012972571	-0.035730682	0.026436616	-0.048852086	0.018467579	0.027274374	-0.008850623	-0.011514448	-0.00037084892	0.00012745708	0.0234689	0.01456118	0.039612856	0.008207776	-0.02905544	0.04888476	-0.035577882	0.015937675	-0.03618102	0.03693478	0.035708774	0.035430696	0.041588735	0.011065293	-0.032413304	-0.043416765	-0.018223453	-0.0042262077	0.0043229945	0.019729678	0.003771793	-0.043912854	-0.00062017515	-0.045170236	-0.013785861	0.011591516	0.04395256	-0.047616925	0.020386968	-0.034954835	0.001526393	0.034228515	-0.04438288	0.04044496	0.038183894	-0.0011133067	-0.02994045	-0.019328034	0.025649521	0.03582013	0.046334136	0.041739557	-0.03642081	-0.006254114	0.04049046	-0.00064174086	0.022524487	-0.03909135	0.044216935	0.015832175	0.044697527	-0.006579913	-0.020122958	0.033375394	0.0024294145	0.0016466752	-0.04488125	0.018415574	-0.009940337	0.041517485	0.010928642	0.018148962	0.045432363	-0.04569293	0.0041899793	-0.014236044	0.048838045	0.025508318	-0.033610333	0.027772736	0.015441332	-0.04789802	-0.04572637	0.003842771	0.007165633	0.00442376	-0.036631633	0.036828462	0.048500728	-0.0075753815	0.040929545	-0.028119147	-0.009163223	-0.014690291	-0.014944233	0.04967398	-0.037912905	0.011600494	-0.023402894	-0.046852756	0.037849855	-0.012556277	-0.0051593073	-0.037848808	0.010197222	-0.022283329	0.030218031	0.017813291	0.038179006	0.024762485	0.024240468	0.01684234	0.023134638	-0.0023247227	0.039672647	-0.045433618	-0.030014003	-0.035392918	-0.036925457	-0.042989325	-0.02040192	0.036114786	-0.029458702	-0.0008849129	0.037466634	0.047814045	-0.006149363	-0.019505573	-0.03264916	0.034309957	0.011358131	-0.018566538	0.002164267	0.04300685	-0.017817654	-0.03193321	-0.024259007	0.01890124	0.025783423	0.042162027	0.012125649	0.030953858	0.017127063	-0.033102155	0.006638348	0.024558175	0.027170453	0.04268453	-0.011506569	0.049969267	0.01905967	-0.010451853	0.042670373	0.031332623	-0.00018644333	0.0069528446	-0.03314904	0.033637468	-0.04668522	0.045066748	0.0002896078	-0.024524748	-0.040086042	0.026186977	-0.015024327	0.022695098	-0.04765929	0.02219658	0.047900107	-0.012581907	0.037229206	0.022846807	-0.03553773	0.04740161	0.034304094	-0.022957837	0.027938236	0.01659106	-0.017369747	-0.049956083	-0.016091812	-0.0017619357	-0.045740735	0.027626429	0.03731266	0.031342354	0.001685869	0.047919128	-0.036578465	-0.03047849	-0.01607902	0.023846004	-0.04225136	0.016476069	0.013282988	-0.003973376	-0.0287261	0.029512133	0.03429245	-0.043686103	0.03358488	0.040355314	0.03436402	0.035222027	-0.04805397	-0.011412941	-0.005565416	-0.039598644	-0.02601756	0.03836019	0.03762806	0.028897334	0.040113572	0.04470854	-0.019502807	-0.009878136	-0.032675184	-0.04209125	0.036012243	-0.00039665774	0.03417441	-0.032253314	-0.035687793	-0.03199526	0.0189129	0.02047849	-0.010274708	-0.023124684	-0.0027310476	-0.018520057	0.04889485	0.041860092	0.020777773	0.015236568	-0.02801974	0.015544642	-0.0070885196	-0.01339085	0.037147533	-0.016719438	0.010643326	-0.026959015	0.04645126	0.04506633	-0.0057465546	0.032362748	-0.02689371	-0.0025020018	0.031022955	-0.012382258	0.04911006	-0.015978575	-0.046082474	0.010302782
axis	-0.0063948035	-0.029003834	-0.041769158	0.023009647	-0.03789226	0.02138367	0.002208531	-0.041469313	-0.03438673	-0.019984746	-0.015154075	-0.028596163	0.01836497	-0.045665573	0.039324228	-0.036052905	0.0028988495	0.005387306	-0.011529066	-0.031603515	-0.027660608	-0.024136854	-0.007817231	0.04314765	-0.031732906	0.012727711	-0.0025282502	-0.045929696	-0.037132252	0.020698179	-0.03742224	0.045325045	-0.041392494	-0.03372991	-0.02136283	0.023322131	-0.032983318	0.0037991032	0.0487904	0.017488781	0.017252717	-0.04313425	-0.016617395	0.02950145	0.018185925	-0.035000276	-0.00020288303	-0.0285136	0.022754598	-0.012600135	0.032445457	0.014008034	-0.036637235	0.030192439	0.014129113	0.045050573	0.042999838	0.048746932	0.044937048	-0.042518236	-0.03820262	0.049514327	-0.008596383	0.049374912	-0.03125397	0.040312026	-0.013403617	0.04081503	-0.006964706	-0.027432298	-0.02494861	0.018822458	0.04695717	-0.0047981367	0.043626536	0.01839986	-0.047929075	0.018871453	0.041693714	-0.04011829	-0.026118292	0.041314874	-0.04329443	-0.042006385	0.010893367	-0.020746494	-0.043349374	0.007996857	-0.029812409	0.004092764	0.038985346	-0.03862405	0.02027985	-0.0120161995	-0.047287583	-0.042980958	0.024527166	-0.02380587	0.046722997	0.03125901	-0.023851836	0.044240836	0.024774838	0.011092305	-0.043973114	0.03612605	-0.016874708	-0.007943522	0.03163195	0.022543836	-0.0050399415	-0.014288951	0.0032163486	-0.030548204	-0.007774342	-0.015166521	0.030256238	-0.03814696	-0.015818559	-0.044549108	0.031513188	-0.015223097	0.010079563	-0.032575026	0.021947589	0.004913736	-0.044848002	0.047546912	0.03869306	-0.022328675	0.045692477	0.04710689	0.041646015	-0.026494538	0.006960608	0.021863569	-0.027393103	-0.025775302	0.023877647	0.0073456056	0.025246788	-0.030459357	0.044484664	0.047214594	-0.045439135	-0.0022822507	-0.0071096905	0.04076698	-0.010649372	-0.004067719	0.015440274	-0.005580675	0.017000068	0.040918533	-0.014633942	-0.043260466	-0.03735132	-0.014951028	-0.042149983	0.0053923614	0.012578081	-0.0044979677	-0.006804906	0.0042489544	0.006174542	0.018130887	-0.026366115	0.042945478	-0.009619415	0.044271637	0.028513815	0.015224729	-0.021961523	-0.049925722	-0.039923526	-0.049379457	0.012071431	0.028221045	0.027229082	0.00936272	-0.008967482	0.026740383	0.010423768	0.038655195	0.006993927	-0.02050717	-0.016768895	-0.015510164	0.019769717	-0.03676306	0.0007224679	-0.03989749	-0.014385473	0.012637857	-0.0035995133	-0.028151382	-0.036100827	-0.0012938268	-0.005142905	-0.039244853	-0.007659387	0.04949877	0.047741774	-0.023003602	-0.006816268	0.014841687	-0.01755283	-0.017274559	-0.003443323	0.039832365	-0.031954348	-0.03776505	-0.007887173	-0.023615504	-0.03896431	0.022539947	0.011928737	-0.016669583	-0.014986705	-0.041084636	0.027124751	-0.026789606	-0.04344281	-0.00047339126	-0.04449227	0.043453816	-0.042788077	0.0479015	0.03732926	0.009396948	-0.04289732	0.022419285	-0.018330503	-0.00097390264	0.03208674	0.010353148	0.02505399	-0.016747188	-0.017535709	0.022121456	-0.015146792	0.047845352	-0.015896142	-0.047723163	-0.005163718	0.025164831	-0.030311406	-0.045315016	-0.046025027	-0.04187243	0.042091873	0.013227414	-0.004110135	0.031456005	0.037880037	0.012322307	-0.012685169	0.0052979365	0.045713868	-0.029815162	-0.035871327	-0.014858175	0.01823156	0.04007734	-0.007914089	0.0049306154	0.013189781	-0.031943455	0.022758711	-0.047663033	0.049078453	0.0353582	-0.031021763	-0.0059528463	0.023711834	-0.027171457	-0.04426937	-0.02880535	-0.025717104	-0.008683275	-0.04413098	0.004185736	-0.0034301654	-0.0221102	-0.04223254	-0.03662877	0.006300986	-0.028195536	-0.010155477	-0.017219912	0.037192736	0.04295386	-0.043307375	0.011852145	0.004471481	0.03411484	0.039639864	0.0029634722	-0.027282	0.016869035
electrical	-0.020147646	0.032799747	0.032700907	0.025778923	-0.0012543574	0.0075974576	-0.020540012	-0.029363215	-0.019439567	-0.019192541	0.0040624253	0.029674318	-0.043938246	0.042331386	-0.0220536	0.009771012	0.030677225	-0.028763985	0.023910943	0.019141737	0.045509186	-0.02300389	-0.029235018	-0.027004315	-0.007054828	-0.0066957697	0.008471262	-0.03830713	-0.03375095	-0.011811219	0.036234964	-0.023550952	0.035657834	0.01831511	0.0002085939	-0.032839943	-0.020391215	0.04247934	-0.014175665	-0.025606155	-0.025915826	0.0076935776	0.011811744	0.0054895505	0.039327037	-0.032805383	-0.03420769	0.0014245138	-0.008839894	0.047700237	0.03602873	0.008151911	0.017761711	0.04615793	0.025374148	0.016416255	0.008458365	-0.013902664	-0.025477553	-0.00016554445	0.03252239	-0.042489734	0.021485183	-0.038274992	-0.046105396	0.005239524	0.04819316	-0.019344104	0.024227824	0.0268551	0.032608677	0.045552734	0.03433344	-0.0480158	-0.014311828	-0.0038796067	-0.026057554	0.046342555	0.0475096	0.0012355559	-0.036827303	0.04380587	0.00034274906	0.040100608	-0.0065670833	0.0143134855	-0.012393426	0.014464084	0.040164184	-0.009894393	-0.04968331	0.027919602	-0.019785643	-0.0422467	-0.017704867	0.026387181	0.01504663	0.030960333	-0.042424705	-0.0073752888	0.0011412278	-0.0144426115	-0.016591083	-0.020954704	-0.024751663	-0.01759275	-0.004806362	-0.01474781	-0.010932792	0.019703697	-0.003882192	0.03520448	0.016731296	-0.023548484	0.01170801	-0.019521331	0.028112356	0.027500127	-0.04245293	-0.04663229	0.02809373	0.0033769011	-0.0029662028	-0.022296239	-0.019236196	0.020299781	-0.019547034	-0.041012693	-0.0013379231	-0.004699815	0.020685647	0.016046513	0.042554144	0.049912658	-0.008674048	0.0059805736	-0.021957338	0.023815218	0.03781047	-0.026038026	0.014610555	-0.03790468	-0.01736449	-0.033561245	-0.020022666	-0.038846195	0.03125668	0.030552868	-0.03929943	0.039678764	-0.015762806	-0.046858944	0.037859384	-0.009755302	0.03456572	-0.009892248	-0.045464218	0.026971553	0.031263318	0.01159706	0.012834359	0.0011814125	0.022660162	-0.036397755	-0.019077778	0.042967428	-0.03509245	-0.010850299	0.048745636	-0.049791016	0.045239437	-0.044296682	-0.000875663	-0.014954638	0.032224525	-0.033918217	0.019696299	0.016183522	0.026816595	-0.010264836	0.04398239	-0.012069453	-0.048838068	0.040353943	-0.02173928	-0.049978863	0.027962316	0.03613467	0.038542103	-0.031719375	-0.035755146	-0.037353933	-0.016407453	-0.03306197	0.018003095	-0.021378065	0.036951546	0.03353666	0.005107008	0.039808575	0.017893638	-0.021937395	0.015844095	-0.023868978	0.04150225	-0.0003808029	0.01829299	0.028545406	0.015437949	-0.021126509	0.030368615	0.013847683	-0.012839176	-0.02614454	-0.029811442	0.020078208	0.035095464	-0.0026514754	0.041023005	0.044423643	-0.019295394	0.043796446	0.018987391	-0.0037741885	0.007860232	-0.005894698	0.03305516	0.019519065	-0.013628613	-0.042799104	-0.025250662	0.009192158	0.013150457	0.041558076	0.04035454	0.010227777	-0.04024024	-0.018352438	0.019257832	0.019042682	-0.042727042	-0.0331226	0.0100317	0.041457627	-0.04220246	0.041994993	0.0056506507	-0.016509771	0.04177734	-0.041666485	0.044256482	0.029110465	0.0079217665	-0.027285254	0.028395321	0.03220767	0.032058146	-0.034286454	0.035283003	-0.021072447	-0.04721713	0.020752434	-0.0059311762	0.049538944	0.0050135367	0.032092545	-0.0016046166	-0.013138782	0.044231523	-0.004819371	-0.013213955	-0.047297563	0.039504085	0.015471611	0.0020747073	0.035552923	-0.0006900802	-0.0011495352	-0.030892206	0.035879303	-0.04728247	-0.008980632	0.04385892	-0.021834327	-0.037959717	0.031345394	-0.028050149	0.035580207	-0.026446497	-0.008235909	0.01478361	0.03770436	-0.0010790452	-0.024103357	-0.027893139	-0.044159282	-0.022733832	-0.043114092	0.046421874	0.016382609
normal	-0.045857776	0.025592212	0.031592775	0.0135677345	-0.024137426	-0.022430992	-0.047012724	-0.0010451451	0.01604532	0.02308439	-0.03827914	0.00025770813	-0.0263551	-0.0121951215	0.005626429	-0.0122573	-0.035600208	0.022860017	0.0043076277	-0.0323238	0.011549223	0.019354109	-0.029157175	0.0020606294	0.03591151	0.048232827	0.028634492	0.036677483	0.0048313625	0.016125504	0.0032675043	-0.043935657	-0.0025727153	-0.007770121	0.027449276	-0.010069311	0.011875607	0.020911183	0.030386869	-0.0019712076	-0.046398845	0.032022204	-0.030363275	0.040006567	-0.039599907	0.027333904	0.02225509	0.047720518	-0.049107946	0.048247207	-0.010556627	-0.0146870725	-0.021343423	0.0019754767	0.016368318	0.026755597	-0.024972713	0.031457495	0.017595056	-0.047459055	-0.037408747	-0.035006095	-0.008376587	0.032908116	0.046173487	-0.049653377	0.015330423	-0.049826562	-0.013068736	0.04947001	0.02853452	-0.017465748	0.03792521	-0.040682625	0.03737737	-0.03859345	0.0009251721	0.022924606	0.0066151842	0.0073531047	-0.0031021126	0.009841897	-0.027814507	0.026009526	0.036979605	0.033142116	0.027134288	0.008685194	-0.033316124	0.019965176	0.0063525923	-0.041696418	0.019073937	0.010753702	-0.013325691	-0.031810164	0.018210199	0.015457634	0.026180219	0.016611684	-0.024812711	0.024098385	0.03622588	-0.035043586	-0.039422475	-0.040433727	-0.037224352	-0.028250039	-0.042763617	0.045028616	-0.03435844	0.027787518	0.014652159	-0.023586143	-0.014843501	0.0386889	0.03426743	0.03650621	-0.042406406	-0.006245125	0.0022310242	0.04255506	-0.016463172	0.011540759	0.031101588	-0.024755275	-0.044939756	0.01698513	-0.00667461	0.04477742	-0.00875517	-0.01601101	-0.035718262	0.011672247	0.04771595	-0.015028894	-0.046637535	-0.046920646	-0.005810689	0.014289033	0.034936022	-0.032279037	-0.024502277	1.0229647e-05	0.003255058	-0.020796156	-0.036020003	-0.036306392	0.011429645	0.004506875	0.014211599	-0.024082636	0.0346795	0.02582169	-0.013812672	-0.01174897	0.03752837	0.041447464	0.0413515	0.024941709	-0.013445187	0.014682759	0.000953041	-0.039590634	-0.003272403	0.04262365	0.03657892	0.04424837	0.029727902	0.013479952	-0.018848753	0.020422999	0.045407508	0.010818802	-0.016510416	-0.02233361	0.019983258	0.022869255	-0.018866587	0.01560105	-0.019706702	-0.004384171	0.016163435	-0.049278226	-0.03673911	-0.025914013	0.041825976	0.019302536	0.045049895	0.0363932	-0.020710384	0.02313343	-0.009970736	-0.031672694	-0.036230672	0.015721682	0.006233979	-0.023702754	0.012966644	0.0032509454	0.04881126	0.00897453	0.029366482	-0.04675707	-0.018173553	-0.010507476	-0.03652351	0.014718745	-0.02058264	0.035108317	0.04082605	0.007802319	0.032878708	0.0018625148	0.015429404	-0.0051714405	-0.007592477	0.034972098	-0.024219513	0.03280591	-0.012233496	0.0025124066	0.04598171	-0.02312429	0.030679394	-0.03245999	-0.023435151	0.021435987	0.013643	-0.048900258	-0.046120074	-0.033985056	0.039169196	0.02372929	0.02771287	0.025296796	0.020370912	0.012031294	0.028584186	0.04590032	0.0348419	-0.003840316	0.049030196	0.035325896	-0.035639	-0.010846712	-0.039858032	0.002743043	-0.019633247	-0.035167646	-0.028629078	0.027007949	-0.02847544	-0.013501156	0.04800004	-0.018201806	-0.04595201	0.0020358674	-0.044685807	-0.010847293	0.027267743	-0.0077497736	-0.0033939853	-0.0037721507	-0.035761334	-0.032108344	-0.033030964	-0.02622999	-0.019754661	0.0322734	0.041844558	-0.035186004	-0.027386928	-0.0073806867	-0.035645496	0.019278493	0.025020506	0.02115028	-0.049933564	-0.03759513	-0.019289697	0.048389267	-0.0016856901	-0.024218632	0.025496114	-0.042451072	-0.026809622	0.014525022	0.034307506	-0.025852347	0.0016215071	-0.020884907	0.044671606	0.02467009	-0.004579805	-0.00015891716	0.02719203	0.017495442	-0.026248647	0.00095391273
p	0.034163583	0.0495664	0.004518606	-0.018606532	0.04250295	0.048030388	0.033923496	-0.03376137	-0.018010903	0.037772242	-0.0021228902	-0.04315392	0.003913425	-0.025868153	0.04636276	0.04262959	-0.049723756	0.00054558367	0.010894157	0.045761053	-0.04138106	0.012857582	-0.04835503	-0.01450064	-0.009186555	-0.009210847	-0.0444669	0.016897548	-0.032278612	-0.008643102	-0.012157034	0.024343599	0.0020804033	-0.027965605	-0.019263936	-0.025962984	0.0129440315	0.022202168	-0.0064168945	-0.018706523	-0.009840559	0.01592907	0.031163003	0.031402122	0.02839129	0.026911307	0.003744565	-0.021032512	-0.020044936	0.049838785	0.021386515	-0.04425111	-0.040408768	-0.026480675	-0.04288689	0.008545589	-0.037956953	-0.009252191	0.005080033	-0.025618482	-0.0037045702	0.024219368	-0.0063848123	-0.023923004	0.047432277	-0.04261428	-0.00349636	-0.03296014	0.0269639	-0.020247638	0.04173957	-0.04286604	0.0011474863	0.042646375	-0.047490563	0.015443925	0.00025317818	0.010297693	0.0050688386	-0.043270864	0.04940145	-0.030113196	0.01273625	-0.01876061	0.037642073	0.006255783	0.032029632	0.031072568	-0.047057606	0.031857405	-0.020705843	0.006036736	-0.018585943	0.0036387816	-0.015162431	-0.020103741	-0.015602805	0.03699218	-0.024480974	-0.006802272	0.011129357	-0.00054460764	0.007331632	-0.019102205	0.02008159	0.036040533	-0.032065023	0.010908961	-0.015124094	-0.0018904433	-0.029982185	-0.004422486	-0.027765764	-0.0021834373	-0.044981062	-0.039208174	-0.038701426	-0.03527651	-0.034443308	0.049911145	0.0035377964	0.01125009	-0.032603934	-0.043625247	-0.031208051	-0.017560363	0.048802886	-0.023925602	-0.021523511	0.044479255	-0.03248979	0.024493907	-0.009991754	0.010459792	0.047930647	-0.0097930655	0.019504752	0.02097566	0.02261335	-0.044959035	-0.015522253	-0.008331049	-0.029077971	-0.041805457	-0.045442022	-0.023358895	-0.02877971	0.0029828064	0.032400597	-0.020354128	0.001870025	-0.0030719265	0.010792125	0.03794488	-0.017952789	-0.048205998	-0.013898432	-0.03271284	0.041284155	-0.011291169	-0.028970921	0.04697189	0.04542351	-0.025883127	0.037286583	0.04078043	-0.0403921	-0.0090671405	-0.04416529	0.045370582	0.032347206	0.036716368	0.03279176	-0.017133404	0.026947808	-0.042934597	0.012377728	0.03366294	-0.032325555	-0.014889181	-0.030712951	-0.02284435	-0.028582191	-0.034265995	-0.038093757	-0.040088605	0.015278246	-0.034446143	-0.022106528	-0.003075052	0.03791381	-0.038196195	0.020033304	-0.031778887	-0.048682418	-0.02445574	0.026756357	0.020409856	0.004550468	-0.017463397	-0.00017918274	-0.0051482692	-0.019701017	-0.04015851	-0.0291219	0.041788105	0.025738548	0.04827786	0.048340764	0.041265097	0.021613386	0.017701078	-0.028800452	-0.005310595	0.023697842	0.022073183	0.028660145	-0.0018400326	-0.019934405	-0.039637912	0.037987363	0.03823814	-0.012336254	-0.038413584	0.0013965964	-0.036890805	0.04393596	-0.0026813373	-0.01210301	-0.03932501	0.049020078	-0.013600111	0.04187164	-0.027973533	-0.0051317215	-0.047827628	-0.003914438	-0.01801721	0.020540025	0.016217377	-0.0113373175	-0.0049972534	-0.03302101	0.003950201	0.025987301	-0.028046131	0.03037801	0.048316065	0.039135005	-0.043576777	-0.009165704	0.024392616	-0.034407295	0.011483204	-0.012391556	-0.022716915	0.011392891	0.012870122	0.037058067	-0.03860619	0.011574306	0.047324944	0.010358371	-0.018979562	-0.013428949	0.0045435205	0.022878136	0.04207356	-0.036152087	0.03156617	0.030237082	-0.014882695	0.039621916	0.0075588934	0.041469406	-0.039060093	-0.014675152	-0.002415754	-0.028272046	0.027422931	-0.017336465	0.019446943	0.014910605	0.011335719	0.017133716	-0.010699071	-0.023518145	0.012380101	-0.03827703	-0.0044917352	0.024779622	0.012232028	0.016338114	-0.014355443	-0.0450969	0.008579899	0.035864566	0.014733557	-0.0308774	0.042440448
depolarization	-0.008129529	0.038652938	0.0655892	0.04549329	-0.027939148	-0.028553793	-0.037977543	-0.011658169	-0.044753227	0.0035100398	0.006440554	0.022092015	-0.0416583	-0.017902415	0.033723034	0.054919995	-0.04738864	-0.014968569	0.017856417	0.04046018	0.04604788	0.06201736	0.002987797	-0.0080080265	0.045648128	-0.05682116	-0.03754845	-0.029004732	-0.038701836	-0.02064902	-0.060406737	0.02682288	0.021400856	0.03548695	-0.05104825	0.031690735	0.05414668	0.03451585	-0.019863587	-0.017768597	0.04618731	0.026692115	-1.246063e-05	0.014579466	-0.041611865	-0.032891996	0.03368809	-0.024144527	-0.052355107	-0.069855645	0.022407403	-0.054159503	0.055470016	0.053442102	0.019082066	0.029498708	0.05119307	0.0035377634	0.039844364	-0.019575685	-0.06513732	-0.000806008	0.049772516	-0.03108734	0.018089274	-0.013390848	-0.013624368	0.06984368	-0.012023278	-0.001979486	0.0301821	0.06845754	-0.026782878	-0.0027156197	-0.030903282	-0.0119612785	-0.06630194	-0.02801397	-0.06395751	-0.021299565	-0.0281781	0.058311176	0.012131794	-0.019460177	0.02613062	0.012887763	-0.051456273	0.037461553	0.04966073	0.06557017	0.059740122	0.052697312	0.042862218	0.01633422	-0.02533925	-0.01506384	-0.020110555	0.070230834	-0.034280322	0.010643074	-0.027751716	-0.018669466	-0.015745563	-0.01683651	-0.032737803	-0.057712797	0.034036234	-0.060757536	0.054512307	0.009495614	0.012533304	-0.04447322	-0.024706757	0.01771241	0.011677084	0.046628907	0.06823175	0.06843155	-0.014836627	0.05405218	-0.01582691	0.008807571	0.0085425265	0.028362127	-0.049785037	-0.03542656	-0.025660597	0.04024073	0.055848207	0.021111751	0.017049676	0.030423593	-0.029686308	-0.06378788	-0.002070115	0.052895624	0.015248152	-0.011210264	-0.03524359	0.013837993	-0.030039357	0.01832835	0.016159097	0.064696774	0.028985063	0.014625948	-0.012405481	0.014711908	0.06749019	-0.030242123	0.06371727	-0.019283166	0.05351601	0.009983764	0.0068469015	-0.00760812	-0.033600166	0.023757592	0.012764339	0.031065045	-0.0019369895	-0.058725428	-0.010106233	-0.054280985	0.030717092	0.00217629	0.024837416	-0.023016592	0.018660516	0.005774373	0.016230376	0.029662546	-0.019738587	-0.00079339725	-0.0077388887	-0.016901568	-0.016566332	-0.021572184	-0.03060389	-0.020356722	0.008253494	-0.06506268	-0.014818786	-0.01528595	0.058963638	-0.05403446	-0.008768947	0.051989567	-0.05609648	0.016223816	-0.04284687	0.06355843	0.060594182	-0.0039710123	-0.048088428	-0.00022797665	-0.00025984528	0.039857138	-0.02847516	0.050738133	-0.0053121042	0.027528374	0.013534626	0.012806872	0.012552143	-0.039006997	0.037009098	0.05752067	0.024231525	-0.044191226	0.04293336	-0.058605645	-0.0026266917	0.011970831	-0.051731028	-0.06363167	-0.020887345	-0.055687923	0.029023904	0.02311105	0.04534174	-0.01705534	-0.0016183506	-0.043917414	-0.043950737	0.04522967	-0.006762185	0.017087474	-0.05001351	0.021661675	-0.039153907	0.030962491	0.06992821	-0.0050606984	0.0254759	-0.03558042	0.053080007	0.046646494	-0.001129154	-0.0069076745	-0.029476365	-0.035763904	0.013974863	0.0038886943	0.03300568	-0.06387107	0.0031242347	-0.04795393	0.011076193	0.045891672	0.060780123	-0.008767012	-0.028685737	0.005170167	0.0005002615	0.016060198	-0.060575005	0.009805953	0.040381443	-0.03324049	0.050737496	-0.070605114	-0.0045497064	0.03782546	0.007298497	-0.0058207866	0.057486694	0.019580727	0.031818718	-0.033396453	-0.019151898	-0.06019481	-0.019207401	0.03409036	-0.045321617	-0.007900694	-0.05204391	0.003841923	0.0068844054	-0.017519563	0.020978209	0.0026033544	0.050990198	0.02887182	-0.012640674	-0.03654193	-0.02932008	0.047605585	-0.028900225	0.05961537	0.05158896	0.063124865	-0.05605882	0.035297167	-0.027317025	0.008814584	0.06917572	-0.062274616	-0.043698065	0.024382405
qrs	0.00927626	0.016373206	0.03448515	-0.04949013	-0.049474955	-0.02062465	-0.0073550344	-0.0113013275	0.008353006	-0.040371787	-0.036844097	0.007790543	0.020837117	0.04420216	0.0029387586	-0.016787209	0.037798528	0.0030404814	-0.0024204366	0.0148597695	0.021040682	-0.042775013	-0.02160479	0.019318793	0.028449785	0.004407324	-0.014403462	0.04671463	0.029259156	0.035565984	0.038560245	-0.049540605	-0.0146759525	0.020426717	0.0045935027	0.0029690266	-0.008588266	-0.04073162	-0.028546585	0.0055764094	0.0018990524	0.033281278	-0.011927642	0.012651298	-0.009951532	-0.010137379	-0.011987437	-0.038060464	-0.034858156	-0.005709052	0.02168497	-0.017535198	-0.012441982	0.033096027	0.013681177	-0.014216613	-0.038963474	-0.010712087	0.022935044	0.029126968	0.015758839	-0.049107697	0.007135473	0.018016804	-0.013442863	0.0071888566	0.039300475	0.016565908	-0.029493809	0.004562758	0.011861764	-0.032263793	0.047187272	0.045456473	0.047452543	-0.023473203	0.016413774	-0.019461919	-0.018933237	-0.019357765	-0.034853578	0.01727711	0.029562239	0.04213811	-0.03748219	-0.034526885	-0.021466255	-0.043379534	0.042017248	0.047079746	-0.00045721605	0.004417766	-0.020769013	-0.009395219	0.016824987	-0.009438157	0.027186159	0.049372066	-0.011981297	0.017073963	-0.014032565	-0.028979301	-0.015131712	-0.049812865	0.021274712	0.014981199	-0.04849565	0.00834465	-0.0011913292	0.0034308918	-0.032756403	0.025299918	0.008415591	-0.0017515793	0.0013849139	0.006339848	0.04465021	-0.043961335	0.03619254	-0.029461086	0.01823027	-0.03563436	-0.002564419	0.015113201	-0.028686691	-0.012257326	-0.023352563	-0.027702762	-0.011520945	0.010881044	-0.048334565	-0.045545436	0.019165482	0.030687694	0.041135702	0.031470392	-0.017510928	-0.029411936	-0.029118394	0.017599586	0.034112956	-0.02275666	-0.004677333	-0.018099237	0.011281062	0.032726023	0.024135921	0.016033124	-0.014373802	-0.019444598	-0.03281634	-0.031728365	-0.023928476	0.038291667	-0.008636497	-0.024444247	-0.04602021	-0.041005254	-0.04551468	0.038167525	-0.01253264	-0.024540115	0.03291476	0.034191106	0.04036088	-0.036871158	0.022272948	0.043838326	-0.026770724	0.03206232	0.0433419	-0.004520405	-0.018852198	-0.035421215	0.034961667	0.006530784	0.00093047693	0.012264229	-0.025527764	0.03583331	-0.04664421	0.017493676	0.034735624	-0.04177598	0.021797027	0.022620548	0.011690307	-0.041977286	-0.0019019619	0.012322914	0.013791706	0.033514116	-0.027202237	-0.0130368695	-0.011738695	-0.00287503	0.012273669	-0.034825504	0.006286908	0.034500327	-0.0054444782	-0.010466717	0.0137784965	-0.031681597	0.03102452	-0.014019825	0.007005453	-0.014425658	-0.007616222	0.0036630034	0.02925526	0.048254516	0.02670883	-0.022742152	0.0024882555	0.0038442984	0.025143627	0.044905912	-0.017290186	-0.027085615	0.00016355515	-0.03444966	-0.009751271	-0.006010402	-0.04135462	-0.00026952103	0.015856717	0.037217308	0.02170204	-0.041239094	-0.036778856	0.02532569	-0.029111851	-0.005678486	-0.034105256	0.048485707	-0.0045701265	0.04226989	0.00849285	0.0031221025	-0.035457958	0.034155022	0.042356778	-0.04715356	-0.01819824	0.0072268024	-0.03238119	0.031597126	-0.030596817	0.014674913	-0.027746463	0.040258896	0.0054534674	0.0032715425	0.021102015	0.026985113	-0.0027904287	0.037573006	-0.0022233836	0.0014775395	-0.007301163	0.042760063	-0.038322844	-0.0076049455	0.024235379	-0.0244753	0.014685724	0.028049659	-0.048110854	0.014775965	0.00059192255	-0.00016757101	-0.048742272	-0.03941096	0.02756809	-0.03739637	-0.016679585	-0.03713361	-0.041847907	0.037408818	-0.0053878054	-0.021663308	0.018387262	0.026481662	-0.01782491	-0.029690957	0.009669624	0.012576792	0.029467944	-0.009939492	0.01185298	-0.03503122	-0.01980511	0.04786441	-0.04564872	0.013171945	0.026195992	0.022815112	0.0041687004	0.002526462
electrode	-0.046521533	-0.028765036	0.038041446	-0.04642706	0.048042323	-0.03684206	0.040826272	-0.00081876665	-0.027710224	0.00881673	-0.028512359	-0.032348394	0.03158505	-0.025886452	0.03565036	-0.036926914	-0.016139876	0.004966568	0.029917154	-0.009759963	0.026317406	-0.0036705844	0.041409794	-0.015007686	0.01698346	0.028028619	0.011409629	0.04561429	-0.04148637	0.043874715	0.018406633	-0.0076652877	0.044714283	0.033279765	0.03573816	-0.02955842	0.04476789	-0.026546074	-0.039411176	0.029745411	-0.007625114	-0.009189606	-0.003441859	0.039981868	0.032307457	-0.048852075	0.0062929504	-0.021969056	-0.029822279	-0.024255728	-0.00053877756	0.011824716	-0.02121824	0.02123579	0.038304854	0.043505494	-0.04995793	0.03634279	0.027735207	0.044912424	-0.01359117	-0.0068148375	-0.024994338	0.006581653	0.047606055	-0.011107005	-0.048166513	-0.045574177	0.017852511	0.03471252	-0.042704772	-0.044437207	-0.008601703	-0.029071664	0.018094007	-0.03884083	0.029789958	0.007993698	0.019821618	0.044061754	-0.027060652	-0.019128097	-0.006689418	-0.043167412	-0.021566117	-0.011873208	0.030996893	0.024382439	-0.0019215234	0.0070405714	-0.01855687	-0.042387176	0.0013651848	0.046136532	0.01603612	0.019989703	-0.037913322	-0.022805262	-0.022355784	0.04076275	0.039209615	-0.013093911	0.049228143	-0.046878625	0.02086332	-0.04642407	-0.024756147	-0.038270663	-0.03189589	-0.0034438856	-0.045035243	-0.019337727	0.0137775205	0.013734434	0.035139922	-0.046505284	0.021117259	0.00013149902	-0.00071207434	0.048913267	-0.030309677	-0.014356852	-0.016660295	-0.04682667	-0.0017421357	-0.03906276	0.010040332	0.0136157535	-0.035191704	-0.00051733106	-0.048446514	-0.04939718	-0.010290898	0.029168513	-0.028694808	0.01172496	-0.026305163	-0.015500285	0.023362998	0.036336113	0.028437663	0.013195921	-0.0008781664	-0.01310841	0.023421798	0.018648077	0.0037491806	0.019631807	-0.003307175	0.01997218	0.03742819	-0.002216898	0.016512204	-0.030428816	0.03469905	-0.03300177	-0.025949502	0.015900541	0.04698806	0.0018158332	0.020885173	-0.008980073	-0.03263537	-0.04868486	-0.00266229	0.008378923	0.010338806	0.0052699223	0.005768966	0.010709666	-0.02100401	-0.04074552	-0.0212294	-0.041703723	0.019443754	0.038867626	-0.020324219	0.028982613	-0.047535088	-0.017450761	0.008839749	-0.03319712	0.019500721	0.017418314	-0.0020522848	0.006522335	-0.022715403	0.022322703	0.00096659735	-0.033376683	-0.03538997	-0.027778639	0.0131852515	0.032831695	-0.02315327	0.009916544	-0.02372303	0.01754519	-0.004745424	-0.010462262	0.014984276	-0.010143507	0.015375201	0.03239814	-0.02282511	0.022282016	-0.007503651	0.011188805	-0.033705845	-0.027843226	0.041467417	-0.032194294	0.020340327	0.04287621	-0.02831018	-0.021406734	-0.045305945	-0.025420249	0.008732151	0.012185812	-0.044947755	0.045977984	-0.019727875	0.04072014	0.00932423	-0.030207051	-0.031427898	0.00936836	-0.04723213	0.0061986074	-0.042605247	0.030202571	0.01455703	-0.007919751	0.020153355	0.005734466	0.043033887	-0.04955515	0.004935302	-0.009066679	0.023475353	0.027169172	0.032791045	-0.021291627	0.04146875	0.004196156	0.0037078746	0.046604905	-0.03937795	-0.0020942912	0.0058202967	0.027749334	-0.041037418	-0.02425828	-0.012065459	0.032469545	0.030302946	-0.020339405	-0.03741027	-0.030774964	0.046728883	0.044751015	-0.041839134	-0.04976846	-0.019368602	-0.0017690063	0.04703262	0.03635222	-0.0394757	0.033185195	0.018984165	0.023614157	-0.0049837343	-0.014816262	0.010783993	-0.042799484	0.03734145	-0.032842517	0.012042236	0.034330253	0.030495275	-0.008338392	-0.04578767	-0.022637868	-0.031350352	0.022271838	0.025206897	-0.0446679	-0.043772187	-0.0071635135	-0.021392012	-0.029358888	0.036140922	-0.045994747	-0.016230725	-0.012389898	-0.01268778	-0.036911644	-0.034567155	0.047515538
positive	-0.04639827	-0.03239341	-0.021224558	-0.0045879856	0.012942318	0.030333545	-0.042646386	0.0071810707	0.03406265	0.021336745	0.033048127	0.0062959567	-0.04876372	-0.024859238	-0.023977662	0.04439259	-0.027284825	-0.0018565543	-0.020912886	-0.026714278	0.012107074	0.023969043	-0.030619597	0.016006414	-0.042934228	-0.0007538311	-0.03197571	0.02045146	0.008575834	0.020195257	-0.04788227	0.013048325	0.039305042	0.03284422	0.023048367	0.044786815	-0.037202943	-0.034031764	-0.016807187	0.0032168254	0.02471206	-0.0028660782	-0.03051442	-0.027803589	-0.04773283	-0.0466108	0.047905672	0.041935313	0.0050057396	-0.046363067	-0.015869547	-0.035633076	0.04198544	0.017928507	-0.03289725	-0.009220589	0.023075212	-0.008014582	0.0046896227	-0.03184402	-0.03815217	0.0064609423	-0.038007975	-0.002425801	-0.031357028	-0.036219597	-0.034573235	0.042688433	-0.04202645	-0.02877679	-0.03385532	0.017091576	0.008961786	0.030072417	0.017033946	-0.01997961	-0.045062758	0.026250612	0.04343753	0.04122219	-0.044890024	0.021420386	0.009673417	-0.04902948	0.032336596	-0.026966905	0.044769775	-0.0177158	0.045289073	0.00039616972	0.043069746	-0.03240957	0.024812344	0.022933971	-0.037021864	0.006022334	0.03135154	0.045043673	0.03381853	0.017683234	0.03299273	0.0470541	0.0059002526	0.017124902	0.013180915	0.013303686	-0.004572235	0.013616692	-0.005817961	-0.042276442	-0.01374625	-0.009571433	-0.024739623	0.034843195	0.03545462	-0.017593108	-0.028707338	-0.037786208	0.007891882	0.026019704	0.014298227	0.038240198	-0.0244331	0.04945599	-0.026177943	0.04518274	-0.010767221	-0.04857521	-0.00023095682	-0.04453137	-0.009009313	0.021747354	0.021576654	-0.004734136	0.026289295	0.04248749	-0.031215012	0.016340163	0.004123211	0.049037192	-0.021989692	0.048981097	-0.042082965	-0.02087598	0.004039217	0.03859924	-0.0304698	-0.045596696	-0.0495417	-0.043224216	0.004163552	-0.0142298825	-0.0495118	-0.018196452	0.029812489	-0.009970188	0.033327464	0.029167268	-0.044166457	-0.004861962	-0.020109762	0.01894616	0.029670212	0.047523763	-0.013710596	-0.01672721	0.004444111	-0.03869871	-0.023872066	0.0057136416	-0.028660405	-0.036112107	0.020842317	0.045656335	0.022586647	-0.0011606328	0.023025703	0.029435162	0.003848672	0.013234291	0.004471302	0.032611463	-0.0009114966	0.03240415	0.037738968	0.04904351	0.022323694	-0.040863656	-0.024507701	0.0072529204	-0.032420088	0.017824803	-0.029313553	-0.047796514	-0.03699677	-0.023722803	0.038305167	-0.023325324	0.00902183	-0.004558325	0.04535831	-0.0009606704	-0.028797721	-0.016851306	-0.0012178533	-0.031136144	-0.040731825	0.0010726675	0.028947141	0.04420295	0.015541982	-0.014294434	0.041480113	0.047950458	-0.006262731	0.034924496	0.007916998	-0.022627963	-0.038503874	0.023329917	0.038781766	-0.047686767	-0.03532629	0.017596733	0.010943629	-0.0012097955	0.012384079	-0.0017552264	0.041848365	-0.026828839	-0.026777267	-0.043535065	-0.024263883	-0.010639213	0.0040960684	-0.036827423	0.024343956	-0.04304061	-0.0053660646	-0.0029730573	-0.021020198	-0.011945285	-0.020235945	-0.030644083	-0.031505346	-0.018416166	-0.044395734	0.023547735	0.022100601	0.0423144	-0.02931279	0.002652835	-0.012347482	0.004319895	-0.016855776	-0.017901696	0.015676502	0.021259453	-0.043563545	0.030832361	0.0018457882	0.0010427013	0.008895051	-0.038992632	0.03700692	-0.004625153	0.0068347566	-0.034123197	-0.045003425	-0.02285465	-0.03419721	-0.024838388	-0.023203123	0.011165131	0.04851835	0.041220475	-0.022327637	0.014867473	0.03590766	0.0068256482	-0.013692509	0.020955551	0.046783652	-0.031887308	-0.022820055	0.015129123	-0.009810317	0.023127045	-0.01945783	0.0032611862	-0.019729769	0.048752677	-0.029236007	-0.047811426	0.03936812	0.009935308	-0.043517888	0.03982458	-0.0031584017	-0.030680168
ventricular	-0.008427419	0.045782972	-0.040057015	0.012591425	0.021326307	-0.028054906	-0.0006040819	0.019992914	0.015617464	0.044662837	0.044752445	0.036497597	0.021870855	-0.033061612	-0.031822026	-0.028597033	-0.020593286	0.008306406	-0.043164622	0.030292418	-0.019109106	0.0022578947	-0.024021221	-0.03971654	-0.012489069	0.043819036	-0.021447932	-0.04935614	0.03187969	0.048477914	-0.048880983	-0.0059041865	0.011094749	-0.043150604	0.025379214	0.018240701	-0.0057248473	0.020167623	-0.021708025	0.048821237	-0.023946334	-0.03958776	-0.015735984	0.04510257	-0.0478575	0.0062663183	0.025041867	0.040474836	-0.019383108	-0.039758027	0.03445301	-0.02368244	-0.038286306	-0.012135111	0.012289822	-0.021616602	0.02539431	-0.019801533	0.018899355	-0.036868047	0.031874347	-0.024811078	0.0026958473	-0.02405634	0.033167157	0.034447562	-0.024099588	0.011510491	0.0075229295	0.0070449226	0.047473874	0.013574529	-0.045715775	-0.048995625	-0.0023467652	0.000145711	0.00056440756	0.043972556	0.037461136	-0.010069799	-0.041453123	-0.04493619	-0.011084639	0.037841666	0.040132258	-0.0117091425	-0.039172947	0.03754809	-0.030200457	0.03378811	-0.022522664	-0.032179795	-0.030866241	0.03838868	0.011132576	0.0320197	-0.042031992	0.03583907	0.046675395	0.0073007345	-0.040836442	0.003309466	0.039525334	-0.012734629	-0.032020822	-0.004886247	0.049856428	-0.03319265	0.0397836	0.03266195	0.023761217	0.0024719946	-0.047122955	-0.03698225	0.01926395	-0.016125977	-0.026002944	-0.004234504	-0.047003854	0.02817874	-0.01096759	-0.012013651	0.031179313	0.012284528	-0.021675516	-0.04417186	-0.0060082674	0.040977012	-0.015394449	0.013938967	-0.012595095	-0.024748791	0.048132394	0.028087866	0.022620369	-0.03357004	-0.007839479	-0.01940744	-0.0076664574	0.03648713	-0.0004656203	0.039874423	-0.010237347	-0.04578507	-0.045908537	0.048795614	0.030733887	-0.03535422	0.023116175	-0.014005266	-0.0015529022	0.0010458343	-0.02737763	-0.009192966	0.047729973	-0.0056146607	0.0035298355	-0.013461828	0.040089976	-0.008081101	0.014976513	0.041572038	-0.0039772876	0.007780075	-0.01936443	-0.0062826984	0.04663806	0.037913587	0.03869832	-0.014586724	-0.019357359	0.049751256	0.0009783395	-0.038220335	0.030201796	-0.035774313	0.042083178	0.047739018	0.026666667	-0.0001627095	-0.04429977	0.021346536	-0.0027560964	0.029327001	-0.017162323	0.012511443	0.0056732893	-0.04409809	-0.029666413	-0.047778238	-0.02100718	0.012193371	-0.017940998	-0.046064164	-0.014522683	0.02843726	0.020518128	-0.045333423	-0.022405863	-0.004819166	0.021820892	0.044947412	-0.031780623	-0.018961573	0.0023561493	0.026363503	0.042244684	-0.028616024	-0.047766995	-0.0425738	-0.024741113	0.016623173	-0.035977125	0.043380965	-0.03886924	0.03898761	-0.044431567	0.0008791685	-0.042619895	0.021875296	-0.045515705	-0.01155249	-0.022064937	0.044295434	0.023023713	-0.04323852	0.009502899	0.032992568	-0.04665334	-0.0033728592	-0.038791966	0.049371753	-0.04212457	-0.022399569	-0.049731042	-0.024899447	0.0043310523	-0.031133056	0.011751018	-0.044601154	0.024991665	0.017964985	-0.028205885	-0.037803926	0.006319057	-0.03521962	0.009677589	-0.049502123	-0.016533889	0.026350204	0.018820692	-0.029546415	-0.03187968	0.0020110384	0.038385082	-0.02692063	-0.017380726	-0.014356695	-0.038043045	-0.044750165	-0.033184767	0.012011576	0.039199863	0.029735718	-0.018798864	0.017047618	0.037715737	0.044801902	0.031654563	0.036176715	-0.021465434	-0.04121796	0.01916356	0.022660162	-0.0058310516	-0.04186078	0.04165386	-0.012333881	-0.025146974	-0.021046102	-0.010489367	-0.0022234544	-0.046137154	0.038728047	-0.025479866	-0.04958105	0.020786766	-0.0200235	0.030494716	-0.028275812	0.0027926564	0.026202071	0.023150396	-0.017698802	0.012689743	-0.010927416	-0.044732478	-0.0040207133	0.0025482997	0.04755522
limb	-0.037451543	0.049414005	0.032179322	-0.020820415	-0.004164636	0.008249652	-0.013262235	0.011155188	0.023313489	-0.00093628094	-0.0019310825	0.03775244	-0.04933479	0.017361712	0.037173737	0.0468109	-0.018922377	-0.04331527	-0.02955686	0.021212641	0.02536073	0.00059922785	-0.0018516667	0.021256577	0.0033333786	0.00829488	0.04954375	0.037617806	-0.03287919	-0.047386136	0.04368181	0.004612446	0.046137895	-0.011503637	0.030451093	-0.0020853765	-0.0368552	0.0016421899	0.017392222	-0.025549447	0.048387896	-0.04137007	0.009394657	-0.0030815601	0.038158666	0.03974892	-0.0088771805	-0.03308747	0.0349867	-0.04977244	0.0075689666	-0.019776762	-0.045713402	-0.03805753	-0.026158964	0.032805536	-0.04017899	0.005954683	0.046576563	-0.04073441	-0.044042673	-0.026614308	-0.009632099	0.0048619285	0.0107476115	-0.0010539517	0.018881325	-0.020435572	-0.045260012	0.0107942335	-0.009062029	0.0028915629	-0.01396779	-0.030287504	0.026434634	-0.025036467	0.01655456	0.014096264	0.0053366646	-0.0030930527	0.047771636	0.043765318	-0.04391116	-0.039609395	-0.010601342	-0.016917944	0.014596377	-0.047237422	-0.024892772	-0.0047975294	-0.047425844	-0.0057234652	-0.047573816	-0.044692457	0.038715784	0.038736653	-0.033130445	-0.03175638	0.006700646	0.025979761	-0.015337251	-0.014265895	-0.01341759	0.027741242	0.017416622	-0.017405558	0.031732146	-0.049433555	-0.02559029	0.030391846	0.019306686	-0.012458753	0.049817946	0.016518865	0.035878632	-0.034459066	0.023647044	-0.041945994	0.03742229	-0.016861152	-0.037704013	-0.01964562	0.035364237	-0.035984684	0.034731295	0.033291247	-0.029709268	0.025601055	0.0076637045	-0.021201372	-0.032368887	-0.031485546	-0.03461518	0.047321383	0.017382454	-0.023732735	0.023005497	0.02457409	-0.024265373	-0.03946804	0.047924016	0.041982282	-0.043746065	-0.038766455	-0.038940072	-0.01862929	0.010363363	0.043728616	0.024187732	0.049001005	-0.03963822	-0.03875984	0.015445244	0.018977452	-0.035989653	0.036447648	-0.023619546	-0.0063218586	0.015032422	-0.03627628	-0.013533521	0.009104691	-0.036637913	0.026053969	-0.028831506	0.024558965	0.011087228	0.04880431	-0.03553035	0.04436178	-0.016157128	0.034747455	-0.026158309	0.022551987	0.03420465	0.004731249	0.04711056	-0.022328032	0.023993779	-0.0328372	-0.0022570603	-0.04256915	0.0043460727	0.005876422	-0.014419138	0.027334545	0.02444904	0.039491642	0.022490349	-0.015564539	0.014577094	0.029962566	-0.037843965	0.024237525	-0.014470182	-0.02938099	0.028060999	0.016452644	0.036526058	-0.036544524	0.032846738	-0.016444147	0.033519458	0.027297687	-0.023289574	0.019163433	-0.0025606528	0.038562503	0.013587896	-0.04637722	0.009995688	-0.047243834	-0.049554136	0.038174342	0.0075757615	-0.007994305	0.03537431	0.0071669705	0.03143872	0.011247195	0.039766017	0.025236618	-0.026082968	-0.013154291	-0.043601394	-0.008071054	-0.0317899	0.016753685	-0.023621334	-0.044279218	-0.014887106	0.014269378	-0.02852118	-0.018443298	-0.026021028	0.0483712	0.020156492	0.030624215	-0.019856084	-0.045086052	0.02453151	0.0071473345	-0.0016858801	0.021249618	-0.045471527	-0.0149899945	0.006147314	-0.048627436	-0.0015465245	-0.0188416	-0.03490292	0.042355325	-0.013131488	-0.012998603	0.047611106	-0.0042256825	0.040444326	0.029668812	0.021339443	-0.009971153	0.023794655	-0.026772344	-0.011022605	0.018790673	0.012942482	-0.026246166	0.001655031	0.02137326	0.00039564446	0.0077895634	0.00891	-0.022438003	0.026305486	0.0023839101	0.036904905	-0.0495353	-0.0019089803	0.013421606	-0.0448699	0.035521995	0.037878323	0.03271916	0.031555716	-0.041754045	-0.027322698	0.019079003	-0.0013683066	0.043343756	0.010344721	0.0046211854	0.03671087	-0.037085988	0.00088102743	0.026904497	0.010684967	-0.013464667	0.0152809955	0.023055289	0.045471396	0.041224685
arm	0.004267119	0.0404359	-0.048008215	0.008349277	-0.01309941	-0.022681428	0.035254154	-0.038521875	0.049447145	0.020342756	-0.04455484	-0.023749018	-0.014864732	-0.009181283	0.01212709	-0.045689523	0.04635633	-0.026500082	-0.017389525	-0.0104965195	0.006997429	0.029880654	0.03389399	0.0056896918	-0.016161837	-0.03557525	0.04691262	-0.03030461	0.04003421	0.016043138	-0.018599652	-0.0015765205	-0.013749827	-0.04810382	0.041905235	0.030767407	0.046280924	0.0137726925	-0.036746096	-0.012221694	0.014683437	0.025056157	-0.0009354837	0.047916476	0.045418527	0.013350558	0.011826493	0.02678119	-0.02396065	0.017962482	-0.04358367	0.0254674	-0.031048512	0.0015416145	-0.018029593	-0.021809746	-0.03239467	-0.011834454	0.044644367	-0.03234713	-0.016718902	-0.022803891	0.02888954	-0.04580028	0.028388593	-0.022106279	-0.027406348	-0.04366354	-0.04963417	0.024262976	-0.035506498	0.045189884	-0.033118952	-0.015011273	-0.03044696	0.025285814	0.026640449	-0.024131907	0.012089599	0.008845188	-0.029495513	-0.019387925	-0.01715722	0.04626893	-0.01580713	0.015248667	0.018454347	0.0389287	0.019483034	0.027443994	0.032879483	-0.0050285943	-0.034227274	0.047302697	0.0014868975	-0.024750317	-0.02054137	0.042950463	0.027999643	0.029881265	0.03177737	0.049944367	0.015820358	0.042708132	0.013737563	0.0068021193	0.014678691	-0.011539578	0.029310469	-0.04060944	-0.0018909462	-0.0008222349	-0.041055143	0.03132986	-0.046009876	-0.0069253333	-0.025489343	-0.030789947	0.022681367	0.002237536	-0.048747193	0.02618898	0.048745845	-0.04364089	-0.019348312	0.045774687	-0.0313388	-0.03553474	-0.005766727	0.03865877	0.008823119	-0.04513234	-0.033350505	-0.019781066	-0.033237517	-0.037958957	0.010059297	-0.004238151	-0.024329353	-0.03448969	-0.011143126	0.027942363	-0.0140833855	0.026358876	-0.020310367	-0.04900762	-0.019274462	0.0051231757	0.020188618	0.0070152655	-0.008772373	-0.02272575	0.010979246	0.04593749	0.03615285	-0.005536724	0.04315872	-0.0046390407	0.04293604	0.0021411888	0.024117757	-0.03387014	0.017783467	-0.04780848	0.049775336	-0.034480073	-0.033464983	-0.044650506	0.029097784	-0.0140280835	-0.014167439	-0.036707185	0.017944846	-0.046780635	0.035598945	-0.0066259615	-0.010438837	-0.022178292	0.04629657	0.041871037	-0.02945497	0.024329592	0.005369805	0.021166433	0.0024524704	-0.015478335	-0.005585205	-0.030295575	0.025592577	-0.040828217	0.022723723	0.032467034	-0.049048543	-0.029527152	-0.04241532	-0.019764328	0.037417922	-0.04150579	-0.018519223	-0.032246113	0.0022912621	0.016687404	0.040325534	-0.0071687475	-0.03410398	-0.021983683	-0.024959171	-0.047606826	0.004159879	-0.0019394979	-0.014783669	0.017008696	-0.045621146	-0.008312069	-0.019540442	0.030655537	-0.027099384	-0.0061920285	0.015645172	-0.045610644	0.021336269	0.03896692	-0.04496596	-0.035660543	-0.037195824	0.014001321	0.03445903	0.0026544333	-0.0016368032	-0.023801936	-0.039319813	0.03897765	0.039086845	-0.034427274	0.0484947	-0.016144324	0.025370885	-0.03005973	-0.025853729	-0.025591565	-0.017439973	-0.0043489225	0.01599386	-0.0009593852	0.021821763	-0.019266224	-0.004488766	0.018535603	-0.03278049	-0.04974122	0.035528887	0.038368676	0.03778204	-0.0043839216	0.0467232	0.01884539	-0.04646485	-0.0155163035	-0.013450004	0.0033967867	0.046187628	-0.007641364	0.04027039	0.034089033	-0.03620583	-0.00596001	0.04184175	0.04163977	0.007025946	0.019635823	-0.04136579	0.03115872	0.036365602	0.009668373	0.024819884	0.0013710372	-0.03532485	-0.021688402	-0.041512154	-0.03762144	0.018559162	-0.044293202	-0.016641665	0.04692545	0.031676117	-0.04188211	0.018248681	0.028489295	0.029572811	-0.0024065748	0.034528483	0.04280282	-0.0020569563	-0.042102456	-0.0007250793	0.028861824	-0.027811874	-0.031861737	-0.02734362	0.013773393
r	0.020582821	0.04244158	-0.014700521	0.029288378	-0.029724574	0.043875348	0.020171236	-0.037950803	0.0037380941	0.037756745	-0.020328129	-0.015821718	0.04945003	-0.016594756	-0.03508564	0.04388741	0.011707794	0.04098047	-0.04872024	-0.033655036	0.022217121	0.04546025	0.020350885	0.031551983	0.037279654	0.015049528	-0.007875621	-0.014152624	-0.015416194	0.013215426	-0.016982652	-0.045518875	0.04083499	-0.043433394	0.04274377	-0.023417627	0.032585252	-0.003762018	0.0067605264	-0.043538034	-0.030414784	0.022914793	-0.042068552	0.03524274	-0.018449795	0.043271307	0.003918957	0.018928263	0.026609767	-0.04485854	0.018727098	-0.0077698603	0.019705478	0.02900711	0.0013707504	-0.0384174	0.028048303	0.014927734	-0.04668219	0.025324736	-0.0139736645	0.030080918	0.005664192	0.021480385	0.017975714	-0.048137903	-0.013488233	0.027495112	0.025919426	0.037794877	-0.036686074	0.00622759	-0.011878241	0.009148084	-0.021382881	0.039325368	0.020185087	0.00555446	-0.034884118	0.04404125	0.03365395	-0.036423575	0.047010887	-0.035045505	0.04277343	-0.0001010187	0.045165848	-0.036598086	0.011193264	0.01892433	0.04458345	-0.011286415	0.0073999166	-0.019064559	0.046312284	-0.019697322	-0.0402601	-0.0331017	0.009599566	-0.03600017	0.01620983	0.017959598	0.013394598	0.014924075	-0.026481975	0.02095436	-0.00085650757	0.013286043	0.0104012005	0.04976139	0.025297116	-0.018266477	-0.013024069	-0.000569094	-0.023980057	-0.030589938	0.025564183	0.023869406	0.007354401	0.0367718	-0.0010335557	0.019059885	0.032910418	0.0491524	0.04656149	-0.041134417	0.034962546	0.029135976	-0.019320859	0.039855886	0.025117043	-0.007123459	-0.005750932	-0.016255092	0.0117502585	-0.00936655	0.030345406	-0.036737263	-0.006349612	-0.02890861	0.03453901	0.04474746	-0.036607396	0.013032261	-0.021627856	-0.03985516	0.024554554	0.0176039	-0.0025503524	0.0010077357	-0.03551296	-0.039004076	0.030862939	-0.021778548	0.024267327	-0.036794685	-0.044228733	-0.03968816	0.015666854	-0.027363766	-0.03007102	0.009799838	-0.027511586	-0.0076699257	0.008505367	0.005688451	-0.019572973	0.046058167	-0.0060089827	-0.0044260994	0.038751673	0.03488176	-0.027796471	0.019907784	0.028807651	0.035595838	0.026961926	-0.016750634	-0.020691086	0.023427498	0.017079007	0.04062623	0.031000186	-0.03388989	-0.032108866	0.03909106	-0.03051579	-0.011562727	-0.04267695	-0.045875967	-0.015725493	-0.043013226	0.0005656257	-0.01217692	0.018344168	0.016094673	-0.02290758	-0.042934407	0.023462784	-0.015592348	0.010402285	0.010007642	-0.020523762	0.015700247	-0.028781164	0.044320855	-0.03986175	-0.03173188	-0.03867177	-0.03598373	0.031243455	0.02648336	-0.016619049	-0.01850574	0.00011854246	0.01278564	0.019960348	-0.0071776994	-0.022606302	-0.0013738275	-0.04124247	0.049897615	0.024338115	0.041986775	0.034791995	0.045513783	0.03537481	-0.030560588	0.019798342	-0.0056461915	-0.00086051226	-0.019488037	0.006867338	0.04957832	0.020638052	0.029133428	0.0018210784	-0.02653197	-0.043410312	-0.013068698	-0.0144894235	-0.023222113	-0.03252609	0.037058543	-0.008090187	-0.04908743	-0.0089355	-0.033292428	0.028650533	-0.004096508	-0.04539858	0.002478756	-0.041267753	0.041519437	0.016446296	-0.018385671	0.013852809	0.004332088	-0.017870903	-0.025774216	0.011319019	-0.007041741	-0.011185706	-0.00213591	-0.013800941	-0.039921366	0.021010783	-0.04533688	-0.03585448	0.047606263	-0.0412272	0.015777756	0.040929403	0.029012349	0.04537655	-0.00972705	-0.045990326	-0.04367106	0.017282162	0.04888158	-0.032183565	0.013173472	0.0032944568	0.010533154	-0.026952494	-0.0013414733	0.04895052	-0.01331117	-0.046637323	0.049937177	-0.03137531	0.0030006543	0.014724541	0.01281495	0.011644434	0.0319081	-0.042923965	-0.003131926	0.022454504	0.0015288107
cardiac	-0.047505643	0.047786657	0.028622102	0.022747647	-0.03586614	0.024528418	0.006236721	-0.04492686	0.03377005	-0.03789761	0.030654993	0.010497641	-0.02193445	-0.011102952	-0.04565238	0.034718815	0.008459233	0.032387305	0.010954522	0.01598015	-0.0052635446	0.034566764	0.023345832	0.044753958	0.010746695	-0.024832904	0.040214527	0.045942042	-0.0023125187	0.0479887	-0.01841874	0.018769156	-0.04829773	-0.01641507	-0.025011683	0.007358454	0.049581636	0.026440274	0.0007272586	-0.0019318573	-0.030040134	-0.02648884	0.04026233	0.036307704	-0.009123541	-0.00711162	0.031592373	-0.01055032	0.0012989156	-0.006129373	-0.026983215	-0.040159702	0.009223748	0.019456718	-0.017851043	0.03824142	0.025424931	-0.008281507	-0.01069361	-0.029005123	-0.031804577	-0.002296783	0.02147415	0.026593711	0.043814365	-0.00030261278	0.040757094	-0.035944223	0.019654285	-0.018515863	-0.024502575	0.004646562	0.00655346	-0.021687364	0.022195328	0.017056432	-0.042341482	0.023086179	-0.026952242	0.03771979	-0.018561613	0.012183525	-0.045117702	-0.024846315	-0.018511962	0.026677255	-0.026974225	-0.027877856	-0.037681628	-0.03796035	-0.043996908	0.0271868	0.048391793	-0.004474841	-0.0063004605	-0.045476507	-0.035677444	0.024860393	-0.038588963	-0.041853666	0.004865635	-0.019671608	0.028574552	-0.034462653	-0.046884883	0.0043026693	0.035832945	0.0012963787	-0.04961394	-0.011160623	0.034301426	-0.033822477	0.04723933	-0.04085467	-0.01930139	0.049764518	0.014710847	-0.0228997	-0.038955737	0.025953893	-0.018207002	-0.011620618	-0.004227698	-0.03665129	0.020065237	-0.025099946	0.03817362	0.016505014	-0.027422179	0.040313546	-0.043338098	-0.026134301	0.03796765	0.016988125	0.002844192	-0.008450687	0.031445492	-0.02223413	0.040903185	0.020638231	0.033104185	-0.038496733	-0.01131209	-0.03859774	0.02629156	-0.04001696	0.048370946	0.022453789	-0.010943126	0.018207002	0.0249799	0.01203277	-0.047645975	0.026991677	-0.045000937	0.008676387	0.032397714	-0.02913971	0.008976769	0.03754327	-0.043076016	0.025635246	0.018241528	0.03654586	-0.020127846	0.037367586	-0.032092407	0.0032101497	-0.0068746433	0.043755103	-0.045855727	-0.046506193	0.0473227	-0.025637329	0.049924698	-0.0018050298	0.007461965	0.035991136	-0.03226812	0.048175324	0.034039844	0.03621879	-0.019860422	0.013461519	0.031109896	-0.027443945	-0.00782001	0.042702083	0.01855104	0.04035118	-0.0115250945	-0.00039571524	0.020225648	-0.003285218	0.021208253	0.0023778677	-0.02281325	-0.030630803	0.008267425	-0.047644522	-0.02073363	0.022013139	0.03966173	-0.03959013	0.0054273494	0.0051792637	0.03697065	0.012826849	0.033950295	0.027155492	-0.03717623	0.041203234	-0.04194043	-0.038528383	0.019127969	0.0037976988	0.021653388	-0.035987854	0.0023818724	0.010917582	-0.022283424	-0.039610017	0.02313951	0.048399102	-0.003106188	-0.014038049	-0.020464718	0.017290559	-0.0065169334	-0.011319198	-0.015204288	0.025155138	-0.021865262	0.047055308	0.027964305	0.033631694	-0.019722724	0.028504994	-0.0077696927	0.028314922	0.012199841	0.046558443	0.04432385	-0.049350657	-0.007879376	0.027941052	0.045337144	-0.014159728	-0.0066749565	-0.043279577	-0.010029815	-0.02125485	0.027351383	0.046805058	-0.018527605	-0.017108321	0.02029622	0.0019808896	-0.024843384	0.017890561	0.0063245296	-0.014310636	0.03866682	0.0489426	-0.04109291	0.010714173	0.032394137	-0.004206024	-0.044321965	-0.01542113	-0.002276063	0.037675608	0.030949246	-0.028897954	0.03452431	0.007913388	-0.010293566	-0.04007081	0.008454345	0.015102018	-0.0039990917	-0.0050023682	0.020368423	-0.009301294	-0.007839441	-0.019311	-0.018912828	0.0313357	-0.04728329	0.043684233	-0.04368509	-0.0062149167	0.014659058	0.035984967	0.018264737	-0.005067669	0.01808871	0.015765335	-0.0194196	0.0142822005
negative	0.0033674948	0.046809185	-0.012805603	-0.009222247	-0.04079815	-0.025993217	0.04611263	0.040309276	-0.02454759	-0.011077631	-0.0021995902	-0.03003025	0.015006926	0.048495796	-0.040503584	0.0021275654	0.015442882	-0.023729885	0.030200947	-0.016966093	-0.041006397	-0.013803422	-0.039453495	-0.0052180775	0.04971284	-0.03661567	-0.01932459	0.0029097423	0.03732219	-0.027262498	-0.015264321	0.039951835	-0.03823763	-0.03039645	-0.04235611	0.0096689835	-0.039718352	-0.014642883	0.0054267645	-0.047432747	0.025651898	0.02623124	-0.02639519	0.0486408	-0.016506791	0.0019533038	0.044569205	-0.04006375	-0.017511666	-0.026006913	-0.0120965615	-0.04343444	-0.039386224	0.0152748935	-0.033239618	-0.0057481527	0.020969141	-0.048962798	0.015133236	-0.0119153485	-0.020305062	0.010999132	0.048383724	0.00904844	0.03131664	-0.00011820719	0.018542815	0.03923649	-0.029304301	0.006777752	0.027011227	0.041304875	-0.02191465	0.0074749812	0.025592994	0.02448294	0.0044984594	0.016888823	0.0017688051	-0.0064383373	0.0009987727	-0.016637981	-0.0023435242	0.0034893043	0.033061218	0.020572115	0.045556556	0.036899235	0.029907431	0.0200889	-0.022248005	0.011661828	-0.043700647	0.014570903	0.005392097	-0.036471892	-0.027283728	-0.03314965	0.03083435	0.034184303	-0.00030963495	0.03178108	-0.0030578598	0.011734188	0.035216954	-0.0080336705	-0.047744323	0.024342906	0.0019596703	-0.02169819	0.027282167	0.03899983	-0.024189973	0.040712092	0.031279456	-0.014097523	3.194809e-05	-0.018074442	-0.027600516	0.029084872	-0.017039001	0.030799877	0.0026343465	0.047925208	0.03492396	-0.037724815	0.03682602	0.014773313	0.0015384555	0.03334445	0.04261971	-0.011828326	-0.019930327	0.01571853	-0.010340832	-0.022760605	0.0016208664	-0.03335692	0.031089615	0.028267253	0.026598189	-0.04023949	0.004315555	0.0141087435	-0.0062656775	0.01742101	-0.016458679	0.016334366	0.006016601	0.016863141	0.040417884	0.003923189	0.017650452	0.0482484	0.020543907	0.04868808	-0.036319233	-0.036439918	-0.014715135	0.0041563623	0.019600105	-0.020887256	0.008230399	-0.026891232	0.03592411	0.049874414	-0.008055616	-0.022095883	0.049705748	-0.0009158626	-0.037750304	-0.03983139	0.040849987	0.012840513	-0.028209424	-0.030711306	-0.014286518	0.03488071	0.0086555965	-0.026452338	-0.020156598	-0.0030990466	0.044847343	0.00713693	-0.037858903	-0.0121148005	-0.017962255	-0.020033455	0.0047502294	0.01665156	-0.005266048	0.046497297	-0.022813225	-0.017726433	-0.035480045	0.04714093	0.034101892	0.030986499	0.0363495	-0.01242559	0.04797459	-0.010614086	0.014690626	0.028251063	0.044364776	0.0019470826	-0.036346756	0.006729223	-0.03414786	0.02829596	0.021847311	-0.025804294	-0.033101693	-0.03211154	-0.04223728	-0.038781	-0.0178779	-0.046537627	0.04612157	-0.012707196	-0.049317576	0.0016061552	-0.033620335	-0.010110877	0.03972358	-0.010880876	-0.024267245	0.017004322	0.043311898	0.049445275	-0.012824964	-0.047254752	-0.029380858	-0.026482856	-0.024243785	0.013367366	-0.035335682	-0.047740925	0.038357284	0.037107695	-0.023841226	-0.044954505	-0.005633414	-0.009171832	-0.019040002	-0.0021183863	-0.0057400353	0.03818668	-0.030733181	-0.030661428	0.034821358	-0.012916125	-0.005618263	-0.043378975	-0.004010059	-0.02832706	0.028599929	0.012187552	-0.03034736	0.04970021	-0.029592229	-0.016417421	0.04005419	0.011935569	0.042401936	0.021106992	0.038230587	-0.03315779	0.00062823296	0.021794569	-0.0005486496	0.027638618	0.021992411	0.001953531	-0.03923013	-0.0014937408	-0.021667767	0.011379279	-0.016758502	0.010289203	0.040403474	-0.017603815	0.016976204	0.03040335	-0.0058165416	0.03543562	0.016307186	-0.04561306	-0.018015482	-0.03574382	-0.02611562	0.015717555	0.040021684	0.03324182	-0.02911489	0.014530752	0.03298373	-0.015914418	0.038372662	0.034541573
complex	-0.013094533	-0.03928443	-0.011284232	0.014053274	0.030856777	-0.00013478845	0.013604235	-0.0076908953	-0.011393081	-0.045883276	-0.041780174	0.036767635	0.049476717	-0.047649004	-0.035431027	-0.031333387	0.02999549	-0.012065195	0.027610783	-0.0047602654	-0.04692304	-0.042346787	0.048303615	-0.012526166	-0.022377778	0.000118494034	-0.003237784	-0.04670297	-0.040121175	0.0052626505	-0.005000852	-0.0031212345	-0.022968972	0.026057426	-0.024440516	-0.01688721	0.022920836	-0.0009101853	-0.015388645	0.034826066	-0.043630242	0.046562184	-0.047766697	-0.024321223	0.0038648024	-0.015777089	-0.02070874	-0.016023088	-0.022828639	0.009830665	-0.03623767	-0.009381007	-0.039654948	-0.04901289	-0.021636749	0.022746433	0.008622326	-0.015927218	0.04148518	0.0034941658	-0.0035668388	-0.041171946	0.014721658	-0.021774733	-0.010850944	-0.034740567	-0.021627402	0.042144503	0.013760719	0.04880179	0.02861977	0.032133546	-0.03949939	0.014410902	-0.018219672	-0.039544582	0.0011543855	-0.0029551014	0.029966008	-0.0027510896	0.009071648	0.022980813	0.0013515241	0.03927659	0.04902773	0.047601286	-0.013000689	0.0022685528	0.03461523	-0.022594644	0.017286334	-0.034004558	-0.010666143	0.02804711	-0.017344631	0.039541293	0.0061697476	-0.036979377	0.03311198	0.048215333	-0.002222348	0.030121256	0.044730473	-0.042668473	-0.017688058	0.018586967	0.04967231	-0.03558501	-0.035774194	-0.0132604465	0.015682135	0.035296094	-0.022579635	-0.045390595	-0.04988569	-0.041031204	-0.022961725	-0.0090936795	-0.0023494735	0.009657703	-0.041764807	0.027742948	-0.02821443	0.033550654	-0.044944026	0.0016584881	0.03060354	-0.005948603	0.009530745	-0.03411688	0.0063112266	-0.04356861	-0.037371673	0.043274734	-0.006074883	-0.014017306	-0.04639895	-0.047590017	0.024842922	-0.036274564	0.0022603758	0.0026960857	-0.020254767	0.028247785	0.046682943	-0.033421412	0.044111494	-0.039096583	0.03040855	0.008514009	-0.013326038	0.009860776	-0.01862508	0.04675064	-0.043948032	-0.040656924	-0.020438958	-0.017919756	-0.035271764	-0.026677942	0.03184383	-0.021275008	-0.00081750005	0.01648027	-0.0053185597	0.02538326	-0.029650522	0.025371078	0.03245947	-0.031578887	0.01979902	0.019678418	-0.024038125	0.035304297	0.002536893	-0.03457625	-0.0058046095	-0.025382686	0.025994014	-0.039856624	-0.038366806	0.017482314	0.019116137	0.022404555	-0.035509825	-0.016263664	-0.040561356	-0.029450405	0.040069435	-0.04589634	0.041753177	0.020057324	0.013729218	-0.047237266	0.025019292	0.047716115	0.040446427	0.0039926395	-0.028896857	-0.03443762	0.025119077	-0.0057398677	-0.046887007	0.010107599	0.003129147	0.039690543	-0.021114517	0.018067311	-0.010860898	-0.012491621	-0.02614428	0.017793026	0.047384564	0.040033747	-0.025513364	0.017075848	0.02600808	0.020432841	0.02970593	0.03137021	0.03152952	-0.006142091	0.012043763	0.044157777	0.0029332153	0.006909631	0.012319792	-0.042632103	-0.047470808	0.044354808	-0.033166815	-0.020608295	-0.0042277575	0.0010844469	0.020306695	-0.04860685	0.029965889	0.04492526	0.038208093	-0.045937825	0.038769294	-0.03352368	0.044245947	-0.01827836	0.04937053	-0.0313599	-0.048356462	-0.007880438	-0.004094936	0.032822933	0.010135222	-0.0330256	0.028032009	-0.016717874	0.013148133	-0.01822853	0.021605741	-0.014305234	0.017815795	0.023418237	-0.042758632	0.024500038	0.03583518	-0.007751107	0.010830842	-0.03598063	-0.037929617	-0.030196238	0.037617397	0.018713776	-0.012900185	0.047520373	0.0056433305	-0.049938764	0.040565167	-0.041949533	0.040931832	0.0032836199	-0.002468776	0.005257059	-0.023249006	0.0074502714	-0.04763503	0.014666047	-0.019740188	-0.0025228374	-0.028057862	0.006219588	0.013606597	-0.0121016875	-0.038811814	-0.011074185	0.04087237	0.0185359	0.006981194	-0.0038342476	-0.0164513	-0.0130473	-0.011768363	-0.007411219
electrodes	0.032212842	0.009561885	0.031265225	-0.03129326	0.030262578	-0.040204834	-0.029172529	0.021967623	-0.021734	0.035725344	-0.035906244	-0.011953808	0.003951419	0.037945334	-0.0128179565	-0.0044510253	-0.024420429	-0.0054425374	-0.035288144	0.046449784	0.0007554889	-0.016512394	0.011719871	-0.037532687	0.02182648	0.0047705397	0.0050729886	-0.018765736	0.025155652	-0.008450843	-0.020537972	-0.035799503	-0.033020545	0.006785024	0.026563797	0.033451866	-0.034674097	-0.0042848587	0.011417925	-0.037491072	0.0060432665	-0.029109573	0.0064229593	-0.026455998	-0.017576743	0.011535954	0.007547021	0.022407237	-0.010670029	0.02388351	-0.014818609	0.022783067	-0.03187479	0.047447685	9.204075e-05	-0.002524756	-0.01538942	0.021724332	-0.00066011027	0.0059624687	0.01760706	-0.04090439	0.019286085	0.04827324	-0.04781077	0.030380081	0.0029003248	0.04290134	0.0035183802	0.017637286	0.00887505	0.004447151	-0.032379188	0.03537548	0.020061348	0.009086765	-0.04863725	-0.016794026	-0.040309153	0.011354469	0.04736015	0.04781345	-0.02274779	-0.010138739	0.007847108	-0.039012372	0.005109586	0.04971231	0.046832312	0.0028795227	-0.01859491	0.047139335	0.023143794	0.039508414	-0.013343204	0.047707524	0.004688978	-0.0017907508	0.017929528	0.011393748	0.0150085725	0.03077836	-0.01648574	-0.021789432	0.02308691	0.010842301	-0.0058486685	0.004793834	0.040231075	-0.02872566	-0.03296671	0.00811876	0.042551685	0.023600366	0.017382327	0.00058240816	0.0097677	0.012034357	-0.01673039	-0.0006125085	0.013353776	-0.04813063	-0.0150363445	-0.02156545	0.047135185	0.0051542744	0.018523883	-0.04561863	-0.021306956	-0.04972707	-0.019009316	-0.004695855	0.020175885	0.01818708	-0.035240043	0.046621848	-0.014305461	-0.023806645	-0.03650707	-0.047295522	-0.0007670298	-0.029595543	0.016516019	-0.018467702	0.019587908	-0.04800388	-0.033096865	0.018730823	-0.007319249	0.047909427	0.012931887	-0.040680397	-0.045146693	-0.0013144128	0.007037975	0.026828196	-0.028414859	-0.046224225	-0.016714323	0.028855804	0.022005413	0.008277167	0.0146767385	-0.006171882	0.012675051	0.029281463	0.029131327	-0.006403912	0.027268063	0.03548548	-0.01764096	0.022628557	-0.0053866394	-0.023479521	0.03720403	-0.047355797	-0.0073210113	-0.011976562	0.0019171014	-0.049214162	0.043028045	-0.017876484	0.02029996	-0.0031403191	-0.019368542	0.037726652	-0.004113186	-0.020217752	0.030685011	0.03144064	-0.04509387	0.011266459	0.049087297	-0.041184045	0.04652394	0.041740645	0.046315793	-0.0456053	0.036235202	-0.03274119	0.04071207	0.041183803	0.027123298	0.025065254	-0.015592635	-0.0047319643	0.037760664	-0.0148042925	-0.010567687	0.040746044	0.03545339	0.046958473	0.015351187	-0.007943142	0.047989834	-0.0028341785	-0.043295752	-0.042107187	-0.02207445	0.04297972	0.028013851	-0.045999955	-0.037842415	-0.03947984	-0.018480979	-0.010261811	-0.032879867	-0.03467413	-0.044128895	0.024909068	-0.0045809746	0.040305827	0.012669835	-0.008478701	0.0038836375	-0.0021443143	-0.0060593486	-0.0035928711	0.038586173	-0.0062769763	-0.031605735	0.024879623	-0.00710243	0.048683885	0.0357838	-0.012705743	-0.032807253	0.021540914	0.035901252	-0.002401553	0.0029566176	0.037215304	-0.007887162	0.018573139	-0.026136113	0.0061587207	0.013580907	-0.0015144348	0.045450393	0.04465982	0.0032394752	0.0071827397	-0.013119768	0.00443089	0.015520487	-0.026132012	0.013646867	-0.04968326	0.042290356	0.02800924	-0.015455306	0.038263056	-0.005813908	0.0013363585	0.01346321	0.0037220716	0.028560374	-0.025635635	0.036508884	0.042575303	-0.04163612	0.0024552345	0.028532054	-0.023334516	0.030488145	-0.013783753	-0.044437815	0.01846211	0.006931044	0.02893417	-0.018236887	0.035299506	-0.04288906	0.041027773	-0.021392083	0.022268418	0.031540517	0.032802116	0.039001074	0.025039349
represents	0.045318116	0.018950533	-0.00394132	0.045245517	-0.043351114	0.04964708	-0.027439738	-0.02623403	-0.0029930845	0.00061591715	-0.015395187	0.007087864	-0.034282017	0.020772945	-0.01827985	0.019819502	-0.03414289	-0.014814377	-0.023091888	0.04097065	-0.00884242	-0.024783922	0.0147673	0.03198779	0.038914036	-0.049750604	0.03275344	-0.046791445	-0.025586927	-0.011889815	-0.041800715	0.019469228	-0.021262825	-0.046975244	-0.036211453	-0.0020073168	-0.0025638118	0.030252282	-0.017026879	-0.027607977	0.0035144314	-0.02519275	-0.047302317	0.03533354	0.02949356	-0.0444147	-0.014573537	0.03908403	-0.015131522	-0.016594745	0.046573628	0.04468507	-0.017684259	-0.017279554	0.009682797	0.049166504	0.04963546	-0.020122016	0.006619595	0.015808675	-0.0143628605	0.0052440986	0.014130522	-0.031587243	-0.034512877	-0.049943734	-0.016512312	0.019258115	-0.01143961	0.041589204	-0.023405863	0.042990718	0.047794115	0.012398981	-0.039709687	0.01684935	-0.0099141	0.017613295	0.046679128	0.017250571	-0.012263786	-0.028885413	-0.026574899	0.040904175	-0.0149211995	-0.045548536	-0.023654377	0.01699331	-0.03713665	0.029809486	0.04977132	-0.023150599	-0.031147122	0.027664032	0.0012757182	0.029359374	0.011128664	-0.018528651	0.004137896	0.0030714981	-0.006947793	-0.032405034	0.012927089	0.04882938	0.019238267	0.035384145	0.020218577	0.015615497	-0.024412513	-0.04793581	0.013148893	0.042349067	-0.042601217	0.047697213	-0.027762605	-0.01947031	-0.0025374517	-0.030637814	9.172037e-05	-0.024286484	0.04350983	0.012398481	-0.031348683	-0.04518267	0.049657967	-0.046643138	0.016183686	0.038494673	-0.006412126	-0.044469904	0.03131398	-0.025104357	0.043389294	0.030640531	-0.0323357	0.04396144	0.018991064	0.008900367	-0.026436985	0.0074786656	0.014045928	-0.010861684	0.046826515	-0.00773295	-0.021744346	-0.0210513	0.03183336	-0.023452867	0.04971787	-0.013168253	-0.044379927	0.029155862	0.006968368	-0.026231993	-0.002921749	0.011747468	0.025607537	-0.013153017	-0.040762294	-0.04114425	0.018084917	-0.036791433	-0.01595863	0.01615617	-0.03107351	0.0468734	0.0008194819	0.043225992	0.038546395	0.027323928	-0.00054579973	0.03455082	0.02476335	-0.0255934	0.024238337	-0.021124387	0.028328013	-0.012609173	-0.04969257	0.016632024	-0.03588114	-0.03231831	0.045213412	0.034571793	-0.02024342	-0.020743145	0.008437347	-0.01970066	0.016730849	0.036645	-0.010617066	-0.011109818	-0.040776085	-0.010743819	0.039625276	0.0044164434	0.00075681135	0.01740149	-0.008931734	-0.0413074	0.009854306	0.040657725	-0.035076868	-0.028198434	0.003577508	-0.0033539534	-0.015283037	0.009647559	-0.038163103	-0.01900034	-0.034403108	-0.0114373565	0.023911837	0.03740332	-0.04779638	0.038079035	0.034025695	-0.036346875	0.026292	0.015428726	-0.010455646	-0.03840561	0.030185606	0.012100376	0.022893142	-0.015416242	-0.024002327	0.021060254	-0.040501725	-0.040985297	0.026579741	-0.046038426	-0.029824365	0.047607098	0.028625857	-0.0038017407	0.043442633	-0.0204839	0.03293513	0.027688298	0.019944761	0.035607364	0.048672486	0.019769516	0.04171456	0.025044214	0.01608317	0.00010172278	-0.035624087	0.01142912	-0.046940017	0.016149808	0.043276194	-0.03091805	0.017495405	-0.03711631	-0.026881266	-0.0450125	0.023205843	-0.015253257	0.012688387	-0.02150396	0.041258786	-0.044323135	0.03597026	-0.0017704479	-0.04140402	-0.00932733	-0.026506936	-0.04901271	0.03465959	0.0025401711	-0.025482237	0.01748285	-0.049188126	-0.03544612	-0.036108613	0.015854064	-0.024955666	0.04420613	0.037680876	0.047149967	0.015389312	0.02986249	-0.009094559	0.043284167	-0.04109434	0.022660006	-0.049014784	-0.0005624071	0.022454862	-0.031421363	0.0042182803	0.0012245551	0.02949151	-0.028073395	0.030944232	-0.023035502	-0.02079996	-0.026602162
rhythm	-0.047262695	0.0116043575	0.038328204	-0.03532789	-0.003706526	-0.0012885816	-0.0006331578	-0.041429937	0.03224473	-0.031178033	-0.026929641	-0.039010167	-0.037994586	0.0075059533	-0.026224375	-0.038064063	-0.028287804	-0.037682366	-0.027117526	0.009138584	-0.009608604	-0.04675902	-0.017334353	-0.045193005	0.027762774	-0.007060837	0.016137134	0.04012138	-0.03203082	0.018894423	-0.025645567	-0.023696328	-0.03354784	0.006817378	-0.038609635	0.0020292401	-0.049349356	0.039256874	0.04578748	0.020244371	-0.01796639	0.03126624	0.03362522	-0.03696561	-0.03903358	-0.040009797	0.03737111	-0.043126155	-0.0030116811	0.038888264	0.0069571026	-0.019470263	-0.025768543	0.027161729	-0.000636328	-0.01883985	-0.0011808649	-0.047651768	-0.045450855	-0.00291761	0.02603506	0.027710963	0.023652922	-0.029470885	-0.0095201135	0.04614878	-0.006771732	-0.032628525	0.01542474	0.030023012	0.00044751167	0.029732976	0.03101838	0.0363382	0.020004157	0.028728414	0.002575945	0.047875587	0.039602254	-0.027427627	-0.0002509579	0.028625418	-0.043031465	0.041610602	-0.019814193	-0.049217712	-0.03128715	-0.031548	-0.036576986	-0.026510907	-0.00851972	-0.027397955	0.018412206	-0.0040562265	0.0402979	0.034531463	0.048919264	-0.019424498	0.009702634	-0.033973027	0.041924182	0.026355099	0.012217104	0.019938838	0.001139868	0.009580411	0.024466287	0.006226361	-0.037193824	-0.038206268	-0.018823279	-0.024854494	0.011967279	0.021443132	0.003953181	0.03233427	0.013339724	-0.04805336	-0.004838027	0.0025937185	-0.0091147795	0.0045311563	0.013324644	0.0036334023	-0.02459656	0.0244583	0.009502746	0.045255575	-0.008772086	0.009502292	-0.042649973	0.021709953	-0.0020767674	-0.007389713	0.01154536	-0.022756314	0.042289983	0.03028201	-0.011847485	-0.030325115	0.041366387	0.026671324	-0.017997168	0.0077499747	-0.028001953	0.04303663	-0.029057754	-0.02038554	-0.044285525	0.0008567199	-0.014614284	0.02172244	-0.04535223	-0.022008657	0.035031382	-0.01706288	-0.038701583	-0.028842105	4.1939318e-05	-0.018683802	-0.020594466	-0.026773442	0.023422148	-0.00686568	-0.0275553	-0.04110559	0.013795104	-0.013207376	-0.00023685768	0.009866178	0.0039897785	-0.031070484	-0.012088634	-0.031141818	-0.021969033	-0.019579722	0.038832333	-0.04738151	-0.025424004	0.049169328	-0.031661056	-0.009801306	-0.030709624	0.006491054	0.0075327866	0.021213021	-0.029544402	-0.037267376	-0.003512036	0.010723781	0.0040146112	0.016553964	0.04492065	-0.026141668	0.03218763	-0.018950297	0.006580759	0.045850065	0.006632138	-0.03736501	-0.0481079	0.004271291	0.011463083	0.01463915	-0.032770537	-0.00610286	0.04359046	0.0018836744	-0.04338776	-0.02883842	0.03638753	-9.576231e-05	-0.00962019	0.023631323	-0.04264344	0.009275414	0.0117281675	-0.02599956	-0.0055765137	0.047552023	0.015003074	0.01998737	0.023280147	-0.04200243	0.018360462	-0.04532832	0.04467665	-0.028380012	-0.03611164	-0.04364139	0.0444368	-0.02418201	0.03324708	0.008090235	0.022335771	0.037813116	0.048506033	-0.012362264	-0.021456623	-0.012568019	-0.029011821	0.04459809	-0.03747238	-0.0047215596	-0.023415506	0.027545284	-0.01582725	0.047215905	-0.0036766157	-0.023579752	0.04394089	0.025118027	-0.026200784	-0.0018540844	-0.01552812	0.018378828	-0.033984795	0.013225902	0.049501646	-0.025593674	-0.014290594	-0.0107906945	-0.049838483	-0.036227264	0.041767586	-0.01521932	-0.017557122	0.04102682	0.041509237	0.002728153	0.02055696	0.018364076	0.03382433	-0.020047141	-0.0062623248	0.029943768	0.0072885156	-0.015295576	0.0060609207	0.016797114	0.026955556	-0.01372112	0.0060540065	-0.015654862	-0.037675597	0.021786455	0.035970215	-0.0097566955	0.033646073	0.021539178	0.037272397	0.011408579	0.010718096	0.03202379	-0.0053115375	0.037225474	-0.022575438	-0.039535273	-0.02260654	0.026782844
