healthy 0.36235222 -0.112707905 -0.06367798 -0.007218429 -0.11190887 -0.08894627 0.39286467 0.3618546 0.36973372 0.41292125 0.4077692 -0.12697901 0.39511362 0.40712002 0.0564342 0.37614793 0.30316558 0.81860846 0.33416367 -0.112284735 0.39629105 0.39741603 -0.119830534 0.40633774 0.35694852 -0.2069555 -0.17936751 -0.19374013 -0.11612913 0.42573676 -0.1800153 0.25650993 0.015572351 0.42046455 0.40768385 0.39176643 0.37466115 0.052248687 0.3438908 0.37661827 0.0035947727 0.40079048 -0.01121602 -0.04671274 -0.14742991 -0.013361995 0.40056384 -0.156284 -0.07530522 -0.11822127 -0.07011687 -0.079362035 0.37269738 -0.1014449 -0.19147053 0.36404774 0.40147343 0.38660598 0.3796754 -0.07746327 -0.0013081382 0.3495965 0.36642542 0.364381 0.0006276509 -0.106913865 0.38668773 -0.12529242 0.40659156 -0.107555896 0.4095741 0.40617722 -0.11147342 0.16557613 0.40308815 -0.0013742559 -0.14289355 0.011388237 -0.108052194 0.029283224 0.4179769 0.41260698 0.40226406 -0.19199644 -0.14818661 0.404449 0.4273897 -0.0030503334 -0.10238792 0.4301228 0.36323065 -0.15068379 0.3513708 0.32833242 0.009428578 0.3599586 -0.067290954 -0.11305399 -0.12875006 0.010594932 -0.12293309 -0.09354441 0.03000541 -0.096158564 -0.09289789 -0.15574323 0.096092865 -0.104699746 -0.13643816 0.018283352 -0.0978512 -0.09403206 0.37537718 0.40194046 -0.1022259 -0.13451968 -0.11259252 -0.13261773 0.42159364 -0.023927934 0.10528463 -0.10968071 -0.089110956 0.42616275 0.101504594 0.38643306 0.01483241 0.38525105 -0.12121503 -0.1177741 -0.13120736 0.3547441 -0.0027083936 -0.07036714 0.10187136 -0.26975662 -0.11985962 -0.12676656 -0.14717247 -0.07726537 -0.105265826 0.39119393 -0.10788357 0.035731554 -0.013379801 -0.09758958 0.41884124 0.008028423 0.39150947 -0.010809809 0.33656135 0.26871255 -0.0009817863 -0.1482301 -0.10555822 0.3930968 -0.12601018 -0.122662574 -0.033019498 0.40735617 -0.04323098 -0.11245728 -0.026103776 -0.032137185 0.40043563 -0.10044485 0.041616656 -0.091333054 -0.109189816 0.33425838 0.28979403 0.015507158 -0.07971574 0.3477347 -0.0066060736 -0.10882331 0.058899034 0.28568667 0.43230855 0.4177535 -0.017805146 0.39391413 -0.0679936 -0.10861317 -0.11138928 0.0726787 -0.007095349 -0.028428417 -0.04228829 0.2757648 -0.015813686 -0.10563075 0.3915262 -0.042054217 -0.039469525 0.22787777 -0.111686796 0.37905607 0.41085657 0.42019588
position 0.40161526 0.326978 -0.18391365 0.37297356 0.42661768 0.34077471 0.31033254 0.37808064 0.36319703 -0.090328455 0.39630044 0.3669845 -0.14360875 0.39276093 -0.037984855 0.38145486 -0.15727201 -0.093558244 0.410849 -0.11326108 -0.086645715 -0.2826465 0.4099363 -0.009832412 0.3331052 0.36573493 0.3376707 0.3318944 -0.098767035 -0.09567327 0.39201796 0.37712842 -0.06704184 0.3342947 -0.2706804 0.3266358 -0.22814387 0.40338725 -0.17426747 0.34334743 0.3652789 -0.12173446 0.37209716 -0.05137343 0.23652944 -0.074925296 0.37027368 0.3471709 -0.06792531 0.06342084 -0.10259046 -0.08129089 -0.10057151 -0.072308525 0.41015404 0.37923568 -0.097246185 -0.19798203 0.39624685 0.3965969 0.37271604 -0.1405286 -0.2283071 -0.03436212 -0.09819072 0.35904634 -0.05863441 -0.13741975 -0.29241854 -0.12520987 -0.025803229 -0.08594036 0.41145733 -0.09618511 -0.029328398 0.3351519 0.39661843 0.39364928 0.4049792 -0.043857135 0.31718495 0.3506539 -0.011871394 0.39352965 0.37302443 -0.080640286 -0.06283038 -0.017106015 0.38223857 -0.073819995 0.3353433 0.39130446 0.34312594 0.12400301 0.32918414 -0.22612296 -0.039491832 0.39057997 0.35802853 0.110891625 -0.13828124 -0.08315836 -0.05276871 -0.13386725 -0.12377395 0.3723759 -0.032243345 0.39652175 0.41680455 0.1595509 -0.02839739 -0.07867793 0.37976098 -0.094782375 -0.06133686 0.09532137 -0.045151383 0.33183396 -0.076759495 0.38027796 -0.05239392 0.35996148 -0.03382491 -0.02136901 -0.06320898 -0.0835437 0.35115644 0.3632165 0.35621053 0.3575654 -0.086178645 0.4117005 0.36325592 0.33547324 -0.03816149 0.367504 0.33181328 -0.08586594 0.38138464 0.24743046 0.09428139 -0.102207676 -0.13804094 -0.117671795 0.39035335 -0.14831135 -0.106452845 0.35989478 -0.093129896 -0.07841044 0.34384382 -0.20761843 0.38320625 0.38942567 -0.08375084 -0.13427083 0.39588073 -0.2375627 -0.09004323 0.38893655 0.13062653 0.008069323 0.2616429 0.369969 0.10408834 0.33266482 0.33437148 -0.0315692 0.1289308 0.38008258 -0.08145985 0.1709798 -0.11908977 0.37584472 0.2447209 -0.074721895 0.23010378 -0.10817829 0.2929704 -0.045080185 0.39238575 0.38842112 -0.091165096 0.15812767 -0.12640147 0.4227508 0.37892246 -0.05725459 -0.041592594 -0.14367597 -0.049037237 0.149922 0.3549067 0.3556069 0.38112804 -0.20807478 0.40781254 0.36076388 -0.0807123 -0.03382917
trained 0.45786172 0.22133593 -0.2370484 0.5029413 -0.1537441 0.46922016 -0.19967887 -0.09931342 0.46620876 0.43752694 0.48581445 0.026722241 -0.10601468 0.31485313 0.49616197 -0.07177727 -0.23577914 -0.0846627 -0.21322867 -0.16823697 -0.11188271 -0.20866129 -0.12183364 0.45538422 -0.21465012 -0.12290328 -0.19509481 -0.059939098 -0.06917929 0.54958034 0.10004101 0.12634295 -0.2805571 0.4854809 -0.12983868 0.45682523 -0.18590337 0.43134075 -0.14484921 -0.13211414 0.4923522 0.39973685 0.48776817 -0.123153485 -0.114713 0.44880903 0.34042034 -0.11138393 -0.047020808 -0.17228694 0.41201198 -0.09319837 -0.13388485 0.3353443 -0.1526815 0.4714036 0.00022444315 -0.12078879 -0.1997581 0.37684792 0.48301554 -0.17930247 -0.20345551 -0.016826887 -0.01496182 0.45979723 0.49341083 -0.21811259 -0.29321876 -0.22227533 0.45042267 -0.097234845 -0.14039627 -0.13584477 0.50230396 0.4275263 -0.11482391 0.47802162 -0.067770265 0.4652073 0.46699762 0.40344286 0.43828088 -0.12379811 -0.11552543 -0.034033768 0.49019596 0.3675125 -0.13165645 0.45999202 -0.18276452 -0.18648723 -0.18805014 -0.2273967 0.46097827 -0.2364795 0.32962665 -0.16604982 -0.14220725 0.5131162 -0.1639799 -0.110449865 -0.115494795 -0.113442644 -0.25583723 -0.07003665 0.4367988 -0.10757855 -0.05830942 -0.21859126 -0.064119145 -0.05160386 -0.11129526 -0.23664156 -0.06215121 -0.1680958 -0.07811632 -0.10348408 0.3781618 0.47491089 0.49650759 0.090317175 -0.074851625 0.46798876 0.4183923 -0.055925466 0.49982452 0.3113888 -0.18883172 -0.033969082 -0.12247479 -0.21434508 0.49318188 -0.085050054 -0.046625413 0.028916376 0.43371657 -0.095628284 -0.14717695 -0.19029586 -0.15073285 -0.12151471 -0.19715516 0.47864583 0.45950505 -0.15144064 0.4337802 0.47232285 0.44458425 -0.07518858 -0.1151222 -0.20740378 0.4893533 -0.14198475 -0.08509133 -0.1598703 -0.15663368 -0.03765957 -0.021394499 0.45881206 -0.14763445 -0.111839965 0.45789286 -0.20380467 0.36217 -0.03646275 0.5161684 -0.22312911 -0.14758228 -0.11065466 0.09916978 0.49935153 -0.2140795 -0.14970115 0.39777163 -0.05018364 0.4708949 0.44727165 0.41968495 0.39763886 0.4492904 0.4748127 -0.011169876 -0.012285834 -0.24832565 0.457784 0.4525811 0.47109935 -0.093493946 -0.24102697 0.46907002 -0.1336778 0.3969421 0.49236196 0.44900447 -0.18271737 -0.11569297 -0.15178667 0.46238363 0.40794683
p 0.40090322 0.3278542 -0.1862298 0.37591854 0.4248368 0.34255692 0.3111904 0.37857416 0.36642987 -0.09081267 0.39527118 0.36815894 -0.14206171 0.3923216 -0.037093095 0.38319394 -0.15904282 -0.093493424 0.41376117 -0.11294435 -0.08377681 -0.28697664 0.40926784 -0.0062149204 0.3316883 0.36467138 0.33563024 0.3340614 -0.09851924 -0.09818994 0.389971 0.37656632 -0.066788115 0.33558217 -0.27096274 0.3268195 -0.22637273 0.40352505 -0.17055488 0.34344488 0.36484712 -0.12396578 0.3721318 -0.05151578 0.23872495 -0.071425974 0.36952254 0.34634396 -0.06611665 0.059271924 -0.0997028 -0.08027274 -0.100219354 -0.0750546 0.41123575 0.3805605 -0.09672408 -0.19432095 0.39446175 0.3969676 0.37369984 -0.14047311 -0.227987 -0.03627121 -0.09714157 0.35742122 -0.058980744 -0.13398026 -0.28993958 -0.12476826 -0.026559955 -0.08875017 0.41135794 -0.09896114 -0.032443836 0.33771256 0.39722544 0.39459002 0.4069222 -0.045755193 0.32030928 0.35138172 -0.013242189 0.39402032 0.3734558 -0.08054689 -0.06482635 -0.01456033 0.3822552 -0.07438247 0.33478308 0.39379957 0.34213984 0.1231125 0.3255191 -0.22746386 -0.039468817 0.39005932 0.3574788 0.10993609 -0.13629153 -0.08394361 -0.050530847 -0.13504745 -0.12233899 0.37337595 -0.032330576 0.39786354 0.41594106 0.15932326 -0.028418416 -0.07494244 0.3788861 -0.09708444 -0.05968905 0.09486227 -0.04654128 0.3346909 -0.078887634 0.3801561 -0.05257936 0.3607038 -0.035500817 -0.022863116 -0.0629318 -0.081021726 0.35213724 0.36068296 0.3536655 0.35790914 -0.086110815 0.41311932 0.36525357 0.33510274 -0.038120624 0.36848217 0.33319685 -0.08379508 0.3817607 0.24762169 0.090734825 -0.1025572 -0.13942449 -0.11648434 0.3866976 -0.14806539 -0.10826197 0.36251733 -0.092134595 -0.08202232 0.3430379 -0.2071762 0.38565105 0.39229652 -0.08457392 -0.1357663 0.3954681 -0.23686391 -0.091540605 0.38753816 0.13181776 0.010390652 0.26185513 0.3727002 0.103846945 0.3312276 0.33434382 -0.035095733 0.12889545 0.38060358 -0.082675606 0.17335266 -0.116937675 0.37386286 0.24780433 -0.076146394 0.2313212 -0.11015719 0.28847623 -0.04548452 0.38899434 0.38934582 -0.09388251 0.1581829 -0.12420558 0.4211246 0.37785545 -0.05585015 -0.04448691 -0.1423207 -0.050339017 0.15390061 0.35435373 0.3537647 0.38031733 -0.20399216 0.40960938 0.35729584 -0.0802584 -0.035130527
normal 0.24291196 0.116799526 -0.08757002 0.19858101 0.27784863 0.15861298 0.21653587 0.15315984 0.19811796 0.044948466 0.18942855 0.19941388 0.041180216 0.28152826 -0.00029499875 0.29136047 0.14703701 0.111278504 0.3878019 0.06181341 -0.056156162 -0.0055492977 0.12721176 -0.022226699 0.14597203 0.13029765 0.22700754 0.19490239 0.053422548 0.06454162 0.10313323 0.123672456 0.20961909 0.21604861 -0.09271628 0.07238458 0.10879717 0.1403534 0.025970198 0.12313612 0.22907598 0.011424517 0.29072228 0.15288784 0.20335165 0.059673663 0.2527046 0.23564538 0.04077891 0.22853892 0.13050914 0.05194557 0.007027616 -0.03202336 0.36911947 0.24040316 0.093963094 -0.07743379 0.11135997 0.2546463 0.27658272 -0.00617838 -0.023382938 -0.0226431 -0.022647982 0.13289797 0.12725222 0.11885116 -0.040995173 0.033546686 0.025216691 0.10564639 0.16055806 0.07058247 0.02534076 0.21701445 0.2545584 0.19305465 0.30747834 0.07596358 0.220084 0.16825621 -0.047568224 0.26706493 0.2759585 -0.035867743 0.07581761 0.037913192 0.32949024 -0.05623175 0.2782437 0.27892745 0.20884232 0.037898526 0.12974523 0.0068673044 0.06342606 0.15247914 0.23096998 0.13661867 0.027405074 0.10515765 0.07891854 0.025391297 0.0958489 0.27351138 0.0670913 0.18563214 0.32085165 0.061726708 0.10526968 0.053827442 0.15591455 0.15779829 0.059868224 0.13172838 -0.02095465 0.13205811 -0.06433029 0.14863627 0.06199339 0.060688265 -0.05086051 -0.040953375 0.049495306 0.04703099 0.23427734 0.2153715 0.2067372 0.22964793 0.030408148 0.18635996 0.16977388 0.13575256 0.15618289 0.24016954 0.2248695 0.024913678 0.34940538 0.20561013 0.09356639 -0.029527904 0.16002834 -0.033890203 0.15914957 -0.09358028 0.07290657 0.16062376 -0.07938942 0.05908399 0.08779795 -0.085020185 0.11762483 0.31057218 0.043244373 0.13000613 0.35889807 -0.03725016 0.0346925 0.25144333 0.14391196 0.18193786 0.18402947 0.22077027 0.022607537 0.11224208 0.20075782 0.07778668 0.05215202 0.15082206 -0.04614399 0.17854731 0.020614108 0.12209287 0.03284458 0.06836564 0.06438232 -0.056987733 0.13363928 -0.02052015 0.34878108 0.18910618 0.05414859 0.13191114 -0.013370679 0.1823722 0.2398253 0.09804849 0.08992674 0.01507492 -0.016476756 0.20536673 0.113828875 0.11606019 0.16668457 -0.09001749 0.24814382 0.070047095 0.041574795 0.049801093
versus 0.35646632 -0.113493815 -0.05749542 -0.021236356 -0.105368294 -0.10092574 0.38968685 0.3648172 0.361266 0.4032269 0.4009971 -0.1256834 0.3934859 0.40193716 0.03661696 0.37788045 0.29964176 0.83318275 0.3368445 -0.11070927 0.39315 0.39613673 -0.115997106 0.39523703 0.3621937 -0.20322755 -0.1773921 -0.19024813 -0.11812043 0.41633397 -0.17711811 0.25559333 0.026024336 0.4107979 0.4036316 0.3864478 0.3729232 0.039426297 0.34278953 0.3830804 -0.0067872256 0.39285165 -0.02792039 -0.039700776 -0.14094435 -0.031167276 0.39332584 -0.14960057 -0.0737773 -0.11492557 -0.08024012 -0.07493865 0.36804518 -0.11122856 -0.17865656 0.35954958 0.40357625 0.38332677 0.38214767 -0.0858003 -0.021297181 0.3583061 0.365284 0.36432993 -0.0040428406 -0.12232425 0.37517595 -0.12038583 0.40171248 -0.10114575 0.39797893 0.41019577 -0.107738994 0.17177823 0.39382312 -0.012178962 -0.13556406 -0.0017507124 -0.10231942 0.01060118 0.4087775 0.40344635 0.39460415 -0.18671326 -0.14344357 0.40603358 0.41601214 -0.020975154 -0.09823535 0.4213008 0.37256646 -0.13862802 0.35555047 0.33686483 -0.005345228 0.3634828 -0.079518795 -0.105113596 -0.1215085 -0.010174107 -0.121861085 -0.09361891 0.036492586 -0.0898215 -0.08719274 -0.1593801 0.07570199 -0.09287035 -0.13218728 0.024693957 -0.09958413 -0.0922305 0.3791283 0.39977685 -0.09586507 -0.12922037 -0.114427656 -0.120964855 0.40957773 -0.04206512 0.09119616 -0.10966784 -0.083604306 0.4133516 0.085436486 0.38552904 -0.0055938098 0.37954038 -0.10908301 -0.110949844 -0.12545744 0.3693447 -0.017564183 -0.069929175 0.10578743 -0.26757407 -0.12791225 -0.127831 -0.142228 -0.06993412 -0.0996907 0.38946798 -0.10315233 0.023164399 -0.026819639 -0.09307747 0.4061373 -0.012113773 0.37905848 -0.013845773 0.3422921 0.2704382 -0.014559585 -0.14406388 -0.103665024 0.395116 -0.11688578 -0.12506261 -0.03768751 0.4009985 -0.03912451 -0.11333851 -0.039732456 -0.023427654 0.39640373 -0.0945159 0.025986833 -0.07897433 -0.103622116 0.33594096 0.29099533 -0.006009968 -0.07597804 0.34916568 -0.02403735 -0.11139378 0.042964876 0.27848643 0.42345965 0.40873483 -0.03418137 0.38333046 -0.065840214 -0.10843341 -0.10559499 0.059911493 -0.022660425 -0.0501522 -0.04287506 0.2786478 -0.03066484 -0.09825521 0.39085153 -0.052194577 -0.053735446 0.22880347 -0.108639814 0.3775942 0.40495783 0.41325623
electrocardiogram -0.023409575 0.38643226 0.33068478 0.38988692 0.33891264 0.37045208 0.25028583 0.36264786 0.33769116 -0.026892409 0.20992383 -0.11129678 0.3687617 0.32713833 0.35614252 0.33329466 0.27812776 0.4166286 0.00647471 0.388836 -0.08150924 -0.06687923 -0.058286674 0.07361214 0.3590289 -0.04051751 -0.035764314 0.013334526 0.3509484 0.3811034 0.121707045 -0.06597595 0.34317896 -0.028138084 -0.1331096 0.0013000872 -0.1261761 -0.009994157 0.31504402 -0.08208215 0.35025376 0.055053625 0.38757345 -0.006743489 0.36856708 0.013721507 -0.0203249 0.13162656 -0.046686303 0.38734412 0.3758366 0.08482562 0.3666903 0.33936352 -0.06111428 -0.060191207 0.3760374 0.3268852 -0.013286713 0.33731323 0.38376155 -0.008123547 -0.099790625 -0.07997768 0.36510926 -0.00023488735 0.029524269 0.16457762 0.36900243 0.3453097 0.3749302 0.39067498 0.00072808063 0.37090442 0.07583692 0.024966631 0.38948894 0.39272 0.35471773 0.35629964 0.010727731 -0.056007992 -0.026330104 0.012058657 0.3411987 -0.056210037 -0.0065059336 -0.07384132 -0.054733034 0.033078983 -0.09330927 0.34639195 -0.06893102 0.35519212 0.3144826 0.33033377 0.3614711 0.3341512 -0.059092168 -0.034905996 0.35977727 0.3644244 0.039174087 0.02057334 0.39652696 0.3776353 0.35674548 0.0035419618 -0.059614338 0.33967465 0.34772167 0.0069127865 0.21045546 -0.057360493 -9.403983e-05 0.35974163 0.37027296 0.3826472 -0.21348241 -0.018118683 0.040862378 -0.043982036 -0.031573825 0.055725902 0.0381939 -0.074116915 0.031658195 -0.08197087 0.3617248 -0.0096826535 0.07431945 0.3209241 0.36814445 -0.042842537 -0.019582862 -0.14568052 0.0056714267 -0.038401075 0.09694788 0.3666994 0.2767285 -0.089060344 0.3254834 0.34772605 0.37765887 -0.12003704 0.12695387 0.22789648 0.021473246 -0.083166495 0.051401395 -0.05292157 0.032865014 0.3157028 0.37826094 -0.038387854 0.35532463 0.14612289 0.36464334 -0.004567439 0.34206623 0.354933 0.016782086 0.34190902 -0.027280942 -0.06390158 0.00637334 0.06748827 0.36360338 0.27497196 0.0679001 0.04993088 0.3721601 -0.050255734 -0.02760133 0.360782 -0.03702764 0.18756004 0.40007687 0.052868873 0.004771391 0.0900851 -0.00039706318 0.008101487 0.35129216 0.4072257 0.04771794 0.028045949 -0.057360906 -0.10541197 0.40375105 0.35504583 0.36988172 0.3758156 0.0073446403 -0.09963839 -0.027109258 -0.08808544 0.040275868 -0.06639853
amount -0.065185465 0.27286467 0.2283495 0.30012763 -0.13651727 -0.07071972 -0.23351079 -0.14922516 0.06658612 0.18279539 -0.07391547 -0.12537658 -0.0831133 -0.17008099 -0.02374451 0.17627797 0.4811957 0.16354245 0.14785682 0.46280694 -0.11840366 0.5417149 -0.16105111 -0.1709756 -0.21020563 -0.12700887 0.17454936 0.43010104 -0.14243881 0.30536935 -0.14988856 -0.07283109 0.51999694 -0.077440694 0.18749505 0.19759631 0.48970443 0.21398064 -0.12397975 -0.076017685 0.15429331 0.19654422 0.21876225 0.49191645 -0.17693324 0.5201119 0.17162117 0.1651005 0.2813742 0.13933766 0.41272327 0.5116215 -0.17983375 -0.102306575 0.5297572 0.20271203 0.46782395 -0.03403436 0.21942715 -0.123381205 -0.06618401 -0.11273861 0.18173128 0.1814327 0.2518222 -0.19601609 0.1422809 0.147941 -0.120407596 -0.12707624 0.27018425 0.5030072 -0.1289476 0.24773678 0.04922387 -0.09910264 -0.12686816 0.17563745 0.50297135 0.22046149 0.16428556 0.29154828 0.2557137 0.50319344 0.1476263 0.30539086 0.28599143 -0.06958504 0.4480892 0.06225441 0.52972454 0.43812278 -0.09040923 -0.09371429 -0.044070397 0.2009574 0.13573103 -0.037403513 0.42929685 -0.015807282 0.07638443 0.48258507 0.4632147 0.16360067 0.36073396 0.28466725 0.11555266 0.20101112 0.130527 0.15697454 0.50139725 0.5061075 -0.16176656 0.52445996 0.49308783 0.23972562 0.15123065 0.222256 0.16718623 -0.05946693 0.42258537 -0.19225833 -0.019975035 0.0005110961 0.48597533 0.20821841 0.16220066 -0.016095258 -0.024849385 0.15606385 0.14537954 -0.12829444 -0.09451851 -0.03558317 0.5067607 0.28117943 0.15081786 -0.034130927 0.17883945 -0.12467349 0.080775164 0.3177652 0.5275802 0.32910472 -0.10451053 -0.030922975 0.4811205 0.21278302 -0.038674794 0.28343728 -0.19222257 0.32772344 0.2841225 0.16528957 -0.012072632 0.17388259 0.15056415 -0.08590324 0.01081938 0.15472707 -0.15428907 0.14957912 0.46911198 0.20504023 -0.07949561 0.27732807 0.22163674 0.4491236 0.20005421 -0.1463667 -0.08397512 0.0009127252 -0.19782354 -0.042576395 -0.13535535 0.13800254 0.29329982 0.25041518 -0.120154105 -0.1625493 0.16517872 -0.08083676 0.53306645 -0.1195206 -0.17783193 -0.10519433 0.49540806 0.5351894 0.52252465 -0.023337165 0.25155988 0.53972876 -0.24600829 -0.07361035 0.22290641 0.2678228 -0.10392417 -0.2161407 -0.00074464234 0.18144412
implanted 0.038636297 -0.005397041 0.336389 0.05817695 -0.09850056 0.3393981 -0.09116041 -0.092290044 0.034348506 0.33255503 0.0112132635 0.36331654 -0.15120141 -0.06013953 0.35065848 -0.08398352 -0.0874123 0.14745054 -0.035950564 -0.10082753 0.34723178 0.3555578 0.3232137 0.36357883 0.3295441 0.34104964 0.28948787 0.33835912 0.31445596 0.019981692 -0.042025805 0.3093646 -0.060333386 0.36859253 -0.0052109505 -0.038589824 0.3083521 0.08131136 0.33161736 0.33026284 0.027955974 -0.071245305 0.048015974 0.036569763 0.32362583 0.07345443 -0.01510908 0.29459393 -0.026798379 0.32856244 0.03679907 0.05043724 -0.120922014 0.34450695 0.012897557 -0.016453141 -0.07326211 -0.059242576 0.19560535 -0.019356955 0.057674572 0.13805394 0.35769698 -0.08797697 0.33484754 0.3624804 0.03319878 0.33853945 -0.08983642 0.29645896 -0.09501895 -0.0943821 0.30266136 -0.107758075 0.10337961 0.23210174 -0.08667536 0.025561467 -0.110054255 0.11146196 -0.03369239 0.35328174 0.33469158 0.001231729 0.26405466 0.0372199 0.35566765 0.36410138 -0.055351716 0.35078079 0.30423352 -0.09169349 -0.12183668 0.25449815 0.364064 0.33587337 -0.028525744 0.29060328 0.33000872 0.35561267 0.32514393 0.33088177 -0.014725346 0.33181745 0.3569116 -0.11278207 0.3427415 0.024974423 -0.060871936 -0.09116196 0.039424296 0.030531261 -0.037539296 -0.06958786 -0.035847746 -0.07930769 -0.027341653 -0.070173085 -0.070023194 0.38165376 0.33835825 0.25862837 -0.10389528 0.09611676 -0.059957232 0.14071093 0.19002984 -0.027370011 -0.24982879 -0.036439776 -0.09112321 0.0066765137 -0.011898604 0.34811315 -0.07917151 0.34808916 0.30827418 -0.094129406 0.009057357 0.33179542 -0.13091892 0.32263404 0.09861397 0.16461498 0.33982632 0.17218924 0.014184755 0.33152282 0.048585124 0.30159423 -0.07638361 0.35094434 0.024298944 -0.040656008 -0.100303106 -0.038895406 -0.10646477 0.358542 0.3397079 0.0434966 0.3449539 -0.11748604 0.37285292 -0.09333869 -0.074381866 0.313604 0.030142441 0.31632215 0.34309727 -0.023054248 -0.087439895 0.35855317 0.31324288 0.32136664 0.006565542 -0.093608305 0.38415882 0.0837707 -0.08500583 0.31436303 0.36625117 0.16274157 -0.01743469 -0.08038723 -0.084926635 0.06311729 0.048837014 0.36313158 0.3504846 0.34161267 0.33759773 -0.074916616 -0.0032186992 0.3234593 0.029670624 0.24871455 0.3213234 0.30299097 0.063815065 -0.08695823
producing 0.006891994 0.4050152 0.3327616 0.42650506 0.3979241 0.41399392 0.278603 0.39290717 0.38638192 -0.06332151 0.23089874 -0.08237601 0.33625853 0.36741555 0.30208874 0.37385145 0.2635147 0.35981575 0.018771753 0.35936078 -0.08159164 -0.12128752 0.0074864305 0.016327921 0.3921084 0.009408258 -0.0018246826 0.05504587 0.28347626 0.315987 0.14271526 -0.006999852 0.3185133 -0.0040653525 -0.1827152 0.031085059 -0.17244558 0.035270475 0.26289046 -0.028502204 0.35594004 -0.007388048 0.42891142 -0.018211106 0.39004824 -0.018621085 0.019595288 0.18720241 -0.04067837 0.37045732 0.34727 0.073774755 0.33452407 0.28352812 0.0016968315 -0.021918904 0.31823406 0.27284035 0.048843008 0.38035694 0.41526884 -0.028061284 -0.14743187 -0.101615764 0.32805273 0.042480193 -0.011012056 0.11056 0.30626023 0.3297459 0.34522206 0.36450619 0.06377066 0.33356208 0.0052469717 0.061200663 0.42341718 0.43753225 0.4132487 0.34095958 0.032052603 -0.052308746 -0.059580572 0.057655796 0.3654529 -0.0610889 -0.06624502 -0.10327599 -0.0032285918 0.0034570717 -0.06620978 0.39072922 -0.012222818 0.37604955 0.343573 0.2981192 0.33411255 0.37778702 -0.002947594 -0.06837869 0.3199504 0.32766286 -0.0041989908 -0.020309852 0.34238073 0.40059653 0.34136334 0.057062596 -0.005459385 0.3599067 0.35973963 0.0065406277 0.24926808 -0.08380485 -0.025277805 0.36918896 0.37944317 0.41951603 -0.24893633 0.016916763 -0.031728312 -0.008019317 -0.023358615 0.034276582 0.008037375 -0.10863419 0.052304883 -0.0338555 0.3997069 0.05077179 0.07558787 0.3723092 0.4073159 -0.00950225 -0.03825728 -0.114088744 0.049707618 -0.046533 0.15678054 0.39782917 0.31105983 -0.104799606 0.30936694 0.29536396 0.4003503 -0.15054949 0.10122969 0.25540847 -0.028253939 -0.099049784 0.069323294 -0.08206648 0.05727472 0.365762 0.38148674 -0.08249153 0.39455947 0.08404956 0.31988972 0.03311659 0.3235272 0.38673583 0.026060987 0.39422616 -0.06476027 -0.010462761 0.038093764 0.05661949 0.3689373 0.34223393 0.03854366 0.02315643 0.33877012 -0.014067994 -0.0065763043 0.35414356 -0.039413184 0.13171545 0.41249728 0.012230823 0.041819893 0.10359854 -0.009013443 0.016508857 0.3338931 0.4333577 0.075214274 -0.03913877 -0.07540835 -0.14328595 0.35886207 0.38272002 0.38077587 0.42463893 0.037135478 -0.09440291 0.017529838 -0.0080679 -0.004705305 -0.12815365
used -0.05886946 0.40729672 0.38528633 0.4318108 0.39162517 0.42877698 0.26643074 0.38859683 0.38959268 -0.04831437 0.20328142 -0.15942058 0.40344217 0.3535993 0.38751537 0.3526923 0.30038813 0.44133216 -0.051130395 0.4352115 -0.07169602 -0.08627082 -0.06979461 0.03818428 0.39340565 -0.055136997 -0.06780096 0.009718023 0.35727862 0.40614 0.09188575 -0.08002343 0.37824178 -0.062121898 -0.15732995 -0.018240303 -0.15943027 -0.033653464 0.350179 -0.0911523 0.35672936 0.03213676 0.4231762 -0.017027136 0.407514 -0.0014302556 -0.03707693 0.14839129 -0.059838478 0.41070947 0.432644 0.11219747 0.40162387 0.36375305 -0.07868655 -0.08778307 0.38261968 0.34618527 -0.01881322 0.36885947 0.4227195 -0.007893369 -0.12096077 -0.10714186 0.39666048 -0.018348685 0.012707345 0.16609737 0.39105335 0.3992217 0.4234525 0.4135733 -0.0024141744 0.403936 0.024759864 0.009047372 0.4109466 0.43638447 0.41048852 0.41518834 -0.016568191 -0.12080327 -0.052452676 -0.0069521796 0.35304415 -0.07704848 -0.047429327 -0.100203894 -0.068494566 0.03594742 -0.13014919 0.3769843 -0.08575109 0.39114818 0.34014192 0.38937417 0.38492504 0.3732174 -0.07357516 -0.06820399 0.3934936 0.39777792 0.0007009102 0.0010846611 0.416839 0.3898578 0.40864736 -0.009823305 -0.0848839 0.38097924 0.38680258 0.011559736 0.22199917 -0.07335157 -0.03028803 0.38187352 0.41426829 0.41627368 -0.25777656 -0.0497925 -0.007027343 -0.0823925 -0.031734604 0.058984768 0.02336349 -0.10667458 -0.0020353608 -0.09597242 0.39598742 -0.013001502 0.09700208 0.3525719 0.41115442 -0.07121815 -0.04224341 -0.19433217 -0.006904718 -0.046528406 0.115060665 0.4105083 0.31741175 -0.10158056 0.3647881 0.38571638 0.3950408 -0.12991229 0.14043689 0.23255499 -0.0018253122 -0.10073244 0.024690496 -0.057087764 0.0074925073 0.3561753 0.41606265 -0.066975735 0.38786548 0.15465282 0.38787553 -0.02533191 0.35082608 0.41154075 -0.015077946 0.39713436 -0.085561916 -0.07284333 -0.021626374 0.06255079 0.39603934 0.32110685 0.066184066 0.014122291 0.4050601 -0.07843141 -0.042909004 0.41676372 -0.072941035 0.1876846 0.42938763 0.03769519 -0.027435992 0.044946328 -0.014507869 -0.008595015 0.37796247 0.42750528 0.016614623 -0.011167469 -0.08832477 -0.13008793 0.44150695 0.39949197 0.38191438 0.42399827 -0.026071595 -0.09460452 -0.05317679 -0.07446609 0.023386508 -0.13190651
structure 0.32839182 0.33240363 -0.08795805 0.35240135 0.3906885 0.30337182 0.2933225 0.36661753 0.33295855 -0.0874726 0.35972667 0.32393163 -0.03950992 0.36832097 -0.012415376 0.36276644 -0.06063727 -0.016331024 0.38733876 -0.03375966 -0.087281846 -0.21260211 0.36953938 -0.04470288 0.32632077 0.33674988 0.31665927 0.28666586 -0.061309606 -0.06907857 0.33087584 0.34029403 0.00091695506 0.27183485 -0.22624293 0.2682831 -0.17597115 0.34778452 -0.11882059 0.2974578 0.3357701 -0.09923297 0.35610938 -0.03447364 0.26174098 -0.057642095 0.34083965 0.33976415 -0.028043214 0.11896388 -0.029100876 -0.050523072 -0.03083239 -0.033270296 0.3604122 0.2843777 -0.021214511 -0.088377565 0.374008 0.37779322 0.339494 -0.09192379 -0.19783267 -0.045193743 -0.038149297 0.29105395 -0.07432188 -0.100307494 -0.17090517 -0.05155912 0.013412926 0.013199579 0.3423847 -0.038926687 -0.04328541 0.2786374 0.37023574 0.3691356 0.371592 0.0012776351 0.27347603 0.28920594 -0.0382455 0.35977358 0.34717226 -0.04850165 -0.06705019 -0.03176582 0.3353654 -0.06975713 0.27649188 0.38574564 0.3212523 0.15778574 0.31139567 -0.14902002 0.023326183 0.37423453 0.3189448 0.06353203 -0.067102894 -0.026915 -0.037098907 -0.103556834 -0.037658826 0.36315122 0.014203908 0.345481 0.3440468 0.1960349 0.035492502 -0.048631866 0.34883544 -0.06366643 -0.026134478 0.15905157 0.034573495 0.33185372 -0.10017851 0.32681146 -0.077562906 0.33845446 -0.037184976 -0.022467908 -0.029121067 -0.074644364 0.2825899 0.29068512 0.36030656 0.3363296 -0.06914485 0.3956143 0.34215856 0.3134224 -0.031319663 0.32558665 0.27190173 -0.07745254 0.334795 0.2602619 0.15483667 -0.0949582 -0.054299485 -0.09318939 0.35163587 -0.16307248 -0.080207534 0.31566626 -0.12019647 -0.07193022 0.33695206 -0.15902926 0.34243107 0.35723323 0.026890997 -0.116144285 0.36551255 -0.17504795 -0.04144594 0.32117122 0.14584802 0.08746238 0.22121938 0.35486597 0.07068571 0.2730822 0.3011421 -0.00020665303 0.16664399 0.3609764 -0.04195193 0.10177088 -0.041515496 0.32565725 0.18197463 -0.0013969042 0.18574314 -0.076966725 0.29273146 -0.041774552 0.3362795 0.34582207 -0.05935789 0.13132654 -0.005433152 0.3773666 0.33631486 -0.05087707 -0.025097836 -0.15469897 0.00093810726 0.20909676 0.33734363 0.33343536 0.35399467 -0.1542925 0.38728294 0.3314347 -0.09150772 -0.051449254
throughout 0.4002707 0.32897335 -0.18829212 0.37201452 0.4263609 0.34098813 0.31035328 0.38052145 0.363553 -0.0913049 0.39535218 0.3685183 -0.14110032 0.3923112 -0.037759118 0.38294998 -0.15637247 -0.09295117 0.41258493 -0.112413086 -0.08716624 -0.28354883 0.41160956 -0.0075353235 0.3313183 0.3653426 0.3378909 0.33351523 -0.0981546 -0.099897124 0.39210105 0.37556797 -0.068486 0.332939 -0.27140072 0.32507718 -0.2272346 0.40118134 -0.17026614 0.3420034 0.3661993 -0.12356565 0.36781397 -0.05081643 0.2401481 -0.07215632 0.37271646 0.34699714 -0.06591692 0.06264755 -0.10239205 -0.08213436 -0.103343174 -0.07255326 0.40897986 0.38127473 -0.099046245 -0.19447754 0.39666176 0.39412534 0.3759127 -0.13959834 -0.22818822 -0.035576567 -0.097697206 0.36043185 -0.06127015 -0.13474098 -0.28881967 -0.12375818 -0.02329952 -0.088276014 0.41144142 -0.09845986 -0.032691404 0.33378038 0.39657044 0.39261672 0.4084712 -0.04408692 0.3215931 0.347518 -0.015960176 0.39679015 0.37079042 -0.07683201 -0.06619307 -0.017374162 0.38281578 -0.07444912 0.33592078 0.39516315 0.34073728 0.12627251 0.3272224 -0.22549973 -0.04154851 0.390263 0.3560855 0.110103056 -0.13876778 -0.0822764 -0.05068806 -0.13580607 -0.123304024 0.37403068 -0.032879107 0.39459768 0.41567314 0.16136868 -0.027443895 -0.07616339 0.37834868 -0.0939301 -0.062075615 0.0949764 -0.046890534 0.33217102 -0.07690997 0.38205013 -0.051982656 0.363814 -0.033040818 -0.022366654 -0.062164936 -0.0817298 0.34978408 0.36078998 0.355604 0.35804477 -0.08375134 0.41106564 0.3638359 0.33597305 -0.038023155 0.37202424 0.33419397 -0.08307926 0.37874612 0.2515366 0.09250735 -0.10445718 -0.1381994 -0.11856004 0.38842294 -0.1497681 -0.10851945 0.362409 -0.09470773 -0.0809445 0.3432135 -0.20853363 0.38496253 0.39098608 -0.08384626 -0.13485318 0.39475134 -0.23538573 -0.09094985 0.38508585 0.13278759 0.007077386 0.26339304 0.36984384 0.103312425 0.33262065 0.33410642 -0.03304622 0.1279099 0.3784916 -0.08298671 0.17270052 -0.11754544 0.37441322 0.24651742 -0.074608594 0.23154224 -0.1075249 0.2913476 -0.047642156 0.39246407 0.38818672 -0.0916854 0.15578659 -0.12696083 0.42174837 0.3815733 -0.05471784 -0.04172542 -0.14212878 -0.051831532 0.15017451 0.35347626 0.35518298 0.3822003 -0.20721799 0.4073558 0.35968122 -0.08192336 -0.0336011
conduction 0.45589864 0.23806967 -0.22922353 0.50724936 -0.16228119 0.4570927 -0.19169581 -0.10107398 0.47589716 0.4334538 0.48870707 0.024993375 -0.10574 0.3071851 0.4874732 -0.0756554 -0.24402356 -0.078986235 -0.206055 -0.16674705 -0.11177566 -0.20041731 -0.12801047 0.46952507 -0.20909163 -0.11911663 -0.171029 -0.06302566 -0.05725689 0.53242135 0.10723155 0.12596671 -0.28135157 0.4866047 -0.12477958 0.44381067 -0.19103834 0.44029674 -0.14334917 -0.13184704 0.48546296 0.39601862 0.5036866 -0.14684723 -0.11100792 0.45320737 0.34423682 -0.121925235 -0.060088225 -0.17750163 0.4045055 -0.08401283 -0.12693131 0.33506408 -0.16039833 0.4680892 -0.012149966 -0.12594004 -0.18263401 0.3646567 0.50141144 -0.17343658 -0.19649357 -0.00038213562 -0.004636849 0.46634826 0.48810732 -0.22818615 -0.27609277 -0.22122563 0.44975537 -0.08249207 -0.13886179 -0.13885885 0.48041388 0.41496408 -0.12294437 0.4810158 -0.084645756 0.47586933 0.46537432 0.41138077 0.44494194 -0.13152424 -0.11703104 -0.03773115 0.4892147 0.3679297 -0.1360016 0.43983266 -0.17882504 -0.1971412 -0.19916034 -0.24404451 0.466299 -0.24253014 0.3367408 -0.15819052 -0.14224656 0.5126953 -0.1655498 -0.118969865 -0.10917253 -0.120398015 -0.2555558 -0.053104065 0.43397895 -0.10731367 -0.06741938 -0.21208595 -0.06352821 -0.054034702 -0.11255757 -0.24283367 -0.06913068 -0.14862841 -0.058816746 -0.096652836 0.38132727 0.48564145 0.50918084 0.09467921 -0.08542605 0.48424718 0.4243267 -0.05529294 0.49608964 0.3083605 -0.18281963 -0.031305812 -0.11488549 -0.20349891 0.4829144 -0.07673949 -0.0409164 0.028431104 0.4315339 -0.10300387 -0.14058855 -0.18347366 -0.1535489 -0.11706291 -0.20932278 0.46794167 0.44801274 -0.13123623 0.45076823 0.47338966 0.45476156 -0.07492318 -0.10946859 -0.20687711 0.4896722 -0.12718831 -0.07029299 -0.15059198 -0.16570453 -0.04414703 -0.033919256 0.46814173 -0.1449902 -0.12981673 0.4804162 -0.21708894 0.37669003 -0.021152273 0.5225956 -0.20983796 -0.15869643 -0.11062602 0.09454211 0.4923781 -0.21135375 -0.16081713 0.39937565 -0.050632805 0.49052146 0.44552946 0.41408962 0.3974708 0.43405855 0.46687767 -0.0068094684 -0.007032061 -0.26565495 0.44768596 0.43098903 0.47095188 -0.07940289 -0.24886382 0.46485233 -0.13473588 0.4090155 0.48325127 0.45559657 -0.18133266 -0.12141958 -0.15338665 0.46687657 0.3903394
way -0.06559368 0.2704586 0.22962183 0.2997771 -0.13769862 -0.071865775 -0.2304356 -0.1494038 0.067516565 0.17986055 -0.072240636 -0.123765044 -0.08591675 -0.16879056 -0.024565244 0.17804188 0.4831723 0.16613877 0.14805673 0.46206394 -0.12101394 0.54172325 -0.16456868 -0.17040843 -0.21349074 -0.12368743 0.17649667 0.427943 -0.14176056 0.30694208 -0.14949836 -0.07225774 0.5203752 -0.079807915 0.18978217 0.19874701 0.4895558 0.21639162 -0.1244594 -0.075337306 0.15171345 0.19655983 0.21998066 0.48902202 -0.17515342 0.51905364 0.17036448 0.16782485 0.28271845 0.14093488 0.41310012 0.51148856 -0.1801286 -0.10144549 0.53061336 0.20377931 0.46972835 -0.03560375 0.21870284 -0.124991514 -0.06683377 -0.111567184 0.1828554 0.17893296 0.25290427 -0.19569926 0.14103986 0.1476149 -0.116856754 -0.12765016 0.27052703 0.50213337 -0.12944682 0.24925059 0.050531343 -0.09761655 -0.12824768 0.17886323 0.50421166 0.2213046 0.16479313 0.28987283 0.25351587 0.5055734 0.14748675 0.30919042 0.28490165 -0.07229142 0.44559267 0.06166825 0.52968085 0.43823344 -0.09171292 -0.09320396 -0.042232964 0.20025377 0.13649169 -0.040489044 0.42987895 -0.013865128 0.07613643 0.48546427 0.4629315 0.16124474 0.35868588 0.28189492 0.11487677 0.20048726 0.13415708 0.15890464 0.5020039 0.5071287 -0.16331431 0.52227974 0.49446267 0.24204285 0.15244022 0.22514513 0.16524151 -0.059141733 0.4211249 -0.19044098 -0.01976866 -0.0001345023 0.48692653 0.20869628 0.16390967 -0.01734807 -0.024969682 0.15548405 0.14450678 -0.12745605 -0.095752224 -0.03497681 0.50542057 0.28438565 0.14741379 -0.03409626 0.17816715 -0.12094086 0.08387372 0.31809464 0.527468 0.32991022 -0.10466692 -0.027672868 0.48424152 0.21368378 -0.03845945 0.28029504 -0.188588 0.3273217 0.28590423 0.16384357 -0.012807881 0.17398028 0.15282683 -0.08351037 0.011926153 0.15669204 -0.15562557 0.14939809 0.46719417 0.20491333 -0.0802888 0.27692756 0.21794552 0.44864622 0.2021886 -0.14763461 -0.08602654 0.0026635278 -0.19679224 -0.0432292 -0.13463478 0.13765505 0.29272974 0.24834886 -0.12047232 -0.16341922 0.16463 -0.08093688 0.5325753 -0.11779836 -0.17768951 -0.10425095 0.49310753 0.53559947 0.52313626 -0.023370767 0.24951334 0.5426476 -0.24898185 -0.07137386 0.22211224 0.26754963 -0.10637306 -0.21364512 -6.975257e-06 0.18125333
blood -0.11418024 -0.12071859 -0.18934456 -0.051162794 -0.10364737 -0.10359796 -0.17164211 -0.25377163 0.27943978 0.479938 -0.065241314 -0.20564482 -0.10573893 -0.15139976 -0.21871296 0.50844765 0.42604336 0.48691437 0.4791576 0.36999962 -0.1254753 0.5132492 -0.19982858 -0.012821745 -0.10650543 -0.1483315 0.50033617 0.30955073 -0.12860577 0.48544386 -0.09749482 -0.08621798 0.4576458 -0.09911972 -0.30166748 -0.24558899 0.42808372 -0.23500645 -0.115479454 -0.15252027 0.44486699 -0.17988871 0.4950362 0.42609444 -0.10284456 0.41957238 0.4752287 0.49385893 -0.062364154 0.47662982 0.22858655 0.4283055 -0.20685135 -0.061320294 0.40456066 0.46674097 0.41216996 -0.105822384 -0.25823057 -0.11138925 -0.090198226 -0.1423168 -0.14269 -0.18391407 -0.12660207 -0.016436812 0.44315934 0.4887333 -0.1549527 -0.11937616 -0.07886407 0.44391775 -0.108503945 -0.15327711 -0.064940676 -0.05931948 -0.11770605 -0.12879242 0.45769143 0.4214501 0.46987644 -0.09635894 -0.1469104 0.4560775 0.49118876 -0.032546666 0.48202145 -0.10445906 0.32942012 -0.05321834 0.47324282 0.33139625 -0.111657314 -0.15028112 -0.13827136 0.4313119 0.3684029 -0.16243085 0.26325962 -0.06653759 -0.24337722 0.43325153 0.42860433 0.47694203 0.48476502 0.4598475 0.48950404 -0.24978507 0.41146493 -0.26648584 0.44765145 0.42189297 -0.13413385 0.42714873 0.4318939 -0.14513585 -0.1182905 -0.116284356 -0.1109144 -0.0952037 0.29672217 -0.2187237 -0.024195088 -0.07900668 0.41371605 0.47246334 0.3610068 -0.13593888 -0.22721812 0.480204 0.4306363 -0.09163974 -0.060894966 -0.06621888 0.4444991 -0.087780125 0.49065697 -0.019757338 0.45438987 -0.12294848 0.2677632 -0.012161778 0.46534082 -0.022212543 -0.10236681 -0.08785993 0.42411312 -0.11468482 -0.09444543 -0.06671653 -0.28437477 -0.06737202 -0.06270313 0.47302762 -0.111494966 0.47468618 0.47396225 -0.070607826 0.21541171 0.46897945 -0.10507507 0.46370885 0.33777806 -0.18971668 -0.08428384 -0.07564393 -0.26662612 0.35601744 -0.27186662 -0.25914723 -0.024464564 -0.038936555 -0.26091754 -0.28151765 -0.1274631 0.41802537 -0.11857683 -0.081752025 -0.12443779 -0.08188588 0.4643054 0.18544042 0.48392335 -0.08667936 -0.23251876 -0.19395143 0.37967342 0.46883968 0.46018362 -0.081968874 -0.24567094 0.48710847 -0.2645597 -0.20696795 -0.0949105 0.00191882 -0.08761673 -0.25602618 -0.02988917 -0.09303139
myocardial -0.006941923 0.24966091 0.4209252 0.2785374 -0.11461052 0.15059656 -0.16490725 -0.074099705 -0.022463463 0.17682068 -0.036941774 0.17108402 -0.10551034 -0.11735101 0.23205048 -0.0602255 0.18541874 0.06814207 -0.039525032 0.18422295 0.12018983 0.43477276 0.10971573 0.04994136 0.048268743 0.12525336 0.15105833 0.407272 0.09519044 0.08743145 -0.09972164 0.13243735 0.21512228 0.15864639 0.24652225 0.21502799 0.4045578 0.2928455 0.11122657 0.15911505 -0.0037449854 0.17068352 0.045575336 0.25793934 0.073294215 0.28927734 -0.020860663 0.14931864 0.22187275 0.14300354 0.25108773 0.2811132 -0.12768929 0.115997955 0.2759209 0.004095127 0.18600398 -0.025336044 0.36956406 -0.06432735 0.00693852 0.048227128 0.3678568 0.15161155 0.41524357 0.034212027 -0.0071949195 0.15840183 -0.084289186 0.10043516 0.1643505 0.19500908 0.0973687 0.18902798 0.092482656 0.066907324 -0.10692517 0.17620687 0.1762634 0.08712091 -0.032573998 0.4434739 0.42324057 0.24031144 0.11337947 0.26382926 0.25885212 0.16781513 0.20569433 0.24839953 0.41867813 0.18165559 -0.09688807 0.11882397 0.19730227 0.20419323 -0.028106857 0.1866774 0.41873962 0.19244018 0.31821808 0.41101724 0.2151034 0.1669963 0.31808192 0.019997247 0.12758349 0.25820583 -0.043744158 0.16276947 0.257039 0.2719512 -0.09418493 0.2229411 0.22063819 0.20320159 0.14613228 0.1779193 0.117143854 0.18947652 0.39820966 0.053745653 -0.06902903 0.058316443 0.20254116 0.09234708 0.11207802 0.020708814 -0.06523954 -0.03798651 -0.046158787 -0.058274772 -0.06798209 0.1705257 0.20105302 0.43479842 0.13472001 -0.06672538 0.011463955 0.12293389 -0.082228065 0.41929847 0.3077863 0.33535117 0.12802908 0.09442121 0.22810759 0.3718091 0.018328266 0.3938602 -0.08748149 0.45118505 0.24873391 -0.028962564 -0.022813952 -0.02006595 -0.072733566 0.1472441 0.11478196 0.002150198 0.10297167 -0.07337578 0.4483817 0.18123324 -0.08376688 0.4046295 0.2715161 0.3904581 0.4301368 -0.033822775 -0.10218677 0.19747032 0.10685338 0.23660976 -0.05861211 -0.07300622 0.46313968 0.25907075 -0.10363906 0.061694905 0.18512079 -0.05360613 0.24215783 -0.107831605 -0.09536152 0.015006334 0.26885027 0.44435844 0.4343475 0.17720722 0.45499006 0.21610034 -0.11216228 0.18493517 0.21385486 0.32366064 0.11943392 0.08684547 0.03667344 0.11711183
using 0.35713652 -0.107930996 -0.069344565 0.016687255 -0.10763427 -0.08651668 0.37526894 0.33249834 0.3708402 0.38839933 0.3930962 -0.12372639 0.37410298 0.38667244 0.0732072 0.36362317 0.28812444 0.7575698 0.31767052 -0.109076895 0.36919254 0.38459173 -0.11895603 0.38659915 0.34175763 -0.188984 -0.16456343 -0.17008388 -0.09716029 0.40790415 -0.16554935 0.24566792 0.016034454 0.41126278 0.39241245 0.3686616 0.35445803 0.074175715 0.32807755 0.35461694 0.02797045 0.39189813 -0.00088993774 -0.04428413 -0.13974983 0.011540194 0.37661716 -0.15350395 -0.0671787 -0.105203636 -0.055668134 -0.07629188 0.35354027 -0.09587515 -0.1918059 0.35117924 0.38608563 0.36139527 0.3604628 -0.07148944 0.01262674 0.3233668 0.34626198 0.33705544 0.012327829 -0.09167392 0.37050837 -0.12107652 0.3800251 -0.10606135 0.39588705 0.37757775 -0.09649016 0.14538032 0.39147478 0.01142422 -0.13844943 0.025700139 -0.11223319 0.046966452 0.39438117 0.39026207 0.38236862 -0.187125 -0.1449352 0.38287055 0.4182796 0.015735649 -0.09986252 0.4067724 0.3433297 -0.15344298 0.32344595 0.29815212 0.02161653 0.33612314 -0.06003304 -0.112982206 -0.11488841 0.04532291 -0.11244238 -0.08575366 0.02117446 -0.089020215 -0.087898105 -0.14804935 0.10413553 -0.099750645 -0.12401825 0.02125521 -0.094015315 -0.0887083 0.3547096 0.38314977 -0.10105371 -0.13225716 -0.09755971 -0.12798446 0.39605758 -0.017476464 0.13819769 -0.0988485 -0.08925835 0.40454876 0.1075929 0.3651903 0.041140024 0.3704462 -0.1209405 -0.11204678 -0.12383802 0.32712343 0.01462137 -0.06200939 0.094877675 -0.24887334 -0.111161046 -0.113044664 -0.14657047 -0.07540263 -0.10745586 0.36841837 -0.099880934 0.05474595 -0.0012016781 -0.0978239 0.40305117 0.020012084 0.37286842 -0.0023844345 0.31541947 0.25546837 0.009413861 -0.14264308 -0.09136178 0.3703014 -0.11449539 -0.1100247 -0.0141226705 0.38757712 -0.050837025 -0.10508402 -0.008583865 -0.032329816 0.3858623 -0.08832948 0.052394897 -0.09075991 -0.11599975 0.3244464 0.28204513 0.03455089 -0.07350474 0.33396646 0.027889578 -0.10809511 0.08276223 0.27973607 0.40718716 0.40576696 0.0027551171 0.38448918 -0.065348744 -0.10073086 -0.11204777 0.102363765 0.0075071817 0.004394404 -0.036965743 0.2650957 -0.006990404 -0.11109808 0.3737688 -0.022891851 -0.026242401 0.2170683 -0.10028818 0.36147937 0.39048287 0.39610106
including -0.041423306 0.39203897 0.37191314 0.40521047 -0.091819845 -0.01215541 -0.1741391 -0.045581624 -0.013426037 0.04576865 -0.03941316 -0.037016116 -0.035451632 -0.13939603 0.085872754 0.032394987 0.35520452 0.00888591 -0.00019364059 0.35734466 -0.07918891 0.4023378 -0.07483731 -0.18776487 -0.1247837 -0.0781735 0.02523268 0.3574085 -0.102854334 0.18935262 -0.09725789 -0.02128067 0.35985366 -0.038666032 0.3844933 0.35703966 0.37028065 0.3767999 -0.071522325 -0.008252707 0.03330078 0.3400128 0.089272 0.3679081 -0.13395855 0.40047258 0.028516455 0.00691972 0.37191877 0.0074119056 0.37589854 0.3802934 -0.06893153 -0.07679152 0.41975048 0.06298444 0.35196435 -0.000563164 0.40213692 -0.071215674 -0.013480664 -0.03370751 0.25270247 0.29010674 0.36517888 -0.1836301 0.009312274 -0.006763448 -0.057389986 -0.07255772 0.35719067 0.36878026 -0.092166044 0.35246038 0.07144061 -0.06772292 -0.08262021 0.241555 0.36860076 0.07885887 0.027715676 0.40969107 0.39363053 0.3732164 0.0032627257 0.36994302 0.14852273 -0.023244744 0.3460258 0.108141795 0.38505715 0.35453323 -0.046555385 -0.030872686 0.022277426 0.11589863 0.019007064 0.032131553 0.36472154 0.016965322 0.21509463 0.368469 0.32666364 0.026027013 0.21045765 0.15281686 0.009651352 0.37176108 -0.015926756 0.32224908 0.36063376 0.37090555 -0.115978055 0.4110882 0.3748719 0.37545022 0.23472151 0.3198578 0.21273324 -0.004438833 0.34540007 -0.088804655 -0.029831389 0.036112458 0.3645327 0.055646196 0.042831793 0.055682912 0.10880487 0.021906296 0.0006006295 -0.097927526 -0.07165975 -0.008424618 0.37212667 0.3771264 -0.024550114 -0.04663866 0.03908268 -0.05891062 -0.017918158 0.36829093 0.37789634 0.38562632 -0.06883903 -0.018081045 0.35536346 0.30365726 0.011074006 0.33410633 -0.06693496 0.41009966 0.3820317 0.034786996 0.048152793 0.037624747 0.013817718 -0.034435745 -0.08292432 0.020558275 -0.105883025 0.019411612 0.3665933 0.3507049 -0.04814382 0.35094726 0.40663818 0.33453366 0.37217683 -0.033041194 -0.07845644 0.016443409 -0.088747956 0.1072381 -0.06851478 -0.012217109 0.42016083 0.34319094 -0.06351045 -0.115177944 0.033667997 -0.14653972 0.39314112 -0.10292555 -0.07300535 -0.007748307 0.3901452 0.40269443 0.40138504 -0.014574934 0.42762285 0.40268502 -0.1239412 0.034655128 0.31824967 0.32315734 -0.060086086 -0.10045224 0.015195029 0.24983028
ekg 0.021860167 -0.01832276 0.35993317 0.02047304 -0.08902929 0.36335433 -0.075894736 -0.07174185 -0.014368947 0.35671124 0.026450083 0.40305114 -0.13595784 -0.05533399 0.36711216 -0.07357662 -0.040006414 0.18336813 0.025924794 -0.123469666 0.376067 0.3635091 0.36522946 0.39436856 0.36333004 0.37412873 0.32232627 0.3642488 0.35491666 -0.005974712 -0.033210088 0.34736097 -0.075706534 0.38759926 0.020084672 -0.055082668 0.34312347 0.06361404 0.35576272 0.36018983 0.013964092 -0.094013914 0.02746607 0.009120362 0.34448957 -0.009155324 0.0070312815 0.35614207 -0.04900179 0.36107242 -0.01890813 -0.004284817 -0.12696794 0.3643407 0.03443976 -0.028706279 -0.06398082 -0.020425657 0.24970078 -0.0012880284 0.01866724 0.15398091 0.38148206 -0.08771698 0.35362554 0.39362296 0.005496109 0.37720484 -0.029763667 0.33962974 -0.1118259 -0.10700383 0.34838274 -0.11408965 0.067378074 0.23389441 -0.09158243 0.002272008 -0.075824276 0.017817717 -0.041456155 0.3726805 0.34289178 -0.0024747374 0.3266663 0.0026080494 0.38669774 0.38301206 -0.030168038 0.37491295 0.35418475 -0.07090622 -0.113724746 0.31975585 0.3911749 0.37906456 -0.07421523 0.33808106 0.37010255 0.38089395 0.3552193 0.36646175 -0.050470613 0.36966926 0.3859231 -0.08945891 0.36268163 0.036884397 -0.039862778 -0.13194127 -0.0046329373 -0.008121573 -0.002641715 -0.038146242 -0.06872066 -0.09541768 -0.055664115 -0.069424026 -0.07996657 0.39709288 0.3589285 0.27576095 -0.10829839 0.026404388 -0.0912376 0.1818754 0.13990256 -0.0039059864 -0.24914022 -0.0028967056 -0.07187931 0.021666314 -0.011882701 0.37914082 -0.0985889 0.3805875 0.33178928 -0.11107472 0.024441801 0.3469734 -0.13590948 0.3444665 0.09426668 0.06480385 0.34696653 0.21625353 -0.01980659 0.3604291 -0.003950564 0.33487707 -0.05714933 0.3638718 -0.002284919 -0.015051853 -0.106244996 -0.0043211607 -0.09587108 0.37218815 0.37964407 0.03346786 0.39035922 -0.079274796 0.37843144 -0.09206685 -0.08552177 0.36088124 -0.016748223 0.33049187 0.36939734 0.011764062 -0.08592292 0.37628406 0.36270225 0.37375408 -0.03320496 -0.10752283 0.36826017 0.0017580381 -0.08530101 0.33885783 0.38479587 0.14699237 -0.051291995 -0.05159623 -0.10346909 0.020089988 0.019637438 0.37908635 0.3680704 0.36032397 0.36749253 -0.09267149 -0.004828034 0.33238924 0.033001453 0.2680428 0.3698427 0.35980582 0.024650201 -0.103709504
12 0.18209502 0.11886448 0.12037248 0.14463581 0.13202438 0.37876812 0.09537327 0.12894706 0.11610823 0.16613266 0.18771262 0.41969764 -0.1530208 0.12946308 0.22035868 0.12888256 -0.08974085 0.06961553 0.22508387 -0.14692006 0.1863999 0.09633124 0.42055655 0.2600807 0.35884067 0.39965662 0.3464764 0.38184747 0.18124536 -0.052277952 0.16447254 0.38803753 -0.089824244 0.38515493 -0.101300776 0.092656195 0.105248526 0.20164125 0.13621598 0.37209222 0.15986936 -0.10794035 0.1571202 -0.044180527 0.31422853 -0.06939708 0.16769718 0.37695044 -0.08396332 0.2491933 -0.094155185 -0.062762834 -0.12434674 0.18925622 0.20026478 0.13769923 -0.087186836 -0.09531003 0.34643313 0.17699061 0.14668216 0.026046006 0.12435302 -0.07254778 0.17771879 0.40878272 -0.031505324 0.15889004 -0.13298084 0.15178117 -0.083500445 -0.12083329 0.3990845 -0.117823765 0.016641002 0.27978027 0.11251665 0.16806287 0.15153122 -0.046909902 0.11541748 0.38220656 0.21701726 0.17300579 0.3907672 -0.05387502 0.19606213 0.23243894 0.15878831 0.19137534 0.37344727 0.13614617 0.073568806 0.26422977 0.39381388 0.13617551 -0.0748845 0.40098575 0.3842604 0.28142527 0.15960987 0.19178519 -0.071085535 0.14834589 0.15415946 0.10871817 0.20754643 0.18679328 0.16586013 -0.027601592 -0.0565712 -0.07861626 0.17960623 -0.07350546 -0.09943087 -0.041015305 -0.09247119 0.0945313 -0.08148855 0.401645 0.21122551 0.3393422 -0.08660359 -0.035412855 -0.10405678 0.07430988 0.2199 0.169791 -0.008607317 0.16083528 -0.10030248 0.19022152 0.15753675 0.3794091 -0.097414255 0.38911095 0.35102245 -0.11069411 0.19679025 0.3228652 -0.059928615 0.16192196 -0.025431488 -0.046712223 0.37671262 0.1132644 -0.08478674 0.38719553 -0.062151916 0.17402722 0.11224831 0.107388325 0.14369735 0.18269292 -0.11757784 -0.038131297 0.115108795 0.12417586 0.20371354 0.18912947 0.31287357 -0.05178014 0.3405379 0.10308528 -0.0034970487 0.3841002 0.10216984 0.18279393 0.28063715 0.1825499 -0.10942987 0.3202289 0.17845581 0.41387054 0.0792212 -0.11010146 0.31560153 -0.07855308 0.061482728 0.18894637 0.417255 0.24470259 -0.09542517 0.04408019 -0.13476686 0.16277781 0.1582981 0.20352298 0.20155594 0.15242048 0.21512899 -0.010560621 0.1606525 0.35622445 0.17200431 0.054677103 0.41598335 0.3924634 -0.03775974 -0.082436845
captured 0.3650615 -0.11402788 -0.064210206 -0.0072941007 -0.11366085 -0.08789514 0.39475748 0.36044073 0.36989936 0.41147804 0.40851828 -0.1282554 0.3978528 0.40495563 0.054193355 0.37586093 0.30316642 0.815851 0.33422372 -0.11221519 0.39322317 0.3981349 -0.11817561 0.40720895 0.35761133 -0.20725708 -0.18054932 -0.19099617 -0.116187446 0.4273894 -0.17971465 0.260202 0.017786777 0.41937694 0.40720323 0.39267448 0.37347567 0.055663005 0.34179264 0.37773153 0.0056452593 0.40047204 -0.013564087 -0.046600923 -0.14567225 -0.011901726 0.3989358 -0.15880467 -0.07732515 -0.11657126 -0.07388982 -0.081736736 0.37227428 -0.10161484 -0.19047256 0.36342546 0.40344086 0.38719827 0.37685645 -0.07948724 -0.003122179 0.3479898 0.36923438 0.36283553 0.0038017463 -0.10621196 0.38502574 -0.12668215 0.40580082 -0.10760939 0.4071033 0.4044995 -0.10797163 0.16644621 0.40216854 -0.003714499 -0.13959455 0.010715248 -0.10875139 0.0300656 0.4178785 0.41061798 0.40629774 -0.19188403 -0.15036502 0.40568328 0.42559573 -0.003673105 -0.10377278 0.42904198 0.36389554 -0.15044615 0.35513014 0.32926995 0.0061418302 0.3618015 -0.06569185 -0.11651468 -0.1269819 0.009867286 -0.12157336 -0.09584494 0.030540127 -0.0942517 -0.091819696 -0.15960957 0.09366362 -0.104136646 -0.13645563 0.017035723 -0.09952769 -0.094786584 0.37619147 0.40509582 -0.10278328 -0.13356483 -0.10995163 -0.13222595 0.4208816 -0.024823513 0.105083734 -0.112174034 -0.08611111 0.42384502 0.101735204 0.38971877 0.012182533 0.38203895 -0.120784566 -0.11688492 -0.13023292 0.35344338 -0.004266987 -0.07338186 0.09956016 -0.26659524 -0.12091862 -0.12767883 -0.14848708 -0.07758798 -0.10466291 0.39273453 -0.10495028 0.032792836 -0.012287691 -0.09880309 0.42172194 0.0071765166 0.38919595 -0.012340648 0.33399206 0.27090737 -0.0028525079 -0.15051898 -0.10779546 0.39093512 -0.12484731 -0.12423168 -0.0326316 0.4081715 -0.0436763 -0.11044151 -0.02305317 -0.03597957 0.39920345 -0.09878476 0.038237788 -0.09113808 -0.10963219 0.33736002 0.2927669 0.016550668 -0.07751111 0.34952673 -0.006019348 -0.10863321 0.06017592 0.2867934 0.43155962 0.41866654 -0.015765095 0.3936923 -0.068455376 -0.10538797 -0.11124951 0.072733685 -0.003361249 -0.02772139 -0.042681754 0.27405912 -0.018811502 -0.10193159 0.39270595 -0.03927144 -0.039372835 0.2263524 -0.115522675 0.3775818 0.41300258 0.4214687
's 0.36376384 -0.11322712 -0.06293749 -0.0035019522 -0.111320466 -0.08731896 0.3942469 0.36028516 0.36927608 0.40984094 0.40685838 -0.12641907 0.39509368 0.405243 0.056116335 0.37553066 0.3024617 0.81843704 0.33473685 -0.1148042 0.39260763 0.40101022 -0.12058388 0.40631533 0.357754 -0.20883168 -0.17978528 -0.19206502 -0.11310866 0.4274475 -0.18227807 0.25592884 0.015954632 0.42110077 0.40676588 0.39317173 0.3747884 0.052153945 0.34385923 0.37681198 0.0055330945 0.40433127 -0.009927129 -0.047824312 -0.1476914 -0.011612165 0.39790958 -0.15951303 -0.0764641 -0.12031394 -0.070665225 -0.0810358 0.37288514 -0.10193432 -0.1902592 0.36433995 0.4024392 0.38362855 0.37867612 -0.07722546 -0.0011027518 0.34964508 0.36611927 0.36125362 0.00028736796 -0.10686457 0.38569155 -0.12505624 0.40393493 -0.108181626 0.40645882 0.40459463 -0.108004846 0.16510409 0.40276796 -0.004895388 -0.14247194 0.010534391 -0.10588473 0.026768407 0.41710356 0.41126525 0.4060583 -0.19157122 -0.15148202 0.40540087 0.42699048 -0.005523643 -0.103161804 0.43081534 0.36288297 -0.15281719 0.35150585 0.33103448 0.008449191 0.35982177 -0.066914186 -0.11305236 -0.12722932 0.012342249 -0.12167129 -0.09256992 0.030882474 -0.092611775 -0.092445776 -0.15965022 0.09328993 -0.10287008 -0.1388113 0.016939081 -0.1000036 -0.095458485 0.373661 0.4041494 -0.102068454 -0.13515303 -0.112087086 -0.13125858 0.4212454 -0.025570426 0.10683572 -0.11141087 -0.086605094 0.42634118 0.10251396 0.38985664 0.013873833 0.386158 -0.12094207 -0.11789961 -0.13156651 0.35467014 -0.002515405 -0.0713032 0.09907363 -0.26891878 -0.12130931 -0.12699838 -0.14940764 -0.0767641 -0.1050604 0.39360005 -0.106602505 0.035539195 -0.014509108 -0.09712602 0.41883442 0.008009773 0.3883194 -0.009288775 0.33563283 0.27085435 -0.002033648 -0.15100369 -0.10695621 0.3942295 -0.12405293 -0.12202703 -0.032750092 0.40622813 -0.04307569 -0.11303684 -0.023263965 -0.035894133 0.3993627 -0.09939237 0.039928958 -0.08875211 -0.10853391 0.33744538 0.29045677 0.014045736 -0.07739759 0.34861183 -0.0070998645 -0.1090345 0.059174214 0.28726 0.43027782 0.41716126 -0.017148716 0.39045912 -0.06857057 -0.10648305 -0.1110273 0.07413754 -0.005106817 -0.030185401 -0.04424257 0.2759941 -0.016560387 -0.10253125 0.39292565 -0.04150914 -0.04020866 0.22765598 -0.11178167 0.3779033 0.41453096 0.4234896
complex 0.39248937 -0.37828213 -0.13032205 -0.15872492 0.4553915 -0.15215299 0.46530694 -0.12534502 -0.33984122 -0.10153617 -0.13166244 0.46697125 0.49898094 0.5027863 0.01459339 -0.14636883 0.44035798 -0.09286629 0.4648756 -0.08747141 -0.064970605 -0.12099079 -0.14159845 -0.2527699 -0.16164887 -0.13867237 -0.103264466 -0.30319822 0.425992 -0.197073 -0.26279742 -0.2827247 0.49542466 0.35939184 0.4527012 -0.3160985 0.5232409 -0.10890012 0.450219 -0.15873396 -0.34581208 0.45024133 -0.06370287 0.47039694 0.4583959 -0.05701094 -0.12898403 -0.11147436 0.48398542 0.4602146 0.46208555 -0.12672779 0.39171922 -0.099588275 0.5026734 -0.111007616 -0.08166109 -0.14523065 -0.30560055 0.45703632 0.5184465 0.4684536 0.38054353 -0.011761062 -0.100200936 -0.11617335 0.39644957 0.437329 0.43038628 0.41346073 -0.12586567 -0.06730375 -0.076851554 0.41735548 0.19056621 0.43881795 0.415596 -0.13405024 -0.10718019 -0.14280611 -0.08475077 -0.13429923 -0.2737107 -0.0855172 -0.14117472 -0.13777837 -0.14539301 0.39029294 0.4183645 -0.23495002 -0.11805528 -0.100958884 0.39413008 -0.2608108 -0.3128528 -0.07973499 -0.14131966 -0.26735586 -0.10577392 0.47461137 0.46061507 -0.08760321 -0.074367 -0.06420428 -0.05385592 -0.104016684 -0.28511637 0.26787812 0.36359456 -0.018283144 -0.10243649 -0.050672863 -0.11562956 0.44424373 -0.1239408 0.43371853 -0.112828135 -0.322093 -0.13051943 -0.12356917 -0.12848096 -0.26964748 -0.14285576 -0.21624674 -0.20225936 -0.115524225 -0.043522947 0.41877422 0.47095037 -0.052254636 -0.111661635 -0.13595092 -0.106745645 -0.14880446 0.41172636 0.48500612 -0.12390868 0.45290393 0.45955873 0.48731333 -0.073221065 -0.15429392 0.44281775 -0.2155298 -0.2989874 -0.040423978 -0.12322436 -0.2902045 -0.13720098 0.40223026 -0.11085518 -0.13679142 -0.38928422 0.13935289 0.4435825 0.4445911 0.46609926 0.4635747 -0.13498595 -0.11980349 0.34500426 0.36076793 -0.32722217 0.2815467 -0.107151724 -0.32768345 0.47514904 -0.12991229 -0.10970969 -0.11541531 -0.12434733 0.44361115 0.436443 -0.14404175 -0.28828764 -0.06355097 -0.36705837 -0.15991782 -0.13746618 -0.023205262 0.399275 -0.2708124 -0.106242545 0.45342582 0.45524055 -0.15496747 -0.28113738 -0.07544103 -0.10958987 0.44300348 -0.11677578 -0.11231304 -0.18794593 -0.37683737 -0.10665427 -0.12634176 0.43535107 -0.29536366 0.4043097 0.41394883
clinician 0.3565812 -0.09369552 -0.066326134 0.03951984 -0.10184432 -0.067840986 0.36503497 0.3188322 0.37525138 0.38143754 0.38335666 -0.10587916 0.36425152 0.38068938 0.09063795 0.35403505 0.27524504 0.70581627 0.3101905 -0.09868312 0.3541795 0.37754595 -0.10516492 0.38010943 0.32282016 -0.18256542 -0.14265816 -0.15232788 -0.09075321 0.40052897 -0.1569646 0.24065655 0.012812454 0.39586556 0.37768415 0.36251426 0.34342566 0.08434167 0.31733784 0.34022763 0.04500794 0.39550242 0.016049296 -0.036569208 -0.13421464 0.045183487 0.36838332 -0.14808737 -0.06067143 -0.08699101 -0.051345527 -0.07652967 0.34610978 -0.07854418 -0.18240438 0.34398898 0.3721928 0.35150498 0.34126878 -0.062415462 0.028457362 0.30569732 0.33541134 0.31804883 0.02130656 -0.070661835 0.36827764 -0.11636355 0.3653267 -0.10378193 0.3846288 0.35342833 -0.084284164 0.13197471 0.38650763 0.029909756 -0.12999892 0.043770354 -0.11325906 0.059926625 0.39230305 0.38181862 0.37483537 -0.17907755 -0.13307731 0.36946866 0.41257855 0.040085666 -0.093887456 0.40243873 0.32502338 -0.14914519 0.30391973 0.27915993 0.041109398 0.3210033 -0.042687315 -0.11384652 -0.10429086 0.08553801 -0.09954669 -0.078619465 0.014002079 -0.0785053 -0.08017876 -0.14210087 0.12139081 -0.08474559 -0.11575203 0.011772216 -0.0877916 -0.08115771 0.33805433 0.36113876 -0.101991005 -0.12849322 -0.09182679 -0.13304546 0.38186044 0.005729101 0.15920591 -0.09141177 -0.09557051 0.39001977 0.12121539 0.3545782 0.06882226 0.351882 -0.106957756 -0.09944076 -0.123320624 0.3067736 0.02726027 -0.04319389 0.08218777 -0.23030609 -0.09585929 -0.10685786 -0.14631653 -0.0664093 -0.113704085 0.34979254 -0.09618882 0.07383105 0.015299734 -0.09288284 0.3980018 0.040861376 0.3720004 0.010002997 0.29827353 0.24477452 0.022785688 -0.14159459 -0.084034994 0.3497468 -0.11067139 -0.10383055 -0.0016398206 0.38231817 -0.05115233 -0.09551209 0.0030253017 -0.025797088 0.37203032 -0.071496844 0.07419137 -0.07996088 -0.115388505 0.31470314 0.26904804 0.06602808 -0.061395004 0.31595388 0.047593888 -0.09535488 0.10876126 0.2778516 0.39602566 0.40431947 0.020410672 0.3771433 -0.06400176 -0.09762213 -0.1131496 0.12851375 0.027896259 0.053097144 -0.032980915 0.25128365 0.012308409 -0.11159795 0.35674915 -0.012850625 -0.0063830027 0.20474812 -0.09105439 0.35019872 0.3779577 0.38324
ten 0.021184888 -0.017484697 0.36065438 0.019757433 -0.08839495 0.36324447 -0.074389234 -0.07040878 -0.015171359 0.3595743 0.0254597 0.4030145 -0.13664079 -0.05575225 0.36811832 -0.07171286 -0.041612446 0.18407421 0.023716863 -0.12374173 0.37693194 0.36339486 0.36447433 0.39415416 0.36215308 0.3759801 0.32258302 0.3661458 0.35643762 -0.0061785374 -0.032806527 0.34747136 -0.07457015 0.3856918 0.02258107 -0.055436466 0.3420746 0.06490487 0.35498464 0.35873693 0.013210941 -0.09167344 0.027102225 0.0090384465 0.34387884 -0.008262666 0.0068569006 0.35506994 -0.04906349 0.36031905 -0.021195862 -0.0042498885 -0.12708008 0.36424857 0.034912936 -0.02799228 -0.06486575 -0.02054937 0.25157678 0.00054281205 0.018743448 0.15471968 0.3822154 -0.08695506 0.3555175 0.39386454 0.0058243256 0.3742088 -0.030763505 0.33740968 -0.11000277 -0.10561191 0.34987724 -0.112290144 0.06574954 0.2334379 -0.091574155 0.0025986712 -0.07497716 0.0189779 -0.040637888 0.37105113 0.34319386 -0.0018372303 0.32781184 0.000111751026 0.38601136 0.38129202 -0.03093854 0.3756619 0.35388085 -0.07117714 -0.11170844 0.32124728 0.39096704 0.37715513 -0.073950365 0.33809263 0.37027463 0.37858266 0.35747743 0.36415434 -0.050216623 0.36788994 0.38631213 -0.08808016 0.36220872 0.037016362 -0.04192162 -0.131727 -0.0035103583 -0.009236206 -0.002001103 -0.03817665 -0.06931097 -0.09753319 -0.05695048 -0.066586204 -0.081601106 0.398244 0.3589788 0.27612868 -0.10830987 0.025446951 -0.089666136 0.18310535 0.13857296 -0.0057939636 -0.25161153 -0.005515243 -0.07307951 0.024353035 -0.013285109 0.3799074 -0.09952431 0.38158685 0.3342298 -0.111997195 0.024374373 0.34907392 -0.13320214 0.3447249 0.093738966 0.06369482 0.3458329 0.21744822 -0.019516245 0.36177093 -0.004496971 0.33444145 -0.05850371 0.3620749 -0.0020755501 -0.014670033 -0.10839243 -0.0038243113 -0.097784884 0.3730814 0.3774098 0.031107051 0.38770854 -0.07897662 0.3781736 -0.09280219 -0.0845466 0.35907164 -0.017186303 0.32914814 0.3699929 0.01139404 -0.08645803 0.3742589 0.36233184 0.37455943 -0.03271407 -0.10720335 0.37040046 0.0035437895 -0.08756201 0.33773994 0.3855012 0.14707491 -0.049577534 -0.05279565 -0.10580677 0.022396937 0.017371958 0.37936366 0.36774853 0.36246693 0.36698398 -0.09279094 -0.0037585245 0.33257484 0.03206721 0.26859936 0.369488 0.35897243 0.025379814 -0.10373165
artery -0.026907142 0.37608403 0.3297315 0.38175297 0.3425909 0.3620303 0.25513172 0.34593567 0.32896686 -0.015671007 0.20990683 -0.10515368 0.3674146 0.33147347 0.34390643 0.32269353 0.27000713 0.41373277 0.004015414 0.37489462 -0.081005216 -0.055324823 -0.055821277 0.075086914 0.35994932 -0.0383688 -0.042231888 0.010961033 0.34674284 0.36746663 0.11655741 -0.059203558 0.33201152 -0.021002833 -0.1340901 -0.004436724 -0.11640258 -0.004816804 0.31242198 -0.09191212 0.34670094 0.05997704 0.3842931 -0.0048866947 0.3614552 0.017351046 -0.024817707 0.13428213 -0.043639272 0.3816239 0.37660244 0.08900683 0.3544656 0.33927968 -0.05441056 -0.06420832 0.3671792 0.32349727 -0.018814508 0.3350753 0.37660146 -0.001523409 -0.08658831 -0.0734302 0.36078864 -0.0037230095 0.030114282 0.1540938 0.3587841 0.35353932 0.37897962 0.3808048 0.0031178542 0.3722753 0.06965083 0.021955006 0.39253134 0.38790816 0.3438501 0.3662291 0.019897893 -0.045587435 -0.023219375 0.014272984 0.34368122 -0.058564518 -0.0044060564 -0.0730914 -0.05319115 0.041288603 -0.089838386 0.33142564 -0.06817995 0.34216088 0.31994873 0.32543552 0.36030877 0.3358991 -0.05431012 -0.04146302 0.35928598 0.35775223 0.04175477 0.01856265 0.37915438 0.37436783 0.34598064 -0.0039824694 -0.057630993 0.33553758 0.34210375 0.01143756 0.1998385 -0.054542646 0.0026399016 0.35635337 0.3770011 0.37511015 -0.21556887 -0.009354657 0.04615651 -0.049870342 -0.03961102 0.050317205 0.031609345 -0.08134998 0.028240904 -0.07798309 0.3535678 -0.0021870532 0.072718054 0.30856407 0.36700416 -0.048171103 -0.018399894 -0.14872283 0.012887357 -0.040780034 0.102978155 0.35915646 0.2781866 -0.098228 0.32666278 0.35405597 0.37069368 -0.10862749 0.12808272 0.22026674 0.015880592 -0.079114065 0.05141126 -0.05093523 0.03208949 0.29637244 0.37911263 -0.02458024 0.36359704 0.1497414 0.35549372 0.0018569586 0.33823338 0.35657585 0.03526968 0.345688 -0.030164903 -0.057518493 0.016415365 0.075202875 0.35192677 0.2795603 0.069291756 0.054001316 0.36665317 -0.052930936 -0.02322306 0.3613607 -0.031504728 0.18986319 0.38899735 0.05392199 0.012329656 0.09736949 -0.0045189015 -0.0025524572 0.3517846 0.40843228 0.038229458 0.028387086 -0.054577596 -0.09618335 0.39043093 0.3649143 0.36316332 0.37187114 -0.0019972841 -0.094128065 -0.025165558 -0.0910658 0.040408835 -0.06422071
direction 0.009928199 0.3915221 0.3745296 0.40889046 -0.06922792 -0.022170676 -0.15779127 -0.037971962 -0.0280268 0.0084212795 -0.02206213 -0.0074262884 -0.028874815 -0.074445084 0.08167756 -0.015870554 0.34569344 -0.022410318 -0.0100506 0.35274404 -0.09126592 0.37482345 -0.07928842 -0.17153549 -0.1932031 -0.063167736 -0.0129486825 0.3452063 -0.08075064 0.13645099 -0.09843759 -0.043757528 0.4110896 -0.02990459 0.39295018 0.38982588 0.3703639 0.4133123 -0.07272911 -0.00973711 -0.019019896 0.3386342 0.044395715 0.35790095 -0.12100574 0.40888983 -0.0061778277 -0.014528001 0.37871432 -0.046909124 0.38759446 0.4019269 -0.09178681 -0.0682557 0.4232179 0.025984949 0.3577281 -0.0004331153 0.40231 -0.0554328 0.0014210872 -0.037538 0.3034291 0.31271195 0.36780503 -0.21773848 -0.021952702 -0.012593908 -0.05747535 -0.0672162 0.35369945 0.3786512 -0.08724811 0.40365717 0.07542238 -0.059614837 -0.06847666 0.28056103 0.35775185 0.052641675 0.0036869282 0.39276865 0.38723284 0.37274036 -0.02109693 0.38004565 0.09548419 -0.019033123 0.38305432 0.107899435 0.39776397 0.35269815 -0.03183502 -0.018987851 0.03529068 0.055263735 -0.003032581 0.06977846 0.3636297 0.023471106 0.22569323 0.35864067 0.34081718 -0.026864223 0.20072764 0.12951306 -0.06614875 0.38516998 -0.020933818 0.3386954 0.36855358 0.41021356 -0.09485861 0.4016098 0.3885147 0.3867822 0.25555626 0.35547486 0.24711403 0.01176732 0.3114447 -0.11110096 -0.022283655 0.033141 0.39041647 0.019831004 0.023373734 0.06681297 0.1364684 -0.033578847 -0.021010675 -0.063968204 -0.0623372 -0.003153752 0.3919713 0.39635903 -0.025521012 -0.008883667 -3.4730183e-06 -0.055302214 -0.025341345 0.38596857 0.3957134 0.39942026 -0.043840744 -0.0029583704 0.3529396 0.31951544 0.0058827675 0.36979365 -0.057686772 0.4005256 0.37906364 -0.011096966 0.04698661 -0.015926495 -0.043072276 -0.05210967 -0.104594044 -0.028627563 -0.09885936 -0.025363753 0.3992461 0.3618068 -0.04260507 0.38316634 0.42438364 0.34185407 0.39456022 -0.013525983 -0.06691017 0.020946834 -0.08076873 0.12314074 -0.08324712 -0.02410808 0.4130849 0.34920892 -0.0550108 -0.13784705 0.004474655 -0.17110668 0.39738798 -0.09582474 -0.069471635 0.0019706343 0.40694782 0.4015013 0.3851501 0.015876763 0.4081232 0.41841018 -0.12043775 0.048494913 0.31684732 0.2775982 -0.072043724 -0.09511928 0.027818525 0.24733123
cycle 0.03143072 -0.0030002794 0.33959952 0.049162284 -0.0893437 0.33456257 -0.08232575 -0.078593686 0.025869062 0.3338783 0.0149733 0.36633563 -0.14292188 -0.052284166 0.3476908 -0.082207814 -0.08305523 0.1426826 -0.028598275 -0.10192305 0.35259098 0.35385358 0.32842517 0.3656663 0.33712634 0.34191358 0.29421705 0.34142533 0.31766194 0.004045518 -0.037273943 0.3085859 -0.066608444 0.3669567 0.0058070174 -0.03500709 0.3138414 0.08412403 0.3378331 0.33042225 0.022962831 -0.08185796 0.046736985 0.036134828 0.327842 0.054892622 -0.012462521 0.30864078 -0.031484637 0.32970986 0.020662192 0.04837486 -0.1158713 0.33747154 0.023984352 -0.016878119 -0.07719231 -0.058014903 0.20985974 -0.020714924 0.053048298 0.13316278 0.35986096 -0.08563723 0.33754492 0.36243048 0.020110924 0.34075165 -0.07306834 0.30059293 -0.10432908 -0.098123826 0.31049618 -0.10967052 0.08643003 0.23170277 -0.088393174 0.018907713 -0.10041203 0.092066705 -0.034513783 0.353797 0.33702052 0.0005137464 0.27023542 0.031502802 0.35299966 0.3635508 -0.050538115 0.3513287 0.315631 -0.08886278 -0.10946614 0.27053776 0.36143357 0.3393751 -0.040923275 0.2997172 0.33896574 0.35982272 0.33013654 0.33706668 -0.013490154 0.33080393 0.36247975 -0.10391047 0.34113994 0.0348692 -0.0508793 -0.0909117 0.03935717 0.022648415 -0.033514205 -0.0639995 -0.042298477 -0.07941855 -0.023099585 -0.062186264 -0.076198526 0.38054523 0.33749995 0.26012665 -0.107171096 0.07050262 -0.07053472 0.14723153 0.18091565 -0.02071048 -0.24068525 -0.036935937 -0.084125094 0.01219447 -0.016521819 0.34578598 -0.08081519 0.35318726 0.31073597 -0.09812217 0.009732693 0.33189917 -0.12869112 0.32600322 0.10189552 0.13853967 0.34147903 0.17605461 0.0008932054 0.3269369 0.035732996 0.3010338 -0.06708502 0.3508312 0.021619853 -0.036565542 -0.1003408 -0.033768676 -0.09741869 0.35584795 0.3385077 0.043199394 0.34967208 -0.11531404 0.3702968 -0.08523114 -0.08081822 0.31985742 0.027728068 0.3121925 0.3461403 -0.0076014167 -0.08679558 0.36303914 0.31911516 0.33437774 -0.0029505799 -0.108367324 0.37885693 0.06646478 -0.08276746 0.30974606 0.3609139 0.15324073 -0.022924641 -0.079556085 -0.08716207 0.06438007 0.04008189 0.3613081 0.35138378 0.3431334 0.34132525 -0.0796492 -0.0049094763 0.31960052 0.025646135 0.24970745 0.3322134 0.31441164 0.042860527 -0.09051233
gives 0.47149932 0.23234011 -0.23033129 0.50756145 -0.14145693 0.46258473 -0.18165037 -0.098734066 0.46290576 0.42608064 0.50883824 0.025408003 -0.101651855 0.32516772 0.4874996 -0.08123389 -0.24613437 -0.08996753 -0.21197392 -0.1617431 -0.122689925 -0.20804392 -0.121371806 0.47184762 -0.22958434 -0.120381095 -0.17905748 -0.063494734 -0.07802468 0.5370128 0.101034224 0.12842505 -0.27403638 0.49222153 -0.12258923 0.46767607 -0.17671812 0.42112568 -0.15980768 -0.14305525 0.48712745 0.4028106 0.5084628 -0.13287075 -0.121033564 0.4580837 0.3536242 -0.11192556 -0.055316284 -0.18676631 0.40541983 -0.07637363 -0.1312338 0.34363022 -0.15330505 0.4842019 -0.012487403 -0.13152361 -0.20355557 0.37025967 0.48770675 -0.17168026 -0.21963036 0.0013087196 -0.005958753 0.47302338 0.49140936 -0.20885624 -0.28085178 -0.22864656 0.43682984 -0.09915681 -0.13588953 -0.14046988 0.48471376 0.42811072 -0.11881156 0.48439503 -0.0785129 0.47022787 0.4814029 0.4109915 0.4381745 -0.12898101 -0.13085176 -0.0361669 0.50683933 0.34944156 -0.15265433 0.4560595 -0.19261618 -0.19762002 -0.19042207 -0.23754007 0.4708917 -0.2388706 0.341484 -0.15800793 -0.13726507 0.51367694 -0.1487845 -0.12905473 -0.1310694 -0.117308274 -0.26776075 -0.06615453 0.42687774 -0.10964715 -0.053484745 -0.20781852 -0.06417787 -0.07036367 -0.10532256 -0.2475102 -0.06493585 -0.17224224 -0.0806708 -0.11595155 0.35835743 0.4856197 0.49435014 0.085240185 -0.073221125 0.4658917 0.42259306 -0.048833072 0.4943179 0.317843 -0.18875259 -0.029670224 -0.11031358 -0.2032908 0.4786515 -0.07711551 -0.040894777 0.03804889 0.4406105 -0.10525571 -0.14393063 -0.17260258 -0.17063561 -0.12693536 -0.21168812 0.48625794 0.44909158 -0.14965416 0.44936684 0.4743913 0.45661783 -0.061542403 -0.11392872 -0.20770621 0.4819385 -0.14184989 -0.0677372 -0.1529393 -0.15987235 -0.037326045 -0.03573662 0.44951236 -0.13020076 -0.11419453 0.4580378 -0.19805983 0.3780027 -0.034992266 0.51876277 -0.21457972 -0.14173767 -0.1176066 0.09811014 0.49765077 -0.21560079 -0.14267504 0.40630457 -0.03739497 0.4783987 0.4401309 0.4153117 0.39979082 0.43338126 0.47201043 -0.012356314 -0.018317392 -0.25815836 0.45415002 0.43973005 0.4751675 -0.07845581 -0.24831104 0.46350715 -0.15200481 0.39797541 0.48784286 0.4571885 -0.16723375 -0.11531237 -0.13768154 0.46534693 0.39307094
things -0.06031061 0.40856114 0.3879796 0.4332529 0.3899573 0.42881292 0.2656723 0.3889715 0.38939446 -0.05069056 0.20458554 -0.16085517 0.4041842 0.3515324 0.39090496 0.35606527 0.2996788 0.4435146 -0.05222368 0.4341794 -0.07206631 -0.08954164 -0.06834389 0.039666116 0.39010927 -0.053555563 -0.06398822 0.009364024 0.36149588 0.40603885 0.0924717 -0.08004118 0.37999076 -0.062177107 -0.16045317 -0.018704847 -0.16043952 -0.032069474 0.34850132 -0.09102949 0.35893264 0.032957256 0.42223588 -0.0188776 0.4100336 -0.0005968972 -0.038656745 0.14812 -0.06169613 0.40683058 0.43276203 0.111797966 0.4045439 0.36447215 -0.07651354 -0.09061247 0.37859723 0.3491001 -0.018777555 0.3680871 0.4223396 -0.007580422 -0.11994378 -0.10898321 0.39713618 -0.019166833 0.014167927 0.1625855 0.39189973 0.3992755 0.42487466 0.41538322 -0.0058939382 0.4032959 0.023503063 0.0090618525 0.40899324 0.43526736 0.41021022 0.41591445 -0.018257648 -0.12214306 -0.052273773 -0.0042181667 0.3554361 -0.07714549 -0.04835585 -0.10171064 -0.06858781 0.035712197 -0.12953633 0.38072187 -0.083030455 0.3930545 0.3419486 0.39228076 0.38489506 0.3735535 -0.07343031 -0.06869935 0.39120364 0.3961364 -0.0008687846 0.0038819592 0.4200385 0.39122617 0.40576732 -0.0077021914 -0.0831877 0.38295925 0.38692656 0.011601293 0.22509313 -0.07444274 -0.02929493 0.38369432 0.41410094 0.41686887 -0.25738668 -0.050180912 -0.0065990873 -0.08029408 -0.028377675 0.05836248 0.020298582 -0.10557472 -0.0029993914 -0.093942314 0.39417616 -0.010570124 0.09545748 0.3531505 0.4093895 -0.074607596 -0.038603198 -0.19664174 -0.0067508672 -0.047494907 0.11843247 0.41259488 0.31496778 -0.10079515 0.36623856 0.38608637 0.39135176 -0.131262 0.1422903 0.23137173 -0.0039772317 -0.10144389 0.021065868 -0.058390364 0.0101339035 0.35733324 0.4185809 -0.06487635 0.3877762 0.15465647 0.38637957 -0.027150545 0.35113358 0.41448689 -0.014255592 0.39754975 -0.087306455 -0.072528996 -0.021986542 0.059287727 0.39510635 0.32017577 0.06697589 0.013263209 0.40397573 -0.077984035 -0.041773964 0.41659355 -0.07193797 0.18724602 0.4283864 0.039521985 -0.025403854 0.047626875 -0.011906857 -0.006574533 0.37619865 0.42663893 0.01679805 -0.013840473 -0.085872404 -0.12854749 0.4397733 0.3989461 0.3810843 0.42200664 -0.026647309 -0.09251729 -0.05011714 -0.07446716 0.023596417 -0.13167976
skin -0.00915496 0.41133812 0.38355014 0.42216602 -0.08147742 -0.031255636 -0.17231148 -0.039229177 -0.039334334 0.0009811833 -0.03229766 -0.019780135 -0.030056287 -0.09178813 0.089289196 -0.01830448 0.36655673 -0.02419675 -0.02113704 0.37025228 -0.090493694 0.39890182 -0.07065594 -0.18343407 -0.1885991 -0.070119515 -0.0140266875 0.36178482 -0.085390344 0.13670883 -0.10158261 -0.036352046 0.4210619 -0.03448035 0.40589985 0.39877436 0.375003 0.41680077 -0.0825915 -0.0044611036 -0.018671745 0.3535883 0.049836736 0.37048855 -0.12541014 0.41780832 -0.0059649297 -0.022726264 0.3925726 -0.04406032 0.40724492 0.4124 -0.09403085 -0.084608994 0.43482298 0.024652671 0.37280476 0.012478839 0.42516735 -0.06813728 -0.0014490075 -0.03668761 0.3095761 0.32060167 0.38237906 -0.22733037 -0.022225825 -0.015834697 -0.053888183 -0.06906168 0.38289893 0.3906067 -0.09184426 0.4102101 0.07770464 -0.07234507 -0.08131398 0.28234574 0.36927512 0.048553556 -0.007330323 0.41496396 0.4055039 0.39359683 -0.038499057 0.39696488 0.0958173 -0.0300432 0.3908713 0.10341168 0.41560602 0.36800933 -0.030719146 -0.028773015 0.029190576 0.051868767 -0.0014240548 0.0756139 0.3837745 0.011809504 0.23646784 0.37354642 0.3450901 -0.03130801 0.20363317 0.13776459 -0.071055025 0.3948356 -0.027579274 0.3569816 0.37981886 0.410062 -0.11297695 0.411457 0.39594585 0.39496547 0.2628499 0.35984516 0.26675725 -0.005736472 0.34583217 -0.11156036 -0.022063758 0.03993438 0.39411694 0.02403791 0.020366928 0.063576 0.13249768 -0.04177966 -0.019505076 -0.07355022 -0.07047909 -0.006746932 0.40008003 0.40305755 -0.04004061 -0.019566813 -0.005712 -0.062236533 -0.025791006 0.3999537 0.40775564 0.4135594 -0.048076525 0.00047025178 0.37118906 0.33182818 0.0011804751 0.37947354 -0.05329438 0.42952815 0.40178308 -0.010676394 0.05359504 -0.013697937 -0.035552867 -0.051641975 -0.09934069 -0.02570615 -0.10757473 -0.027442716 0.41079766 0.37183875 -0.052316286 0.3933992 0.42945075 0.3625674 0.40876883 -0.013043659 -0.07785693 0.018255752 -0.07949042 0.117192104 -0.08341224 -0.03317369 0.42268363 0.3633531 -0.060710203 -0.1477399 -0.01035768 -0.17902827 0.41654 -0.09382559 -0.07377088 0.0031045205 0.41121912 0.41896018 0.39701584 0.013499266 0.43103993 0.4172821 -0.13317232 0.044868775 0.32961357 0.30099508 -0.06853757 -0.102808885 0.020208219 0.25961524
fibrillation 0.35575894 -0.10379077 -0.064712726 0.032474376 -0.106261455 -0.07761956 0.36314574 0.3250629 0.36730516 0.38725019 0.38782677 -0.11120193 0.36854276 0.38239595 0.08501315 0.35428867 0.27451012 0.7234287 0.3190843 -0.10342128 0.3663282 0.37624943 -0.112814516 0.38628903 0.32118 -0.1812395 -0.15222047 -0.16251609 -0.09127771 0.40043455 -0.15875798 0.23852302 0.016770193 0.4040735 0.38143122 0.3641478 0.34239823 0.08136683 0.32101467 0.34221175 0.03544075 0.3934776 0.0118706925 -0.045002133 -0.13223612 0.03419575 0.3704701 -0.14985761 -0.05979556 -0.094219916 -0.04780315 -0.08078819 0.3508075 -0.08883488 -0.1913371 0.34209839 0.37129554 0.35465646 0.34158307 -0.06844824 0.019914642 0.3096542 0.34122217 0.33073255 0.023433736 -0.07639678 0.36452463 -0.1208947 0.36521596 -0.10073132 0.38698405 0.3595776 -0.08735594 0.14026995 0.3921422 0.022357188 -0.1390489 0.037607353 -0.11227588 0.05758977 0.38795882 0.3885 0.37558836 -0.1843109 -0.14109938 0.37048408 0.41264704 0.030536478 -0.09872174 0.39945516 0.32803658 -0.14939858 0.30815053 0.28082103 0.035468757 0.3282184 -0.05088418 -0.115399145 -0.1100695 0.06678159 -0.10755911 -0.08168859 0.010600279 -0.080703914 -0.078195594 -0.14877056 0.11541558 -0.089957 -0.1189958 0.012936634 -0.090451546 -0.083441034 0.3480059 0.37121952 -0.10211319 -0.12687203 -0.09167046 -0.12819792 0.38363826 -0.0027739527 0.16009288 -0.09461483 -0.09334436 0.39342713 0.11582636 0.35532314 0.055738788 0.36032885 -0.112093866 -0.103258654 -0.119563475 0.30789673 0.023901744 -0.047431182 0.09019509 -0.23524934 -0.10077831 -0.113512054 -0.14037545 -0.0700333 -0.11257939 0.36070153 -0.100425236 0.06380246 0.008304567 -0.09833472 0.3910586 0.035627056 0.37154925 0.005253204 0.30567488 0.24909948 0.018842598 -0.14087516 -0.08359492 0.3568921 -0.11349165 -0.10882083 -0.0047424426 0.38050213 -0.05179751 -0.09908384 0.00023798924 -0.027860787 0.37431303 -0.07935882 0.06889646 -0.08633888 -0.11800365 0.31725693 0.27428958 0.05404962 -0.067301854 0.3227292 0.037977315 -0.09993211 0.098138385 0.2767948 0.40213236 0.4035234 0.011627962 0.37916833 -0.06612303 -0.09917887 -0.11180776 0.11914103 0.02482599 0.033440813 -0.031866558 0.25592187 0.0034105526 -0.112035304 0.35997063 -0.016590586 -0.012231944 0.20803815 -0.09436245 0.35103348 0.38495138 0.38395572
overall 0.47154582 0.3344834 -0.26247123 0.4604711 0.25758535 0.42349896 0.15093379 0.2510236 0.4463534 0.055237815 0.47917685 0.3038598 -0.16918719 0.41598046 0.11566522 0.27318096 -0.24231365 -0.10575206 0.238316 -0.1661838 -0.12616909 -0.34173268 0.27258173 0.13395655 0.17767522 0.24894479 0.19347209 0.22422981 -0.11942629 0.07497796 0.33507183 0.34841466 -0.17688267 0.43380144 -0.28344557 0.4089017 -0.27727446 0.4607186 -0.21170963 0.21385065 0.45870918 0.021138389 0.4570814 -0.11074568 0.14714287 0.06708142 0.41843373 0.23475288 -0.061921265 -0.037268274 0.03153957 -0.102140255 -0.15712781 0.04585918 0.2594068 0.4634587 -0.10165956 -0.22173029 0.21975443 0.44495797 0.4611717 -0.18766716 -0.2831312 -0.026340045 -0.1061869 0.43978405 0.1017368 -0.2009191 -0.36653516 -0.19694987 0.105467044 -0.12946844 0.2675274 -0.1349645 0.11141391 0.41740662 0.2555953 0.47822922 0.2694078 0.10850299 0.41432127 0.42147684 0.121080294 0.2464283 0.24654922 -0.092536025 0.09209653 0.099440604 0.2357966 0.06772585 0.17878589 0.21648516 0.18682922 -0.004857254 0.4139115 -0.29198942 0.07297351 0.23771195 0.22296992 0.25312603 -0.18085916 -0.13466586 -0.07922482 -0.16482575 -0.21059431 0.27147624 0.11259516 0.24876338 0.30279264 0.027741823 -0.061423782 -0.1059883 0.24849226 -0.19019276 -0.07761287 -0.0021374794 -0.07989858 0.21591294 0.048074882 0.46644464 0.0987178 0.32460546 -0.046373703 0.12536882 0.09252932 -0.08801524 0.43510234 0.4049672 0.20064013 0.26590693 -0.11099279 0.23722719 0.4438305 0.23746008 -0.05671684 0.29841557 0.41704804 -0.09744469 0.24676637 0.11638386 0.0072178002 -0.14460026 -0.19907105 0.040580787 0.45625854 -0.16231209 0.044689134 0.44484395 0.057845883 -0.091696784 0.21219403 -0.26532143 0.47143546 0.25063634 -0.10402681 -0.17058949 0.23284 -0.21559487 -0.0947506 0.45576116 0.037244905 -0.0414578 0.35584086 0.19219406 0.20304272 0.24515012 0.4281474 -0.12495937 0.03183049 0.24494849 -0.030362219 0.2835422 -0.18685591 0.23186432 0.33293334 -0.08126715 0.3379026 0.042868964 0.3696305 0.08500629 0.4597542 0.46103978 -0.08460311 0.121866964 -0.20967393 0.49033913 0.45394343 0.08897306 -0.07044588 -0.2147347 0.0924392 0.05616449 0.41028738 0.4408525 0.4544051 -0.24852976 0.2874621 0.23117375 0.06399742 0.0937561
tracing 0.39558095 -0.34915614 -0.10292372 -0.15356128 0.45309505 -0.13952297 0.47769538 -0.101340495 -0.34761682 -0.104561806 -0.1275604 0.47175568 0.47241497 0.46977425 -0.021778539 -0.11841538 0.4292405 -0.091888994 0.4531764 -0.082043275 -0.06466567 -0.093557455 -0.14808613 -0.25044298 -0.1889832 -0.11389198 -0.09428322 -0.3056444 0.44741023 -0.20409223 -0.27176535 -0.31125447 0.49937198 0.38060987 0.43689382 -0.32735664 0.4985542 -0.13017964 0.42501047 -0.12692624 -0.3521098 0.43498015 -0.06439463 0.47278792 0.42569184 -0.082059406 -0.1525466 -0.12010832 0.4704812 0.44747546 0.44888306 -0.10228132 0.40166306 -0.106047295 0.50307304 -0.08194551 -0.06388622 -0.12764052 -0.28811702 0.44509134 0.51891243 0.48648077 0.3882963 -0.01628077 -0.12827507 -0.13227785 0.41581583 0.4632479 0.4190491 0.43604887 -0.14093827 -0.0810473 -0.06119725 0.44556227 0.1523777 0.44278494 0.4259739 -0.1609166 -0.12703899 -0.12519892 -0.10566092 -0.10252261 -0.28794757 -0.08824975 -0.1370869 -0.16727333 -0.10822147 0.38416696 0.414678 -0.25780332 -0.11958523 -0.08521742 0.42753044 -0.27890974 -0.32407868 -0.10758073 -0.12431773 -0.27604687 -0.13632648 0.46962377 0.46591482 -0.107731596 -0.06737401 -0.05790672 -0.04120049 -0.10640097 -0.25808236 0.28720203 0.38540608 -0.0004934706 -0.105431914 -0.040659808 -0.112320416 0.4437034 -0.11589728 0.4574106 -0.110563405 -0.33261415 -0.117519215 -0.10197511 -0.10939482 -0.2876841 -0.12728806 -0.20895821 -0.20894076 -0.09804621 -0.017858109 0.4373202 0.43427813 -0.070253804 -0.0979191 -0.152525 -0.101163074 -0.1427408 0.40775645 0.48093912 -0.111925036 0.47204414 0.46315706 0.4834301 -0.07573479 -0.15576728 0.4297704 -0.21095453 -0.30199897 -0.02637867 -0.14786562 -0.31500846 -0.156864 0.42024222 -0.13573384 -0.12323266 -0.38732877 0.17203474 0.44537246 0.44889653 0.4423415 0.44465107 -0.1299814 -0.115549624 0.36566365 0.3558609 -0.34811816 0.29609913 -0.11633413 -0.33735657 0.45857158 -0.15384221 -0.1217927 -0.09084255 -0.13949876 0.43199283 0.44171056 -0.124163255 -0.2756921 -0.0689521 -0.37074155 -0.1768682 -0.1422613 -0.006699565 0.39097518 -0.25834262 -0.10098236 0.48305225 0.45215273 -0.15335935 -0.29476553 -0.086238354 -0.08163112 0.44158185 -0.10623646 -0.10068493 -0.16358963 -0.3550725 -0.08824243 -0.111457184 0.4044665 -0.30068028 0.41500866 0.42466462
hypokalemia -0.019108044 0.40543923 0.3838616 0.42311612 -0.08389676 -0.03459766 -0.17667757 -0.0344652 -0.036601476 0.005042396 -0.044504996 -0.018825173 -0.034640275 -0.10142021 0.08838495 -0.015750729 0.37434655 -0.01599123 -0.010873159 0.37509817 -0.089499496 0.40283442 -0.076602876 -0.19382629 -0.19072711 -0.07622014 -0.01693105 0.36408505 -0.09166467 0.14944585 -0.10770467 -0.04123988 0.41788492 -0.04245327 0.40520656 0.40644935 0.38407618 0.4225003 -0.09189517 -0.0090398975 -0.015290763 0.35747012 0.051933315 0.37589493 -0.12689173 0.41989967 -0.003944524 -0.015161908 0.3900746 -0.03739525 0.40839502 0.4180233 -0.09889558 -0.088023506 0.4402102 0.026194725 0.36621985 0.008942422 0.42867738 -0.07582181 -0.004155501 -0.040429205 0.30868605 0.32391936 0.39618808 -0.22688062 -0.020593487 -0.015200585 -0.054642398 -0.07249528 0.38368973 0.39238 -0.09136939 0.40824208 0.07742091 -0.081991926 -0.085838296 0.2852687 0.37323478 0.058181565 0.0024222415 0.41634813 0.40657282 0.39303052 -0.02745129 0.40617645 0.106932856 -0.02755107 0.38774785 0.1094664 0.41730803 0.37090528 -0.038633987 -0.030047782 0.03180168 0.056226924 -0.0013704905 0.06367144 0.3828591 0.009556824 0.24065468 0.3816891 0.353575 -0.018924981 0.21207887 0.13800608 -0.059255514 0.39696148 -0.019856011 0.36006027 0.38345253 0.41375706 -0.116410315 0.42098412 0.39694712 0.39661914 0.26401573 0.3532707 0.2622898 -0.006225624 0.34747037 -0.11519511 -0.0199977 0.03931204 0.39766338 0.02875356 0.02082529 0.06959356 0.13649166 -0.030963043 -0.017147932 -0.07873872 -0.06944799 -0.010523427 0.39679927 0.41249996 -0.032365352 -0.02314771 0.004452987 -0.07350783 -0.018075535 0.41211143 0.4099316 0.42185152 -0.057338692 -0.0015639962 0.37826282 0.34286278 -0.0001389198 0.38451758 -0.05716272 0.42811576 0.3980512 -0.005079983 0.047744993 -0.0003203326 -0.024637204 -0.058191877 -0.09448834 -0.022412663 -0.109246366 -0.014109727 0.41483554 0.37940243 -0.052763212 0.3938622 0.42960995 0.37017086 0.41394746 -0.019964421 -0.086107664 0.021098938 -0.083899826 0.116208434 -0.08508046 -0.026197577 0.42837384 0.3696682 -0.07236844 -0.14378569 -0.003445726 -0.18657273 0.41987243 -0.10047136 -0.071230195 -0.0028414058 0.41768107 0.4298628 0.4031957 0.017660381 0.43456164 0.4236641 -0.14584552 0.046627212 0.32617277 0.30665845 -0.07416997 -0.10854799 0.024636272 0.25779057
voltage -0.10442721 -0.14005741 -0.19570288 -0.048054874 -0.09214742 -0.106145844 -0.1696388 -0.2590554 0.26434052 0.47794977 -0.07577695 -0.21120149 -0.102167934 -0.1360808 -0.22035617 0.5120145 0.43197364 0.47057125 0.47403732 0.37304258 -0.10909528 0.5061906 -0.1956681 -0.0024746004 -0.11337515 -0.14729238 0.4922713 0.3228134 -0.11368446 0.46981633 -0.11158907 -0.09683972 0.45423836 -0.09816196 -0.29439467 -0.25843325 0.42007875 -0.2447918 -0.11444841 -0.15183955 0.44570628 -0.18797144 0.49523544 0.44533092 -0.106495865 0.41809168 0.48220137 0.49703935 -0.07322934 0.4822177 0.2240746 0.43794096 -0.2173612 -0.06908056 0.40530276 0.4873017 0.4012872 -0.11292666 -0.2626911 -0.11708893 -0.103803046 -0.15101387 -0.13148662 -0.16477993 -0.12801026 -0.005531948 0.44552457 0.47934258 -0.1472817 -0.11076694 -0.08223492 0.4389777 -0.1157927 -0.14394532 -0.057401076 -0.07032353 -0.11087624 -0.13170631 0.45301616 0.43448547 0.45620212 -0.10253446 -0.14867786 0.4416593 0.4908173 -0.031244177 0.48108596 -0.099762656 0.32777998 -0.059495058 0.4817166 0.31728208 -0.106214516 -0.15298863 -0.13135593 0.43185097 0.3706421 -0.16247055 0.25979248 -0.06574527 -0.23232509 0.4150039 0.44740874 0.47710803 0.47406933 0.44477835 0.49742103 -0.26470986 0.41809893 -0.26542726 0.45449138 0.41280288 -0.13889658 0.43871394 0.4260514 -0.16839665 -0.10727755 -0.11825044 -0.11344802 -0.08932121 0.28842813 -0.20180659 -0.031605117 -0.07736817 0.40496513 0.47090536 0.3732673 -0.13212927 -0.23132563 0.49463743 0.41828528 -0.08708255 -0.07071312 -0.060777295 0.45355392 -0.09126378 0.4980358 -0.014197503 0.44778755 -0.11134579 0.2761147 -0.026783863 0.46433702 -0.025069013 -0.11681708 -0.098706104 0.42293057 -0.108202055 -0.11401164 -0.0654309 -0.28450674 -0.058660984 -0.06243626 0.47207084 -0.12060227 0.48374286 0.477153 -0.07177641 0.2163501 0.452027 -0.10575914 0.4685847 0.3412424 -0.17912652 -0.0905194 -0.08112638 -0.28216434 0.34757572 -0.26933908 -0.26027346 -0.018964818 -0.029535886 -0.26093957 -0.28201538 -0.13266878 0.4201864 -0.11162517 -0.101440035 -0.13307448 -0.08283497 0.45598286 0.17784294 0.47575495 -0.08000335 -0.23399267 -0.18813285 0.38977468 0.47936752 0.4583488 -0.08325577 -0.23369946 0.4679529 -0.26067668 -0.20290715 -0.091995284 -0.014159448 -0.09376159 -0.25497267 -0.024519488 -0.07723328
disturbances 0.3996126 0.32781848 -0.18496352 0.37573135 0.42935944 0.33851758 0.30903056 0.37888715 0.36527526 -0.088248596 0.39462727 0.36802644 -0.14145568 0.39163002 -0.038974352 0.38288704 -0.16007358 -0.09200169 0.41132784 -0.1132673 -0.08652087 -0.28425378 0.4077036 -0.010616824 0.33019513 0.36606684 0.33411857 0.3339027 -0.09683862 -0.0970309 0.39146623 0.3762916 -0.06821115 0.3330292 -0.27261725 0.32820442 -0.2259026 0.40003037 -0.17279884 0.34066898 0.36549038 -0.121586494 0.37115812 -0.05119329 0.23651631 -0.071785435 0.37037805 0.34619695 -0.0655517 0.06274711 -0.10032344 -0.08376499 -0.10300973 -0.07400313 0.41050065 0.38081408 -0.09610543 -0.19592236 0.39465934 0.39629763 0.37642753 -0.14089473 -0.22717401 -0.033271004 -0.095166735 0.35985 -0.060457382 -0.13534448 -0.2905835 -0.12285192 -0.02675577 -0.087087795 0.4112561 -0.09597664 -0.029031597 0.33609596 0.39686993 0.3912983 0.40737775 -0.04381436 0.32047704 0.34816647 -0.012101747 0.39774325 0.37399736 -0.077208005 -0.063261196 -0.015717138 0.38426316 -0.07623908 0.33572212 0.39130226 0.34153023 0.12543103 0.32638535 -0.22611557 -0.040409803 0.39322084 0.35850167 0.10895024 -0.13976851 -0.08371906 -0.051153097 -0.13585614 -0.12526025 0.37555256 -0.03011059 0.39741376 0.41421354 0.15742679 -0.027691169 -0.07501077 0.38240594 -0.09393107 -0.06160839 0.09926573 -0.047301546 0.33372977 -0.07920464 0.38028502 -0.055267222 0.36424342 -0.03407335 -0.020569224 -0.06205235 -0.07912995 0.35232905 0.36277816 0.3544172 0.35727304 -0.083266824 0.41207296 0.36245182 0.3323577 -0.036063235 0.36940813 0.3322045 -0.08597455 0.3784167 0.24898177 0.093590975 -0.101954974 -0.13830025 -0.11960534 0.388964 -0.14906408 -0.10825758 0.36243063 -0.09562134 -0.08027711 0.34586787 -0.20898621 0.38665757 0.3893287 -0.083571665 -0.13639994 0.39194396 -0.23665653 -0.08922973 0.38618052 0.12932178 0.010710342 0.26234442 0.37065184 0.10320487 0.32868114 0.3310956 -0.035647053 0.13105316 0.37768182 -0.08216617 0.16975155 -0.11943515 0.37408704 0.24780233 -0.076460615 0.23026152 -0.10956836 0.29244202 -0.044506893 0.39106923 0.38821125 -0.09030712 0.15808956 -0.1233348 0.42240086 0.38174555 -0.055417232 -0.041175485 -0.1435286 -0.04870415 0.15269236 0.35472304 0.35619408 0.3792018 -0.20714644 0.40635127 0.35867295 -0.081310876 -0.03232495
flow 0.36507252 -0.11263194 -0.065108135 -0.0033538942 -0.10970396 -0.087710604 0.39419034 0.3634315 0.37104967 0.41222656 0.40492547 -0.12890616 0.39857623 0.4045556 0.054249283 0.3767503 0.29968446 0.81721544 0.33483532 -0.11215599 0.39486843 0.3995216 -0.12172638 0.4051451 0.35767907 -0.20641018 -0.18057233 -0.19191164 -0.11590959 0.42811692 -0.1795074 0.25722224 0.017816884 0.4186882 0.40612128 0.3935989 0.37628525 0.052115805 0.34452906 0.37570792 0.0030691305 0.4007105 -0.0119077135 -0.047577366 -0.1471041 -0.0147097055 0.39916253 -0.15855907 -0.07633133 -0.117373675 -0.07401619 -0.08242134 0.370657 -0.10033689 -0.19197457 0.36681822 0.40195414 0.3838209 0.37812555 -0.07581656 -0.0034118763 0.35199612 0.36881322 0.36360615 0.0026446008 -0.10628033 0.3882755 -0.12310103 0.4050887 -0.107688546 0.40825236 0.4066369 -0.11221067 0.16233994 0.4060306 -0.0037491573 -0.14309782 0.010691466 -0.1054941 0.030612506 0.41876793 0.4112705 0.40358835 -0.19423437 -0.14827971 0.40651172 0.42692104 -0.0055160006 -0.10532329 0.42854482 0.36545843 -0.15127641 0.35286558 0.32803985 0.0050819255 0.35831356 -0.06452055 -0.113530144 -0.12560597 0.011023043 -0.1215505 -0.09286671 0.031548757 -0.09290275 -0.093476325 -0.15542653 0.091744766 -0.10225363 -0.1379602 0.018224467 -0.101706296 -0.09573358 0.37573707 0.40336177 -0.10152608 -0.1317979 -0.11081509 -0.13201678 0.4193259 -0.023268398 0.108504444 -0.10954067 -0.08749142 0.4242351 0.09938868 0.38762826 0.014547779 0.38200593 -0.120558485 -0.11716187 -0.12924613 0.35282728 -0.0047316276 -0.07404646 0.10107872 -0.26674098 -0.11936924 -0.12570632 -0.14713 -0.079854354 -0.10588987 0.39046717 -0.1063675 0.035084255 -0.015053097 -0.09934533 0.42030475 0.0058943406 0.39261353 -0.009424081 0.33622292 0.26732585 -0.0010698186 -0.1486359 -0.104992405 0.39231992 -0.12392105 -0.12505414 -0.03267494 0.4068133 -0.045040444 -0.11422891 -0.024264827 -0.032008383 0.40110087 -0.10011555 0.038244717 -0.08982901 -0.10850603 0.33621806 0.2926151 0.013996771 -0.07737968 0.34802577 -0.0076694726 -0.11137723 0.0615152 0.28689682 0.43137097 0.4181924 -0.017526207 0.39175072 -0.068682574 -0.10817645 -0.11218606 0.07366186 -0.00609357 -0.028689954 -0.042526454 0.2727771 -0.015962053 -0.10211192 0.39108455 -0.04216857 -0.042097062 0.22786525 -0.11165631 0.37933448 0.41361514 0.42259887
atrioventricular 0.36710376 -0.075489335 -0.06422035 0.059775043 -0.10048353 -0.045128897 0.34908453 0.29618743 0.37370378 0.3785405 0.3805818 -0.08439505 0.35043925 0.37511802 0.11448556 0.3321929 0.2686411 0.65726453 0.31427723 -0.10430458 0.34315786 0.3604265 -0.09658301 0.37592494 0.2917216 -0.1691454 -0.12154345 -0.13200817 -0.07712718 0.39324436 -0.1333747 0.23894636 0.0067863436 0.3808273 0.3740653 0.3501529 0.3382961 0.103211224 0.31099558 0.32050222 0.06425588 0.38379604 0.038905915 -0.03422785 -0.12359861 0.08434701 0.36388174 -0.12845145 -0.050256547 -0.09082737 -0.035737835 -0.08475073 0.33194342 -0.05690098 -0.17190535 0.3447679 0.3563311 0.34385306 0.32151473 -0.047836296 0.056598566 0.284472 0.32649034 0.3056717 0.028368168 -0.04202182 0.36061254 -0.09568033 0.35344332 -0.100628704 0.37529993 0.3432736 -0.07643959 0.11110499 0.38303962 0.051230177 -0.120409615 0.053956255 -0.10158567 0.077348456 0.38463104 0.3894712 0.36449733 -0.16407922 -0.1297571 0.35815826 0.41319856 0.065379515 -0.08470806 0.38214028 0.30948785 -0.14475663 0.288557 0.25478336 0.062867835 0.30624667 -0.01936357 -0.10508209 -0.107385755 0.12389873 -0.09368192 -0.07402643 0.0061297053 -0.070211 -0.070478946 -0.12831469 0.14711794 -0.08016388 -0.101362385 0.013892944 -0.07747458 -0.062352877 0.3195027 0.35981783 -0.09599972 -0.11433375 -0.09171732 -0.12491025 0.3689716 0.034172658 0.1838863 -0.07403397 -0.10012654 0.3834884 0.12671448 0.34900913 0.084880404 0.3406953 -0.10125517 -0.09485639 -0.1147676 0.28402808 0.04514289 -0.045048647 0.0749807 -0.21072319 -0.070135735 -0.085938305 -0.15356505 -0.058656845 -0.11858069 0.33339575 -0.092571646 0.086745396 0.032369696 -0.09726941 0.38731202 0.06288912 0.3645028 0.01458203 0.28485316 0.23017761 0.036545888 -0.13496852 -0.073887445 0.32562417 -0.11369439 -0.091815196 0.009147878 0.37791336 -0.059650823 -0.084961765 0.028041145 -0.03333202 0.3630621 -0.064161204 0.1035753 -0.07927889 -0.109185025 0.3079396 0.25374022 0.09368808 -0.060680985 0.29535708 0.069633394 -0.08984104 0.1311306 0.27027836 0.39213 0.3917407 0.040319923 0.37359193 -0.059121042 -0.083885625 -0.11481379 0.155295 0.05291102 0.08937909 -0.029456537 0.23787326 0.021638982 -0.104131535 0.3424277 0.013036054 0.01532882 0.18582688 -0.08332253 0.33048552 0.3659557 0.3773603
muscle -0.02980956 0.4401765 0.4161418 0.44894165 -0.10737594 -0.030203888 -0.18711598 -0.038423695 -0.04070512 0.014566006 -0.054871287 -0.029472793 -0.04617842 -0.12784085 0.09928174 -0.0074174413 0.3965784 -0.010794499 -0.019089531 0.40500405 -0.0970417 0.43594313 -0.086694 -0.22230633 -0.19262981 -0.07951752 -0.0021580637 0.39500934 -0.10906063 0.1621205 -0.123749726 -0.044721395 0.42680997 -0.044807777 0.42370075 0.4210913 0.40868974 0.43130738 -0.100663275 -0.015905606 -0.0039103045 0.37350664 0.05990253 0.40321147 -0.15314871 0.44274992 0.0010558697 -0.007898923 0.40653804 -0.03598953 0.4222213 0.43720505 -0.09997353 -0.09193999 0.46123722 0.039598316 0.39126322 0.013954096 0.4488467 -0.080508344 -0.023136443 -0.04631192 0.31067777 0.34301037 0.40932825 -0.25296286 -0.017169025 -0.017571062 -0.066536196 -0.08201332 0.3914961 0.41694963 -0.10171663 0.4159106 0.08917723 -0.08326787 -0.090913445 0.29322976 0.40689492 0.06662003 -0.0005347654 0.44742072 0.4284755 0.41747683 -0.033164896 0.4251487 0.13113922 -0.035438105 0.40458944 0.11851168 0.43497446 0.40063047 -0.053515412 -0.03583667 0.031114955 0.0634449 -0.002242586 0.05363233 0.41314468 0.01306453 0.24819642 0.3989025 0.37516725 -0.0053846063 0.22764537 0.14803293 -0.06390283 0.415691 -0.016906293 0.3648594 0.40453616 0.43575177 -0.1211297 0.4467131 0.4155478 0.42343625 0.27073282 0.36835563 0.2694086 -0.011449755 0.3820479 -0.12913568 -0.020296786 0.039653413 0.41531038 0.03042276 0.031610075 0.0684237 0.11814773 -0.018340334 -0.008543978 -0.09972351 -0.08431037 -0.011048761 0.41475606 0.42962167 -0.030174134 -0.032788556 0.013547834 -0.08298056 -0.021894533 0.426977 0.43603197 0.44470093 -0.07302965 0.0012775155 0.39468554 0.35009807 0.007316637 0.40214357 -0.06987484 0.4607027 0.42352614 -0.0018678785 0.04454912 0.0004642699 -0.017406948 -0.06268849 -0.101702355 -0.0057747154 -0.13200893 -0.011870391 0.42629376 0.3993052 -0.06147245 0.41225085 0.4549811 0.38593477 0.42942637 -0.040623352 -0.09477339 0.020637715 -0.090113536 0.116317146 -0.089892656 -0.01953717 0.46004292 0.3846493 -0.07682659 -0.15069291 0.0049471054 -0.20457138 0.43714455 -0.10606536 -0.08214286 -0.017083555 0.4319099 0.44194204 0.43324363 0.0040537193 0.4718809 0.45002303 -0.16271661 0.033169303 0.35048458 0.330518 -0.0821051 -0.12399982 0.02179556 0.28089854
node -0.05314622 0.39029217 0.37807637 0.422192 0.3832699 0.41885614 0.25737008 0.37364155 0.38247722 -0.04560624 0.19003387 -0.15556635 0.39146233 0.33749905 0.3755608 0.3368702 0.29399252 0.42153114 -0.07603028 0.41790336 -0.06539859 -0.088602394 -0.06593222 0.031381004 0.37967739 -0.05526271 -0.059642777 0.015891038 0.34235257 0.39156726 0.08758743 -0.06782547 0.37349746 -0.060501724 -0.1494394 -0.017131424 -0.1622369 -0.027298804 0.33753204 -0.08042735 0.3418331 0.027117286 0.41436082 -0.008850483 0.39560708 -0.0010589282 -0.03387831 0.15551288 -0.060070608 0.39589375 0.42606398 0.115787156 0.38921311 0.35125384 -0.07851886 -0.088288404 0.37179634 0.33883223 -0.0020037289 0.35727566 0.41231826 0.00081097765 -0.11786328 -0.11483929 0.38893867 -0.01454196 0.015512317 0.16310772 0.3757724 0.39110819 0.41105065 0.40732008 0.0034923241 0.3846914 0.011455571 0.004029723 0.39536902 0.42392996 0.4057951 0.40689242 -0.015934704 -0.123264715 -0.047877513 -0.0018830094 0.34542856 -0.077254176 -0.055594645 -0.098815784 -0.06615526 0.040055007 -0.12869179 0.36925852 -0.08289148 0.38480952 0.32302594 0.38596457 0.36888206 0.36573625 -0.06386154 -0.07355334 0.3765473 0.37823078 -0.011587532 0.00603461 0.40104535 0.37378594 0.40086806 -0.0014774885 -0.08229211 0.36637396 0.3785048 0.01872538 0.21820413 -0.06804868 -0.027322756 0.36829302 0.39723706 0.39790675 -0.2489298 -0.04590231 -0.014124758 -0.08015512 -0.0268728 0.061241757 0.02482096 -0.102934994 -0.011900399 -0.08965258 0.38681078 -0.007827082 0.09196809 0.33970073 0.39570636 -0.06961666 -0.04457297 -0.18507633 -0.004457555 -0.047667976 0.10473773 0.4046697 0.31003845 -0.09870061 0.34957173 0.3798581 0.375096 -0.12646969 0.1385957 0.22567886 -0.013449598 -0.100840345 0.023792256 -0.05387099 0.013388043 0.35476536 0.40793675 -0.08885749 0.3776353 0.15242721 0.37388495 -0.028409373 0.3347853 0.4071464 -0.013702948 0.39321977 -0.09722787 -0.06775792 -0.025736138 0.047885075 0.38058794 0.31640175 0.061761606 -0.0030463883 0.38754553 -0.06770498 -0.04526494 0.40617839 -0.070872165 0.18063205 0.4193115 0.036267698 -0.032773808 0.038284283 -0.012190038 -0.0038984143 0.36967045 0.41335854 0.01263186 -0.017884908 -0.084134385 -0.12059355 0.4258032 0.38948277 0.3671744 0.41768336 -0.019632371 -0.08293472 -0.050044127 -0.05611613 0.02247066 -0.13131583
system 0.0217591 -0.018493304 0.36062595 0.020015877 -0.08879357 0.36186823 -0.07433466 -0.07069818 -0.014540172 0.3576074 0.025681514 0.40547588 -0.13467818 -0.054267686 0.36681607 -0.07244753 -0.040630676 0.18331738 0.023688812 -0.12248874 0.3788876 0.3627779 0.36665955 0.39249703 0.3626481 0.373566 0.32274076 0.36616397 0.3544052 -0.0061281007 -0.03475682 0.34630227 -0.07518192 0.38532048 0.020205706 -0.056116786 0.34277278 0.063448064 0.3574122 0.36067256 0.01271753 -0.09170612 0.025827441 0.009079447 0.34578964 -0.0070914603 0.005640694 0.35707355 -0.050639257 0.36082017 -0.021548962 -0.00576971 -0.12645924 0.3625428 0.03471478 -0.027302643 -0.06593459 -0.022716844 0.25251192 -0.0012361817 0.018993866 0.1542089 0.38085338 -0.08498852 0.35561088 0.39549264 0.007428579 0.3766265 -0.029145634 0.33973765 -0.11012657 -0.10692858 0.34846032 -0.1141596 0.06685978 0.23206016 -0.09153345 0.0034298282 -0.076026544 0.018737067 -0.041362792 0.37214863 0.3423825 -0.0017459271 0.32846177 0.00071577705 0.38654277 0.3826844 -0.03049979 0.3755277 0.3532131 -0.070692584 -0.11200342 0.32094276 0.39285892 0.37872213 -0.07204959 0.33881336 0.371802 0.37985367 0.35563427 0.363655 -0.05103323 0.36740494 0.38637978 -0.08847414 0.36318368 0.036603518 -0.040245082 -0.13221294 -0.0041962736 -0.009206292 -0.0043652905 -0.040327758 -0.06635562 -0.097735606 -0.056895107 -0.067786805 -0.081369445 0.39645374 0.3589601 0.27679548 -0.109571524 0.025788955 -0.09054058 0.18386075 0.1384528 -0.0038947212 -0.25005955 -0.0028372798 -0.07279901 0.023295887 -0.012609222 0.3792866 -0.09952369 0.38048187 0.33407423 -0.1122025 0.024145026 0.3465809 -0.13565794 0.34360826 0.09395063 0.06301757 0.34552872 0.21852235 -0.01937873 0.36256495 -0.0040374994 0.33402544 -0.058798328 0.36293358 -0.0017631026 -0.014464762 -0.10859607 -0.0013351049 -0.09654205 0.3714028 0.37993065 0.03237787 0.38873798 -0.08142505 0.3793893 -0.09066484 -0.08537027 0.35937458 -0.016074616 0.33038148 0.3721006 0.009785117 -0.087162904 0.37544826 0.36234885 0.37439474 -0.034075882 -0.10721347 0.36894038 0.0034610694 -0.0854076 0.33779874 0.38647062 0.14626268 -0.052071694 -0.052199014 -0.10547152 0.019592874 0.018667175 0.37789923 0.3688076 0.3632957 0.36453655 -0.092228346 -0.0029677274 0.33431455 0.033803746 0.2670563 0.36979145 0.35817957 0.025432162 -0.101127766
