ecg 0.20073114 -0.056876186 0.024611961 -0.039654266 0.1745916 -0.056396183 0.15608896 -0.06679125 0.19252971 -0.098221354 0.19615585 -0.0847777 0.20325138 -0.026685623 0.117939316 -0.06749781 0.20071298 0.19128951 -0.01721455 0.1755087 0.004293973 -0.043265007 -0.05897402 -0.054854028 -0.024045434 0.031965595 0.18698162 0.20112982 -0.06967944 -0.0698634 -0.053854126 -0.027568243 -0.034963183 -0.053719882 -0.0030214114 -0.12054016 -0.039629135 0.062292267 -0.039291695 0.0018999502 -0.055183504 0.08157052 -0.015760873 -0.020789886 0.016701376 0.18402705 0.20439506 0.1890087 0.17518792 -0.012993593 -0.07978047 0.15243559 -0.06833778 -0.09290496 -0.075283535 0.18558311 -0.047708325 -0.055632234 -0.06926747 -0.0683093 -0.06608317 -0.073704444 -0.048489187 0.011946051 0.16426598 0.15148732 -0.07078423 0.16799435 -0.017556135 -0.07528848 0.012522779 -0.063298084 -0.006725222 0.20458902 0.14469592 -0.14368425 0.20176622 0.0754921 0.14884679 -0.06981343 0.21101527 0.21462993 -0.06847438 -0.005027812 0.16146435 -0.00991784 0.18631642 0.17454484 -0.06958288 -0.06901015 0.15931056 0.20732673 0.19376975 0.18495506 0.18570027 0.2103894 0.056828693 0.18166345 -0.035389945 0.1905775 0.182539 0.1458659 -0.093274936 0.1195388 -0.012135255 -0.024573227 0.0027386951 -0.05881341 -0.017089209 0.057587635 -0.056898933 -0.0203258 0.1654318 -0.06722025 0.031788453 0.18310946 0.17902787 0.0070819315 0.017457146 -0.023231942 -0.0036199682 0.16585764 0.21492665 -0.066019125 0.023414647 -0.055370197 -0.02065418 0.20333736 0.18089344 -0.037767854 0.17215452 0.19677792 -0.06481081 0.16434579 0.20956554 -0.029380191 -0.06773328 -0.07333509 -0.07292777 -0.06775786 0.20842269 -0.050071377 -0.103426054 0.17778993 0.18244076 0.17052127 0.18073097 0.019930393 -0.06678007 -0.06598872 0.022048518 -0.042716324 -0.016683366 0.18541116 -0.07195451 0.022097528 -0.023411376 0.23647247 -0.029155228 -0.019492447 0.16125904 0.18171972 -0.058126513 -0.006343749 0.17504697 -0.032004833 -0.02821116 -0.06873668 -0.07118106 -0.040203825 0.160713 0.19633342 -0.058725644 -0.04199222 0.16145484 -0.07445423 -0.08682259 0.19352041 0.17039332 0.17840521 -0.06122384 0.18769513 -0.028808914 0.18558493 0.17245622 -0.06383414 0.20075797 0.15960832 0.19847101 0.20072834 0.19732147 0.0010922868 -0.06378306 -0.049361814 -0.019722309 0.015126803 0.18988469 -0.03201711 -0.064193435 0.19831033
heart -0.07279377 -0.07236291 -0.026541088 0.22133206 -0.04602945 -0.057407137 0.21434852 -0.08472341 -0.028606873 0.21653257 -0.042501435 0.2224064 0.18804371 -0.07679181 -0.03914017 0.22908841 -0.020066228 -0.08841071 -0.05490964 0.22452888 -0.07588633 -0.060065344 -0.028633326 -0.0670857 0.19809476 -0.0033151084 -0.08263494 -0.11473334 0.14150786 -0.015350917 0.16476671 0.21072793 0.22374183 -0.07705848 -0.07399069 -0.07100187 -0.05134332 -0.026605155 0.18320738 -0.0223191 -0.14922419 -0.06122192 -0.0630848 -0.07393758 0.22925112 -0.077403195 -0.0071380427 -0.096847005 -0.06721357 -0.08656441 -0.08986473 -0.07588372 0.23418881 0.19709344 -0.042830393 -0.07634363 -0.0054368647 -0.08125629 -0.07980785 0.1837043 0.16593267 0.23010188 -0.06789271 0.21537992 -0.043289863 -0.06741921 0.22253777 -0.011819838 -0.013689972 0.19166592 0.0011847923 0.21223988 -0.051231097 0.19830973 0.204456 0.18562627 -0.06509063 -0.035647277 0.22424805 0.18784301 -0.15933682 0.22245885 -0.0053207 -0.11263097 -0.06102939 -0.051356126 -0.04887963 -0.0019623465 0.2606559 -0.045348603 0.03133713 -0.076409064 0.16297308 0.22501007 -0.08487064 -0.078173935 0.21953899 -0.07163299 -0.06482305 -0.07698345 0.17524396 -0.097117834 -0.0925418 -0.021221826 -0.08394652 -0.010081538 0.23336904 -0.06297463 0.1489371 -0.056015424 -0.06881316 -0.026168143 0.2064794 0.21846893 -0.073740095 0.19074681 0.22569905 0.06028915 -0.05598499 -0.06891362 -0.04869912 -0.08891054 -0.09152259 0.15736173 0.2024655 -0.007430412 0.12266981 -0.010720325 -0.028511751 0.017600121 -0.045480635 0.21106899 -0.06479219 0.22559789 0.21594363 -0.071574874 0.2084497 0.21802926 -0.05105677 -0.0654085 -0.06306499 -0.08555172 -0.06553275 0.012500954 -0.014288191 -0.036830373 0.20215866 -0.08972885 0.21181391 0.2063187 -0.074556574 -0.06323487 -0.08296728 -0.06168497 -0.026977142 -0.03904129 -0.038925253 -0.04307331 0.17605865 0.19995788 0.11994391 -0.086631045 -0.07092132 0.003066185 0.20802855 -0.021175047 -0.0792871 0.005604088 0.19756767 -0.088726565 -0.05263867 -0.06614518 -0.04309719 -0.039296392 -0.039405815 0.16879192 0.21368547 -0.023986476 0.036981314 -0.03617108 -0.026393224 0.22250044 -0.050931305 -0.047985848 -0.07974437 -0.07560641 0.22685209 -0.09807484 -0.083459064 -0.033896428 -0.021237444 -0.01640091 0.24746121 -0.07690267 0.034678776 0.0919123 0.19442196 -0.06845153 0.22994326 -0.0023660697
, -0.07307577 -0.07046519 -0.029311705 0.21111938 -0.04578503 -0.053677145 0.2063884 -0.08002788 -0.026437286 0.20631213 -0.044825517 0.22148903 0.18779922 -0.07909773 -0.032088403 0.23149244 -0.024503866 -0.084664755 -0.062388897 0.21533619 -0.071465544 -0.06787631 -0.02507142 -0.062409684 0.20442441 -0.015144302 -0.07905418 -0.11837049 0.14619572 -0.02161641 0.1576985 0.21422449 0.22808498 -0.073809996 -0.071816355 -0.07140738 -0.05268764 -0.028765853 0.18216036 -0.02744896 -0.14800741 -0.059107423 -0.0700956 -0.07257065 0.22595942 -0.076320626 -0.0085737435 -0.0982699 -0.077719614 -0.08451064 -0.08993064 -0.07282063 0.23304163 0.19515993 -0.037878595 -0.084911 -0.0036248863 -0.07983468 -0.07827534 0.18702996 0.1639904 0.23110932 -0.073939756 0.21172515 -0.040009085 -0.07863162 0.21698293 -0.02115434 -0.021381225 0.19002536 0.0023152921 0.20520377 -0.05874752 0.1927813 0.21309367 0.17871493 -0.059003823 -0.035409905 0.22231601 0.18609235 -0.16698778 0.21578728 -0.006563347 -0.10630153 -0.061103515 -0.055423785 -0.046506032 -0.012179136 0.2585977 -0.04562057 0.03386377 -0.0697026 0.16704077 0.21498789 -0.09408292 -0.077518195 0.20811914 -0.075564265 -0.061339926 -0.068260856 0.17613411 -0.10023489 -0.100753844 -0.012877545 -0.07772881 -0.0046976926 0.23135358 -0.059832484 0.15505713 -0.05319175 -0.076610625 -0.016212776 0.20161085 0.22207302 -0.06796354 0.18801957 0.2268049 0.060796816 -0.055790365 -0.06317714 -0.040742844 -0.09503046 -0.093116656 0.1558543 0.20283605 -0.0104762195 0.1269522 -0.0024694158 -0.023084242 0.01801272 -0.038767595 0.21339089 -0.06646337 0.22633156 0.21042213 -0.07271694 0.21346147 0.21339537 -0.04900464 -0.056532573 -0.06424427 -0.0828545 -0.06364133 0.012768802 -0.015763242 -0.04089769 0.20460111 -0.082559854 0.206695 0.21154942 -0.07507667 -0.06861636 -0.08543119 -0.06714481 -0.028630741 -0.043580875 -0.047094356 -0.03400318 0.1800936 0.20379394 0.11413891 -0.0875542 -0.071173154 -0.0011461983 0.2136884 -0.02899459 -0.08065155 0.0072159157 0.20110142 -0.081401765 -0.052067164 -0.06519018 -0.04664229 -0.037246905 -0.037178908 0.16198501 0.22110686 -0.022756958 0.038814884 -0.04220037 -0.027569018 0.22479987 -0.04800854 -0.05583637 -0.07757769 -0.07948997 0.22396463 -0.09866963 -0.07866042 -0.040831286 -0.01787141 -0.025425877 0.24212699 -0.08187889 0.039431285 0.08834441 0.19757938 -0.07395417 0.23021565 -0.0072696805
\) 0.2388846 -0.07937387 0.22863615 -0.024365908 -0.048817784 -0.08067495 0.24954647 -0.01098189 0.2042828 0.21445464 0.2123246 -0.07425639 -0.094389156 0.20302087 -0.0377167 -0.0712458 -0.07929238 -0.07559019 -0.07789745 -0.04897333 -0.050407667 0.23458637 -0.07847305 -0.08155232 0.010489974 0.21857755 0.17937618 -0.08640891 0.21794078 -0.0760949 -0.09349892 0.22018716 0.22214787 -0.015527995 -0.08844311 0.25466317 -0.11154753 -0.054160103 -0.03392447 -0.026350388 0.23799811 -0.08459004 -0.0150924465 0.22093627 -0.0115812365 -0.08878132 0.20594725 0.21966378 -0.06573287 0.24737124 -0.023762558 0.12523061 0.22879401 0.21811037 0.21154332 -0.11139879 0.19537786 0.22675836 0.2294419 -0.021191653 -0.08028339 0.23265326 -0.07035532 -0.048971664 -0.14073879 -6.466382e-05 0.20146546 0.22070378 0.22328071 0.22978564 -0.018562336 -0.063549936 0.22122577 -0.067060135 0.23654607 -0.0881336 0.22094929 0.21341565 -0.07760192 0.22635831 -0.057379793 0.013587069 -0.08964736 0.23236626 -0.08115506 -0.06915572 -0.11849689 -0.09083187 0.21402743 -0.08902037 -0.091309965 -0.016196622 -0.08701051 0.23408855 -0.08746979 -0.03767734 -0.060753647 0.22724645 0.23855004 -0.061676525 -0.101748675 -0.055696644 0.23133811 0.20177075 -0.03745801 0.15416487 -0.014049234 0.22807434 -0.012220823 0.088803455 -0.08427316 0.19779518 -0.062939405 0.048171513 0.19709624 0.18242775 -0.018592795 -0.010432581 0.2012293 -0.027686983 0.071106926 -0.077184215 0.22263801 -0.06969837 -0.01558161 -0.02709267 0.2548517 -0.0076273987 -0.032570876 0.10108235 -0.07365017 0.11309914 -0.04089529 -0.07928065 -0.12181442 0.18815082 -0.03376725 -0.009747279 0.20951667 0.21766402 -0.06133742 0.23707105 -0.07055285 0.22170386 -0.034783773 -0.058764108 0.24935798 -0.04119028 0.19859125 0.2117515 0.23723802 0.14545558 -0.029419743 0.15045665 0.2339886 0.14925498 -0.08071477 -0.08015432 -0.062584616 0.12006357 -0.078840144 0.24688672 -0.040860593 -0.015903566 -0.094587736 -0.0024449248 -0.05024315 -0.010094136 0.22345178 -0.08478403 0.0146697145 0.010307888 -0.0802419 -0.070089616 -0.07190647 0.009543945 -0.08982367 0.15646939 0.20919898 0.18986094 -0.09566701 0.21252644 -0.08176841 -0.16602482 -0.05183576 -0.09496162 0.00014914246 -0.04576515 -0.16613102 0.2455594 -0.067323364 0.23208722 -0.10042642 0.22414339 -0.08022905 0.22943726 0.13179433 0.10985978 0.18444751 -0.0897949
\( 0.22172111 -0.053468592 0.11271967 -0.06816207 0.10638879 -0.06582297 0.22190756 -0.0850209 0.11212146 -0.09789558 0.06637158 -0.10106289 0.19348468 0.00735664 0.14579768 -0.08859863 0.10862926 0.097459495 -0.052489243 0.07763676 0.09991831 0.0386813 -0.08080217 -0.059490096 0.07115332 0.11419741 0.122411646 0.10293372 -0.12536182 -0.08094298 -0.058712285 0.015326295 -0.051599957 -0.05727727 -0.016968437 -0.15093166 -0.04447016 0.11726322 -0.081366 0.06972549 -0.05213426 0.018436246 -0.059055217 -0.02574795 0.10420371 0.050387494 0.24290273 0.095230095 0.08875202 0.08132733 -0.09659315 0.19123611 -0.02319123 -0.092806734 -0.12349347 0.19411618 -0.06743005 -0.054430988 -0.101908706 -0.05854616 -0.002356864 -0.11787407 -0.066251546 0.11371562 0.09175467 0.21604288 -0.08273606 0.18070613 0.07294493 -0.11356481 -0.008232007 -0.07588133 0.08377606 0.24400175 0.06796327 -0.13446489 0.076749906 0.09020057 0.07745549 -0.069544256 0.24000643 0.2463149 -0.08185773 -0.023747647 0.06483544 -0.031546425 0.20122442 0.094375275 -0.06765479 -0.0666503 0.09199457 0.21877985 0.10954032 0.069549985 0.12590721 0.23943967 0.11164584 0.121011265 0.06891885 0.22032134 0.09422118 0.097397126 -0.08884547 0.07046131 0.08932144 -0.0012124984 0.112664394 -0.11235662 -0.029560419 0.044281043 -0.09057711 -0.014004197 0.07966695 -0.09405042 0.11414175 0.08792197 0.2129642 0.10550016 0.114731506 0.092979856 0.06655004 0.14311598 0.26147407 -0.08257866 0.10641923 0.035241716 -0.058035042 0.23357205 0.21513136 0.037483554 0.08767622 0.22796495 -0.0449227 0.08425133 0.12581542 0.087703824 -0.072168946 -0.062127527 -0.069463424 -0.056324102 0.24196519 0.031580575 -0.108850405 0.08938654 0.06851799 0.10840426 0.22449686 0.09123524 -0.073310256 -0.06581606 0.09079717 0.04893317 0.06975431 0.22956325 -0.05559463 0.10231192 -0.031005235 0.10881074 0.05755049 -0.024029458 0.07359547 0.20116864 -0.085980356 -0.023214597 0.09795178 -0.016588239 0.07882736 -0.07865705 -0.08478906 -0.065334775 0.2082716 0.22768681 -0.009634498 -0.05954541 0.19734076 -0.101211496 -0.08491095 0.21127474 0.19337863 0.21796328 -0.052540485 0.23542699 -0.0655879 0.18560144 0.23207834 -0.049263045 0.25618666 0.21091513 0.12879653 0.22833398 0.2374278 0.11385916 -0.06776448 0.034360748 0.0011899957 0.10590518 0.10456212 0.058640886 -0.07513665 0.07291756
monitoring 0.0689865 0.15770513 -0.016355988 -0.06416338 0.17673603 0.21865065 0.009766515 -0.06296009 0.011101864 0.17846565 0.1707125 0.012766811 0.19407944 0.0861392 0.026578708 -0.043492656 0.002950262 0.18830389 -0.045431178 0.07251403 -0.031848907 -0.076638475 0.15212591 0.1506675 -0.06552398 -0.074067056 0.1726088 0.13350686 0.1860246 -0.00686033 -0.067837015 0.04877983 0.2011437 0.17411165 -0.00057476084 0.19193153 0.20523106 0.16039854 0.031948835 0.091625184 0.16846062 -0.017960493 0.2142618 -0.028371736 -0.10105701 0.2078536 0.072831154 0.11966234 -0.03150099 0.18762892 0.18310437 0.20727763 -0.00022870442 0.03621147 -0.004201561 -0.10002149 -0.0013041669 0.067544624 0.23295204 -0.055751838 0.23064665 -0.018831244 0.20270467 0.21706623 0.1843022 -0.006748837 0.2035544 -0.12328365 0.017371647 0.21969873 0.20058447 -0.036565922 0.17834738 0.17975688 -0.055154294 -0.004999436 0.20531541 -0.017172102 0.0027825537 0.01931342 0.18252064 -0.072984524 0.20562735 0.19928277 0.20365986 0.17005101 -0.051469766 0.21400337 0.025827575 -0.09950629 -0.051264808 -0.001093062 0.18796304 0.17967708 -0.010930164 0.21647444 -0.00560189 0.2080439 -0.025891405 -0.02842737 0.0016820286 0.21261097 0.22390169 -0.056940336 0.1889793 0.01264271 -0.07170322 0.21010076 -0.051451754 0.20641753 -0.025534676 -0.030835088 -0.054237537 -0.009793938 -0.083258025 0.19856454 -0.0786825 0.20827015 -0.054044712 0.20325954 0.20696974 -0.06203871 -0.09671115 0.09839214 -0.07737695 0.021650832 -0.006634402 -0.054042175 -0.010031313 -0.03304469 0.0011347316 -0.071992636 -0.027398376 0.08184351 0.18807521 0.20884092 0.20287329 -0.0050534224 -0.016340451 -0.026700258 0.20259707 0.1853817 0.097564675 0.12218494 0.20571744 0.23317187 0.18714923 0.17792553 0.0021548772 -0.005183963 -0.071901344 0.2047696 0.20629981 0.21050206 -0.065551266 0.02054539 0.20205931 0.1802851 -0.051435564 0.21121418 0.18083793 -0.025601426 0.23538873 0.18608095 -0.030831872 -0.03055963 -0.060180865 0.14591888 0.20645665 0.12951566 -0.05369182 0.21221635 -0.02009783 -0.042291675 0.08974784 0.2078507 0.019295154 -0.065302186 -0.059075847 -0.067494795 -0.0013107889 0.20763655 0.1602909 -0.038886826 -0.02508973 0.04873642 -0.035286337 -0.07135073 0.14499114 -0.05865697 -0.0437247 0.002544106 0.009356227 -0.013683571 0.22885649 -0.04765948 -0.033144116 0.12735009 0.02662249 0.027695393