hypertrophic -0.021253463 -0.015544035 -0.022168312 -0.12934846 -0.016466517 0.3982834 -0.13403869 -0.014140836 0.3880642 -0.120466106 -0.016664697 -0.007724541 -0.021637283 -0.007888526 -0.010209099 -0.015637808 0.3150812 -0.1497145 0.4310682 -0.01534674 0.36365426 0.39785498 -0.0026393589 -0.0131750135 0.36107838 -0.0046078903 -0.011982551 -0.019850627 -0.12282103 -0.01701501 -0.118304074 -0.11011853 0.40865284 -0.008182559 -0.019246345 -0.1032823 0.38146275 -0.025524478 -0.14671226 0.44992557 -0.03231165 -0.10860386 -0.1072842 0.39269724 -0.008326012 -0.10197753 -0.019320743 -0.11412247 -0.108229786 0.38936907 -0.13891324 -0.13006975 -0.016932214 -0.11786302 -0.013048568 0.38330248 0.39280033 -0.021882076 -0.0076147867 -0.022636207 -0.0039584413 0.4004638 0.38296577 0.37107652 -0.12301366 -0.11458619 0.39200482 -0.0085234875 0.38815495 -0.006733763 -0.11832642 -0.10809736 -0.16141133 0.38495606 0.361155 0.41053873 -0.0057039508 -0.02316609 -0.0127284 0.3961331 0.43124703 -0.031394288 0.4317037 -0.10767592 0.3485072 0.38060746 -0.12596254 0.35057068 0.32877904 0.3323179 -0.03823838 -0.11827804 -0.014727119 -0.014986431 -0.054562937 -0.123187184 0.38248387 -0.011552256 -0.028664727 -0.0137698315 -0.036675524 -0.007516235 0.38377932 -0.13790864 0.3752629 0.41452074 0.4086645 0.3885162 -0.113402724 -0.1020681 -0.048393194 -0.10869503 0.34035334 -0.010122256 -0.0045122067 -0.016225277 -0.010584726 -0.01703441 0.37212205 -0.11021719 -0.12343849 0.2849709 0.38847414 -0.011018715 -0.14382757 0.37514755 0.3819349 0.41128308 -0.11319228 -0.108222805 0.35863933 -0.01410235 -0.11294119 -0.1275893 0.389965 0.38777268 -0.1192877 -0.0092387255 -0.008340069 -0.023985744 0.40714702 0.39979696 0.38092017 -0.11281648 0.39321476 -0.119003996 0.402048 -0.1269021 -0.026344014 -0.10296206 -0.10620831 0.41794664 -0.14116979 0.37826645 -0.106500134 -0.11173321 -0.11479813 -0.107471995 0.37436426 -0.11923833 -0.15527394 -0.106958695 -0.049575098 -0.13934478 0.43161848 -0.008563577 0.3760651 -0.014657199 -0.12740847 0.36969358 0.37281367 -0.0460672 -0.11142564 -0.12993869 -0.015853103 -0.014985296 0.37511986 -0.05191644 0.40548313 -0.11903201 -0.008270945 -0.013496575 -0.011987078 -0.11814864 0.34927967 0.22184034 0.40181938 -0.13891816 -0.023677763 0.40728655 -0.11394186 -0.014409152 -0.11788404 0.38875842 -0.028084215 -0.02854035 0.3886385 -0.110960945 -0.104572564 -0.118948966
sports -0.021850713 -0.00907263 -0.025537226 -0.13172053 -0.016234491 0.39417717 -0.13323393 -0.009632383 0.38978982 -0.12129879 -0.011201295 -0.0103200935 -0.019506361 -0.009613361 -0.01111674 -0.01204005 0.32012653 -0.14713594 0.4298636 -0.012101583 0.36594686 0.39612713 -0.0019171033 -0.008185818 0.3657416 -0.0072255083 -0.010647899 -0.018480532 -0.12523961 -0.017204855 -0.11633544 -0.1151345 0.41552287 -0.007935703 -0.024549847 -0.104156494 0.3801438 -0.023952764 -0.14374663 0.44583985 -0.027253844 -0.111093394 -0.11131044 0.3937708 -0.010993822 -0.103125684 -0.019444074 -0.11357 -0.10809823 0.38304776 -0.14436232 -0.13090365 -0.020329716 -0.12284579 -0.014859426 0.3813295 0.3909564 -0.018735826 -0.013368341 -0.017179739 -0.003885327 0.3995772 0.38108587 0.37147772 -0.11859575 -0.112158746 0.393155 -0.014316365 0.3939847 -0.0074628526 -0.11390234 -0.10556731 -0.16357331 0.3785283 0.35665777 0.4076925 -0.01190041 -0.026747063 -0.0144264465 0.39772028 0.42706957 -0.02835962 0.43575463 -0.103421986 0.3470392 0.38134348 -0.119388774 0.34797695 0.32802784 0.32535982 -0.041333463 -0.11697972 -0.0119353905 -0.012160856 -0.053823527 -0.1235451 0.38249198 -0.0069554495 -0.027284836 -0.014966369 -0.03398602 -0.01204072 0.38585272 -0.13666834 0.37295082 0.4113432 0.41341394 0.39365846 -0.11425105 -0.10420576 -0.045867495 -0.10774782 0.3415301 -0.0061733755 -0.0041229697 -0.016992413 -0.012338809 -0.018515443 0.37195694 -0.11684241 -0.122669056 0.2897077 0.38372058 -0.015857954 -0.14499262 0.37751538 0.38003483 0.41115963 -0.10751866 -0.10731829 0.3617095 -0.015575568 -0.10826211 -0.12673901 0.39446437 0.39063478 -0.112297304 -0.0066897534 -0.016201254 -0.02233044 0.40604773 0.407057 0.38110858 -0.11540042 0.39774555 -0.116654426 0.40163496 -0.11966378 -0.026661875 -0.10684067 -0.110212736 0.4121331 -0.14175238 0.38213834 -0.10913752 -0.11067716 -0.11993697 -0.10594433 0.37807965 -0.12389667 -0.15365876 -0.10288764 -0.050007295 -0.13730761 0.4285116 -0.0035053978 0.3731104 -0.02007733 -0.13442552 0.37338126 0.37635848 -0.04584437 -0.1177793 -0.13001972 -0.013327163 -0.012100114 0.37681425 -0.058670424 0.39928785 -0.11983742 -0.0117962845 -0.0064612646 -0.008269167 -0.118230835 0.3479226 0.22571202 0.4022097 -0.13890836 -0.022246752 0.4043211 -0.11490153 -0.016787307 -0.1160844 0.39029592 -0.027739178 -0.030837469 0.39280748 -0.10845362 -0.10971033 -0.12118077
invasive -0.0031120798 -0.01843659 -0.066240296 0.4432326 0.08986421 -0.12272615 0.4631731 -0.12302165 -0.084293686 -0.03907181 0.4411792 0.35986015 0.3971395 0.0053971396 0.4132318 0.3095783 -0.13808416 -0.021319967 -0.068301335 -0.09505679 0.07603708 -0.008784261 -0.10378538 -0.046676643 -0.2566878 0.41482723 -0.04602678 0.24066673 0.34890643 -0.018014489 0.43431467 0.03873406 0.078886144 -0.037798986 0.40985578 -0.10820553 -0.064888984 -0.07615199 -0.0330107 -0.07804419 -0.1020082 0.050749525 0.1470323 -0.21989985 0.23077673 0.3873584 0.04610802 0.4419697 0.40177482 0.4345141 0.4066964 -0.005255677 0.060661547 0.40063745 -0.021393668 -0.08142822 -0.0126429675 0.39826417 0.15281543 0.0003211646 -0.0132168615 -0.12747763 0.43580693 0.42336932 -0.010802962 -0.117715724 -0.3509736 -0.10966569 0.15403773 0.42896587 0.42484236 -0.07807812 -0.09488888 -0.0013965198 -0.13253489 0.012373826 0.21048547 0.38438687 0.42343268 -0.030921169 -0.2674219 0.4638903 0.39398322 0.4113318 -0.23191874 -0.14829709 -0.09631956 -0.123587385 0.41718885 0.40461951 0.44942802 0.37675548 -0.077682346 -0.13356362 0.39651325 0.40441602 -0.020540949 0.39842638 -0.035300218 -0.025024766 -0.0015362599 -0.0006780415 -0.09970423 0.30369806 -0.02278211 -0.031588875 -0.07283792 -0.0738541 0.42753023 0.45496818 0.42695928 -0.2513084 -0.1161711 0.40780985 -0.0056242095 0.42111728 -0.024969216 0.31482124 -0.040390912 0.4104543 0.41833034 0.40630418 -0.013811953 0.13775817 -0.005020682 -0.009661333 -0.003920217 -0.13688603 0.43594822 -0.10353638 -0.13367859 -0.029421775 -0.069891594 0.4096799 -0.04141363 -0.017652422 -0.00090371864 -0.0052606664 -0.039024334 0.050563782 -0.12795553 0.4335402 -0.21431285 -0.077196725 0.4305092 0.36906454 0.0054606856 -0.00014149118 -0.09831131 -0.029249445 0.38741454 -0.0063641104 0.47380412 0.43609297 0.005050524 0.046615772 0.093396135 -0.09066203 -0.11397334 -0.013642179 0.21212739 -0.04093654 -0.07866601 -0.11561905 0.37327212 -0.08016899 -0.089326926 0.10993956 -0.05783587 -0.18871014 -0.09918988 -0.044926763 0.45794222 0.007727073 -0.16620132 -0.14139828 -0.3000409 -0.052473374 -0.14480367 -0.018169828 0.48321638 0.43019497 -0.033391565 0.18118551 0.42738727 0.4716469 0.21648556 0.14492223 0.13679461 0.36593625 -0.0007794746 -0.063445896 -0.0015272582 -0.23488346 -0.06743562 -0.019123627 -0.124097645 -0.02407546 -0.10532503 0.26584417
however -0.10976423 -0.024642175 0.38014048 -0.10037524 -0.025678884 0.38265875 0.11055502 -0.12145171 0.39860296 -0.03874149 -0.09311248 -0.27098426 -0.1156243 -0.14010614 -0.047176253 -0.38902414 0.43255782 0.3523908 0.36730078 0.41382268 0.39756134 -0.026458401 0.40688238 -0.02190672 0.37256154 -0.24337983 -0.022077689 -0.12138209 -0.11407148 -0.013028447 -0.08636057 -0.025268914 -0.056273416 0.29526103 0.36825678 0.42600313 -0.110558175 -0.0007708068 -0.075849004 -0.0830636 0.39548507 -0.060970534 0.379187 -0.08253001 -0.040679682 0.24104467 -0.042743076 0.035484806 0.35474402 -0.007945048 -0.11208133 0.3684725 -0.03563554 0.2758585 -0.0028235782 0.35719115 -0.008934592 -0.063907504 -0.04995296 -0.17047825 -0.053381126 -0.1171636 -0.0997218 0.038043573 -0.03828711 -0.10656202 0.4247689 -0.033804487 -0.14048584 -0.09258924 -0.100787036 0.37657285 0.3708758 0.3341567 0.38161317 -0.07008188 -0.30130678 0.41113698 0.38273534 -0.02239952 -0.037903458 0.034894343 0.02993704 0.38148418 0.4034665 0.36795285 0.00020917505 -0.047963575 -0.11409843 -0.07665869 -0.12832527 0.096840255 0.3881603 -0.02778353 0.13046652 -0.022326786 -0.037562706 0.0051625473 -0.0881212 -0.026371041 -0.15598395 -0.23107092 0.38989738 0.4072234 -0.020454966 -0.105791725 -0.018695164 -0.035191588 -0.08798999 -0.06680253 -0.16037615 0.3992691 0.38760352 0.03823806 -0.09776677 0.0060363137 -0.016289508 0.40209967 -0.11866024 0.42461675 -0.27074707 -0.10287949 -0.038362402 -0.020142462 -0.05119425 -0.13197686 0.39417842 -0.13253267 -0.017029263 0.33624563 -0.027845753 0.3817328 0.32841346 0.35891017 -0.00030367542 -0.107101224 0.36820203 -0.027324231 -0.11341463 -0.10614305 -0.0031657028 -0.11148574 0.3681123 -0.041271254 -0.1030054 0.1901636 -0.14717205 0.33109504 0.36832434 0.37463528 0.40918845 -0.145061 -0.22598305 -0.18527615 -0.042127427 -0.078769185 0.38637787 0.3947362 0.37900275 -0.1440833 0.3698552 0.31558225 0.48240837 0.4310538 -0.13009605 0.39588493 0.44151497 -0.12200122 0.40791446 0.40841508 0.093219295 -0.10708115 0.41520914 -0.06921297 0.27079394 -0.1364905 -0.026674101 -0.023733884 0.3924986 -0.0651957 0.13618341 -0.044081513 -0.029302705 -0.1074502 -0.25251296 -0.21461904 -0.14337808 0.41589054 0.432707 -0.114897944 -0.048168685 -0.036109895 -0.14210428 0.3836083 -0.097871624 -0.022967152 -0.1201801 -0.02716589 -0.026526261 0.4136231
adolescents -0.055210747 -0.044832617 -0.03401551 0.43291214 -0.13870725 -0.28373936 -0.048511017 -0.021230385 -0.11877933 -0.026317395 -0.06184414 -0.121403664 -0.09534873 -0.13329151 0.032598197 -0.16670145 -0.038707785 -0.066469766 -0.025742395 0.38825613 -0.22799431 -0.01680769 -0.04434327 -0.018854398 -0.26159084 -0.25085676 0.4523464 -0.28757295 -0.1301384 -0.012116825 -0.04403872 -0.12819938 0.442071 0.42726007 0.026831351 0.35996014 0.3797554 0.43826985 0.42966074 0.4368399 -0.07115829 -0.13492204 -0.04684703 0.43321335 0.43511027 -0.14283538 -0.29813796 -0.006887944 -0.03058827 -0.06251065 -0.024095524 -0.16037102 -0.25720245 -0.114156224 -0.014750235 -0.33917803 -0.06211236 0.41283172 0.46320942 0.41501874 -0.033929657 -0.093439005 -0.053229794 0.21750939 -0.022021253 -0.107596755 -0.12328225 -0.13320908 -0.322687 -0.11988805 -0.10182728 0.4690287 0.3732375 -0.25012013 -0.102780625 -0.07425383 -0.2929014 -0.03505931 0.0064736116 -0.028513249 0.40884954 -0.048988592 -0.1056477 -0.08796063 -0.07849737 -0.10289382 0.42362952 -0.008091194 -0.09902872 0.054988388 -0.07114425 0.2094197 0.22577594 -0.10917914 -0.031019796 0.4375476 -0.12081752 0.41391397 0.4134383 -0.11298114 -0.17002185 0.29227033 -0.07610423 -0.04032667 -0.01314755 -0.06324402 -0.10172188 0.43778676 0.411393 -0.027090125 -0.07508149 -0.03724078 -0.10881138 0.023397012 0.4266465 0.4448701 -0.10944323 -0.052404 -0.04892601 -0.34979355 0.2288615 0.1489141 0.41843507 0.4229678 -0.018825063 -0.12296013 -0.14681122 -0.12785454 -0.030239355 0.078799754 -0.12440762 0.4344142 0.41993365 -0.099203914 0.40409505 -0.032771382 0.43433407 -0.1368213 -0.105197795 -0.13310021 -0.037882082 -0.09699859 -0.20250586 0.4241434 0.30295736 0.3235647 -0.01935707 0.4357491 -0.07286465 0.4233496 -0.12503645 -0.13664776 -0.10274918 0.39546436 -0.14418024 0.34343565 -0.102192976 -0.015273615 -0.111037105 -0.11762362 0.40800163 0.44518134 -0.08635641 0.1629144 -0.09021644 0.2313551 0.0014728229 -0.24785586 0.3687576 -0.075217724 -0.13579671 -0.12667592 -0.026694462 0.38078958 -0.12993695 -0.12874374 0.43462285 0.43561006 -0.22925405 -0.0202726 0.41912633 0.40432116 -0.038386896 0.42009556 -0.086558916 -0.114168376 -0.12889934 -0.09482046 0.368858 -0.08736309 0.40510017 -0.10510137 -0.1420013 -0.12868236 0.43424934 -0.042750075 -0.10679227 -0.11328133 0.39491305 -0.05329311
required -0.10579237 -0.03192785 0.37711817 -0.09544313 -0.027963601 0.3767396 0.11457737 -0.122003786 0.39832062 -0.038985066 -0.0944953 -0.2643077 -0.1143203 -0.13656399 -0.04722322 -0.38475657 0.4333424 0.35038733 0.36539006 0.4204621 0.39758828 -0.018542938 0.41404745 -0.015923968 0.3722245 -0.2447336 -0.015794335 -0.12623629 -0.109494336 -0.01858778 -0.08230936 -0.026980693 -0.05304169 0.29809904 0.36357468 0.4211103 -0.11294313 -0.00017400784 -0.07783301 -0.08438058 0.39894474 -0.062493708 0.38167554 -0.08628237 -0.044432055 0.24959761 -0.043671273 0.029507129 0.36198124 -0.0031315084 -0.11771778 0.37301934 -0.03234508 0.2738935 -0.0058383187 0.35558894 -0.005779895 -0.067862354 -0.04868319 -0.1772536 -0.05333564 -0.1255001 -0.105240636 0.03514976 -0.03479681 -0.10693746 0.4298687 -0.031782817 -0.13331686 -0.089457825 -0.099860765 0.38357085 0.37441194 0.3272309 0.3793926 -0.07088193 -0.29614764 0.40666518 0.38251668 -0.013932597 -0.03881598 0.031902097 0.026136555 0.38225713 0.40456843 0.36942384 -0.0044296766 -0.04327494 -0.10593482 -0.0762516 -0.1275235 0.098841235 0.38130718 -0.024889478 0.13586324 -0.020179532 -0.03114106 0.008468366 -0.08644 -0.033122763 -0.15723518 -0.22707747 0.38767973 0.41116577 -0.016958555 -0.10546435 -0.015445611 -0.03647635 -0.09228478 -0.06483896 -0.16780029 0.40245903 0.38910887 0.040403236 -0.09755802 0.004131219 -0.023745464 0.40446758 -0.12262393 0.42338175 -0.26473755 -0.105170056 -0.03799352 -0.017312061 -0.044561706 -0.13648878 0.3952083 -0.1374523 -0.011388736 0.3299932 -0.02193939 0.38567784 0.33000422 0.3596718 -0.0015379256 -0.11004487 0.36576426 -0.033121392 -0.114331186 -0.10638199 -0.0042196787 -0.10957624 0.36432457 -0.042631365 -0.105397426 0.19651295 -0.14381407 0.3370992 0.3621853 0.3779236 0.41391796 -0.13976106 -0.22592178 -0.1794654 -0.03483732 -0.07401456 0.3822747 0.39144367 0.3750603 -0.14211497 0.3664576 0.3151672 0.47916484 0.4306225 -0.13448489 0.39433646 0.43399888 -0.12471537 0.41043174 0.40754327 0.09226042 -0.10435065 0.4149022 -0.0702295 0.27282685 -0.13099705 -0.026191792 -0.01793915 0.3830527 -0.068921596 0.13086234 -0.041367333 -0.026693672 -0.10714512 -0.25700542 -0.2103035 -0.1415252 0.4161071 0.4253515 -0.118500866 -0.04749881 -0.040115498 -0.14826483 0.38342676 -0.09337843 -0.026723836 -0.12186748 -0.028962303 -0.021375854 0.41684988
support -0.10704544 -0.029439105 0.38544005 -0.09509749 -0.024507482 0.38037023 0.11776028 -0.11666093 0.39357203 -0.034781415 -0.092092596 -0.26918092 -0.11163839 -0.1343795 -0.04239252 -0.38608265 0.43815714 0.3535747 0.36423272 0.41627452 0.39401478 -0.019514259 0.40820014 -0.01689888 0.37243885 -0.24670601 -0.025074517 -0.12578295 -0.10522496 -0.0147582255 -0.082895346 -0.022680867 -0.061686642 0.29551014 0.3675187 0.42437956 -0.10935459 -0.009635962 -0.07254354 -0.08081824 0.39597818 -0.060228873 0.37599015 -0.0844168 -0.04688285 0.24790403 -0.043051846 0.03456052 0.35927233 -0.008785116 -0.11471183 0.37092546 -0.034538932 0.27027732 -0.0021195523 0.36343676 -0.008081798 -0.06870266 -0.052062653 -0.16827759 -0.05646226 -0.12286351 -0.097393766 0.03240162 -0.037238583 -0.105669215 0.43172532 -0.034260187 -0.13882379 -0.08599122 -0.10792793 0.3832625 0.3773236 0.33345678 0.37861267 -0.06958779 -0.30029798 0.4109794 0.37551087 -0.022170646 -0.042071227 0.03659636 0.02539869 0.37459317 0.4012884 0.37456816 -0.0008310424 -0.048437618 -0.110927254 -0.07221486 -0.12204794 0.10155493 0.38753432 -0.030223595 0.13363603 -0.027810384 -0.031119114 0.0071371766 -0.0962555 -0.026508292 -0.15654169 -0.2325313 0.3867315 0.41054612 -0.023300013 -0.10714585 -0.021495428 -0.039817333 -0.09295977 -0.058001462 -0.16440575 0.40587056 0.38948902 0.03367696 -0.09734361 -0.0020003957 -0.022372859 0.39997125 -0.12221291 0.42400172 -0.2646635 -0.10742796 -0.044968154 -0.020645384 -0.047009796 -0.13592201 0.4006266 -0.13436885 -0.018192042 0.33100927 -0.019603988 0.3817632 0.3303457 0.35630056 0.0011657747 -0.11587263 0.36570528 -0.026437627 -0.10859081 -0.10995165 -0.0067066136 -0.10797558 0.3605945 -0.039827965 -0.104654096 0.19785066 -0.14205712 0.3318491 0.3663071 0.37182772 0.40960532 -0.14599183 -0.2244654 -0.18187347 -0.033892505 -0.079436034 0.3789365 0.3929892 0.36998704 -0.14507219 0.36364797 0.3175024 0.4762752 0.42554 -0.13216665 0.3899576 0.43717808 -0.12119218 0.4009617 0.40402144 0.10183489 -0.10482009 0.4193076 -0.070065804 0.2711576 -0.13242656 -0.025119916 -0.020936027 0.3837108 -0.07020393 0.13300686 -0.041401234 -0.032674972 -0.106034815 -0.25778878 -0.20549236 -0.14230415 0.41535148 0.42463946 -0.11658185 -0.049219947 -0.033577234 -0.15030427 0.37679484 -0.09427467 -0.024135038 -0.12078254 -0.03195784 -0.0226942 0.41550377
symptoms -0.022906613 -0.009339859 -0.020741634 -0.12856853 -0.012298796 0.39362913 -0.1373353 -0.012080831 0.38645452 -0.12463871 -0.010606836 -0.01261314 -0.019070592 -0.005042946 -0.009515044 -0.017678991 0.31863692 -0.14690824 0.43411687 -0.011777192 0.37069473 0.3958379 -0.0034179557 -0.014927122 0.36516666 -0.00798239 -0.016580058 -0.016166441 -0.123867914 -0.018505987 -0.123038605 -0.10851599 0.41129974 -0.01316663 -0.025243117 -0.1061589 0.38076317 -0.023039479 -0.14593026 0.444172 -0.030285712 -0.11294963 -0.10941171 0.39291883 -0.013660445 -0.10473822 -0.0142486645 -0.111641206 -0.10297399 0.3851666 -0.14295785 -0.1250149 -0.018485205 -0.12158828 -0.014646058 0.380497 0.39510524 -0.018606987 -0.005886833 -0.019512706 -0.010708217 0.3949054 0.3821796 0.37358218 -0.124771714 -0.11569554 0.38783875 -0.01673786 0.3894166 -0.0038176125 -0.11838702 -0.10890755 -0.16440885 0.38192254 0.35967746 0.41025096 -0.007632758 -0.02502391 -0.019167347 0.396999 0.4246569 -0.02947698 0.43331367 -0.10811663 0.3527357 0.37825033 -0.123698965 0.34590068 0.33117476 0.32717845 -0.03724262 -0.11809239 -0.011374224 -0.013553508 -0.056093033 -0.1201241 0.3771995 -0.0064739585 -0.026599634 -0.014691751 -0.031150859 -0.013071009 0.38391677 -0.13301498 0.37100086 0.40810987 0.41163185 0.39375204 -0.117873594 -0.09969601 -0.05091515 -0.10567039 0.33838943 -0.007606072 -0.0068836603 -0.020624049 -0.008864029 -0.015020782 0.3669175 -0.11010762 -0.12942971 0.2882637 0.38174897 -0.012954843 -0.14637892 0.37776387 0.37780437 0.41090667 -0.11292106 -0.10909618 0.3596165 -0.014371865 -0.112629 -0.12848078 0.3924561 0.39319897 -0.11351131 -0.0043385793 -0.009598771 -0.024442874 0.4060233 0.40710297 0.3778215 -0.11324887 0.39779937 -0.117201805 0.4001386 -0.12675236 -0.026085438 -0.10128811 -0.10688461 0.41524756 -0.13870259 0.38365516 -0.109461814 -0.1120812 -0.116323516 -0.10664876 0.37673706 -0.121080846 -0.15330553 -0.104357414 -0.05002056 -0.13637063 0.4293811 -0.0013398782 0.3735657 -0.01753015 -0.13456723 0.37520796 0.37743053 -0.045199543 -0.113689065 -0.12876596 -0.0145970145 -0.013613173 0.3750316 -0.054219376 0.40659672 -0.11862899 -0.011686666 -0.010443314 -0.01608013 -0.11283964 0.34728283 0.22576414 0.40169492 -0.13623106 -0.017689012 0.4043935 -0.1145491 -0.017877275 -0.11816652 0.3891216 -0.028427172 -0.02990809 0.39120173 -0.10619487 -0.10974068 -0.1199325
leading -0.025451936 -0.01080062 -0.019319206 -0.12794675 -0.012504805 0.3963282 -0.13630976 -0.012044065 0.39074683 -0.12327482 -0.009541358 -0.008670686 -0.019624226 -0.0062351543 -0.012781688 -0.013856371 0.3137859 -0.14901775 0.42877534 -0.012202974 0.36725393 0.40156704 -0.002733713 -0.008892964 0.3663843 -0.009222455 -0.012819115 -0.020204648 -0.12526318 -0.022564664 -0.120987296 -0.111821845 0.4153613 -0.007599037 -0.024716297 -0.108375 0.3836794 -0.022017065 -0.14390297 0.44981655 -0.027566206 -0.11355608 -0.11321315 0.39516348 -0.008171558 -0.103609554 -0.013838 -0.1097235 -0.10868599 0.38741422 -0.1408918 -0.1278471 -0.01745048 -0.11728781 -0.016641451 0.38062498 0.39341795 -0.020273983 -0.01161773 -0.022906044 -0.0058008395 0.39561045 0.3793159 0.3700412 -0.1259801 -0.11181121 0.39021245 -0.014725678 0.38818213 -0.008457015 -0.12012746 -0.10733681 -0.16045953 0.38326514 0.35638192 0.4084497 -0.011855245 -0.025959741 -0.013228676 0.3921484 0.42659572 -0.030052206 0.43255475 -0.10953787 0.34691885 0.37814105 -0.11999676 0.34663185 0.32863587 0.32488173 -0.038508732 -0.11584991 -0.011224965 -0.0144240055 -0.054816794 -0.12533319 0.37855688 -0.01051731 -0.02726747 -0.021206297 -0.035199013 -0.013264346 0.38532832 -0.1328921 0.37045592 0.41223878 0.41560757 0.39153028 -0.11337477 -0.10555646 -0.04843924 -0.11220251 0.3440909 -0.0064190165 -0.00388641 -0.018235233 -0.0118281385 -0.014072204 0.36701965 -0.11155688 -0.1265707 0.28375164 0.38839468 -0.010630322 -0.14662385 0.37290227 0.37907544 0.41384214 -0.10884618 -0.10438328 0.35788447 -0.017010704 -0.108560756 -0.12701805 0.3923571 0.38958764 -0.11843992 -0.007849721 -0.012051642 -0.023417372 0.40595224 0.40017787 0.3837142 -0.113506496 0.39428365 -0.12034488 0.40454942 -0.12565643 -0.02381765 -0.10077389 -0.10493474 0.41920936 -0.14125802 0.38266152 -0.10386886 -0.11062802 -0.119792074 -0.11267724 0.3787142 -0.124979824 -0.15062599 -0.10308168 -0.05124581 -0.13976449 0.42576358 -0.008387902 0.3691716 -0.018807821 -0.13199016 0.3708291 0.3803294 -0.04733088 -0.11770204 -0.13029352 -0.013410822 -0.015910653 0.3790708 -0.051083177 0.39961624 -0.11328888 -0.01347964 -0.010411653 -0.010546952 -0.11506015 0.3424397 0.22567098 0.40425903 -0.13488229 -0.018474177 0.4052795 -0.12014879 -0.016348349 -0.11949584 0.3921432 -0.026522044 -0.03544554 0.39433295 -0.111605376 -0.10354941 -0.114485845
misdiagnosis -0.056842722 -0.04197829 -0.037042312 0.43552974 -0.13946623 -0.2792432 -0.054464426 -0.019919015 -0.12454632 -0.02865664 -0.05833187 -0.12686431 -0.09572308 -0.13200471 0.03678883 -0.1645651 -0.037267204 -0.06421404 -0.027678583 0.38719845 -0.22439761 -0.015613299 -0.045606002 -0.014027986 -0.2552086 -0.25866136 0.45160872 -0.2917594 -0.12872455 -0.013367085 -0.043565467 -0.12765047 0.43552122 0.42344618 0.028464224 0.35931766 0.3795313 0.4314795 0.43628675 0.437748 -0.07296983 -0.13387121 -0.044649404 0.43933144 0.42884094 -0.14265352 -0.3037848 -0.008988306 -0.036045033 -0.06325556 -0.024085902 -0.15978543 -0.2588061 -0.11641768 -0.016659755 -0.33873546 -0.061087824 0.41185212 0.46455023 0.4172698 -0.034095835 -0.093593314 -0.054019377 0.21426645 -0.022071786 -0.11301435 -0.120405205 -0.13313638 -0.31932172 -0.11991517 -0.10142603 0.46263558 0.3703904 -0.25201866 -0.10394961 -0.07711953 -0.28889698 -0.030913303 0.0022854093 -0.030659493 0.41083285 -0.054876897 -0.102029406 -0.08272778 -0.075550504 -0.09990368 0.427862 -0.008139171 -0.099301845 0.05173507 -0.07099343 0.20925054 0.22549954 -0.11243099 -0.025031615 0.43848726 -0.12248913 0.4134313 0.41211954 -0.112994075 -0.16942461 0.29244652 -0.08252738 -0.043019988 -0.011536239 -0.06291689 -0.106242195 0.43763122 0.411815 -0.030080758 -0.07492419 -0.036592606 -0.11327848 0.025173882 0.42349944 0.4446473 -0.11496985 -0.0557954 -0.0483115 -0.35206243 0.22342224 0.15320545 0.4187028 0.4263634 -0.020154115 -0.1255644 -0.14242594 -0.13027196 -0.029638108 0.080151804 -0.11927929 0.4325809 0.4203295 -0.09495711 0.40555084 -0.038845386 0.43401605 -0.1381908 -0.110730655 -0.13519649 -0.03961054 -0.09373467 -0.20555073 0.424383 0.3070867 0.32665503 -0.01608612 0.43711722 -0.07270503 0.42638418 -0.1307682 -0.13865489 -0.10267014 0.40092507 -0.14528166 0.34181768 -0.1044162 -0.019974394 -0.115214854 -0.11970811 0.4105821 0.43822023 -0.080993585 0.16043594 -0.089471765 0.23202631 0.00014453335 -0.25063136 0.37481132 -0.07425392 -0.13384674 -0.12105108 -0.025805373 0.3740281 -0.12878986 -0.12674563 0.43042067 0.43653476 -0.23033142 -0.017975302 0.42458528 0.40252945 -0.038656868 0.42571425 -0.089153014 -0.116447136 -0.12706901 -0.09750861 0.36958748 -0.0876353 0.4075268 -0.10006792 -0.1389136 -0.12194647 0.43212718 -0.047381718 -0.106184244 -0.112698235 0.39137176 -0.05431111
persons -0.0038942865 -0.016181642 -0.06912875 0.44526935 0.09044695 -0.12648182 0.46872485 -0.12234819 -0.08587288 -0.043605525 0.4380572 0.35464215 0.40134433 0.0007218146 0.41613907 0.31524572 -0.13807629 -0.019833378 -0.074951 -0.095296934 0.07951449 -0.0029772837 -0.10096142 -0.04931141 -0.25587586 0.42013118 -0.04023037 0.24050055 0.3475767 -0.01582343 0.43100628 0.037832726 0.08111117 -0.041514244 0.41623917 -0.10932386 -0.06639261 -0.08095081 -0.035451233 -0.077902414 -0.10275235 0.042213023 0.1521868 -0.21657288 0.22906542 0.3815893 0.047082838 0.44479382 0.40136284 0.43640697 0.40727714 0.00073628663 0.054143958 0.39576638 -0.02106174 -0.074508406 -0.018134948 0.39599162 0.15455784 -0.0023939158 -0.005242544 -0.13382429 0.4319563 0.4256687 -0.0095822625 -0.11696161 -0.3446308 -0.11310043 0.15102448 0.42397708 0.42322868 -0.073902644 -0.096385166 -0.0012247923 -0.12868446 0.01864966 0.21086802 0.3859105 0.42849115 -0.02626496 -0.26901618 0.463336 0.39445734 0.4168124 -0.23291193 -0.15633452 -0.09635034 -0.11893366 0.41360524 0.40846646 0.4485135 0.37526286 -0.07338358 -0.1390552 0.40346533 0.40461764 -0.022154566 0.39612234 -0.03383312 -0.026510695 -0.0009250068 0.0014246502 -0.09520407 0.30283353 -0.02443995 -0.031135337 -0.07634303 -0.07376757 0.43494952 0.46112067 0.4295011 -0.2560022 -0.1090359 0.41219825 -0.008052094 0.42467105 -0.027028292 0.32258704 -0.040000293 0.406688 0.4172943 0.40497577 -0.014296174 0.14176406 -0.004456913 -0.0070004063 -0.0027808445 -0.13177164 0.4387254 -0.10283348 -0.12787844 -0.028494539 -0.076721944 0.40881592 -0.042803265 -0.019905187 -0.0006547761 -0.0074526644 -0.04400551 0.050794646 -0.12844956 0.43774417 -0.21020806 -0.08110226 0.43381268 0.3704748 0.0010966542 0.0031689578 -0.100240596 -0.029857665 0.38811323 -0.0035378034 0.46895257 0.43511358 0.0015420159 0.04824428 0.09309211 -0.09135856 -0.10762756 -0.016951265 0.21183681 -0.038533427 -0.08285491 -0.114629164 0.37056312 -0.07787514 -0.087361716 0.1074222 -0.04984235 -0.18793543 -0.10174659 -0.045396395 0.4649596 0.0073133647 -0.16037619 -0.13985081 -0.29880625 -0.054577723 -0.14646894 -0.02313891 0.48643786 0.43465674 -0.034082867 0.17784774 0.42786273 0.4711951 0.209396 0.14603044 0.13350528 0.36939412 -0.0065996316 -0.065995514 -0.003593227 -0.2312271 -0.06499854 -0.024867196 -0.12832278 -0.0255255 -0.11324477 0.26303107
existence -0.05581808 -0.043756016 -0.031084683 0.44000456 -0.13708413 -0.27806446 -0.04975451 -0.018629845 -0.11772972 -0.029661044 -0.058780886 -0.12599477 -0.08978063 -0.12545854 0.03315404 -0.16409521 -0.03965187 -0.0701337 -0.02474159 0.38503292 -0.2228 -0.009363361 -0.049148314 -0.013936424 -0.25349018 -0.2584426 0.45007578 -0.29046527 -0.12775233 -0.008489585 -0.043962605 -0.13225172 0.44080892 0.42193156 0.03221929 0.36034685 0.3757259 0.43121737 0.4348544 0.43480518 -0.07283005 -0.13930796 -0.04558946 0.438024 0.43213603 -0.14535432 -0.2999457 -0.0052141747 -0.028643772 -0.055519413 -0.02290271 -0.16342387 -0.25596324 -0.11722728 -0.019353293 -0.33909863 -0.05784879 0.40811634 0.46774343 0.4121978 -0.03595754 -0.09216554 -0.05324759 0.21476856 -0.025513519 -0.11424403 -0.12391422 -0.13192436 -0.3204669 -0.113934055 -0.096900836 0.46269405 0.36692622 -0.25178322 -0.103147864 -0.07409254 -0.28559178 -0.031647593 0.007455788 -0.031224273 0.40759322 -0.04991183 -0.10477169 -0.08772397 -0.07559535 -0.09950898 0.43092975 -0.012083259 -0.101451024 0.052121315 -0.07616783 0.20992362 0.22406659 -0.11340633 -0.026916392 0.43683615 -0.12054409 0.41821098 0.41308525 -0.11266512 -0.17577016 0.29674974 -0.07867511 -0.042400807 -0.014776675 -0.063509546 -0.10075342 0.443029 0.41153622 -0.030895093 -0.07885818 -0.039126866 -0.115325674 0.020978035 0.42351755 0.44325173 -0.11536138 -0.052694343 -0.044494405 -0.3529852 0.23075809 0.15032654 0.41704324 0.42818904 -0.016117198 -0.12351742 -0.14795226 -0.12854178 -0.03006611 0.07734139 -0.12443965 0.4303934 0.42397055 -0.09403786 0.4042533 -0.035441674 0.43404567 -0.13508007 -0.10957735 -0.13411044 -0.037890747 -0.099363714 -0.20704511 0.42631087 0.30512106 0.3241823 -0.015400791 0.43538815 -0.07382516 0.4221433 -0.13132425 -0.13855967 -0.09692057 0.39886904 -0.14239995 0.34357643 -0.099704854 -0.020919614 -0.11528073 -0.12007698 0.40858307 0.43869415 -0.08519944 0.15986635 -0.09431108 0.23671788 0.0030590785 -0.24601085 0.37164026 -0.07653615 -0.13619977 -0.12767771 -0.02901169 0.37701148 -0.12559244 -0.12549904 0.43315914 0.4364177 -0.22541006 -0.015062714 0.42270064 0.40343845 -0.04367461 0.42500132 -0.086332686 -0.117699355 -0.1305827 -0.09301301 0.3674893 -0.083266295 0.40404713 -0.102607675 -0.13870125 -0.12659645 0.4301148 -0.041773867 -0.11368492 -0.11407996 0.39853445 -0.055218764
risk -0.027995605 -0.015797919 -0.025018368 -0.12698911 -0.012342792 0.40043855 -0.13504045 -0.017126022 0.3885054 -0.11927721 -0.01189386 -0.013661526 -0.020042308 -0.0100002885 -0.012138278 -0.011635174 0.3151247 -0.14499639 0.434424 -0.013999426 0.36527988 0.39569622 -0.009781186 -0.008683673 0.36051428 -0.004318316 -0.013434251 -0.01842615 -0.119522154 -0.022062924 -0.12017374 -0.109442495 0.40866616 -0.009416784 -0.023265045 -0.10179749 0.38514477 -0.024640769 -0.14340067 0.44540122 -0.027351927 -0.11084044 -0.11479297 0.39779183 -0.014131358 -0.100625426 -0.01565624 -0.114744626 -0.10689316 0.3887679 -0.1429501 -0.12654544 -0.020101415 -0.118955486 -0.017467257 0.37730172 0.3907752 -0.023909178 -0.007562305 -0.017439313 -0.009815969 0.3950672 0.38614485 0.36709023 -0.12405656 -0.10895362 0.39134684 -0.008547087 0.38726988 -0.005188019 -0.120398454 -0.105563365 -0.16527621 0.38669926 0.36312243 0.41424847 -0.005958375 -0.02635788 -0.020356921 0.39356288 0.42899194 -0.027147263 0.43644637 -0.10599505 0.3512612 0.3789387 -0.123787254 0.3527218 0.3311292 0.33047494 -0.039417125 -0.11291298 -0.012150338 -0.017766666 -0.0549562 -0.12217739 0.37784085 -0.008200027 -0.030282788 -0.014730133 -0.032520283 -0.007088758 0.38349554 -0.13922986 0.3755344 0.40968034 0.41578946 0.3925573 -0.11235426 -0.10546227 -0.05224528 -0.11379489 0.34545016 -0.0055576195 -0.0058923783 -0.01980079 -0.012652169 -0.015737092 0.3706687 -0.11336867 -0.12384173 0.2820699 0.3869345 -0.013860409 -0.14495473 0.37351122 0.37878892 0.41229987 -0.11232956 -0.11128237 0.3592278 -0.014283712 -0.11294407 -0.12928917 0.38682234 0.39360934 -0.112668 -0.0035324488 -0.013789968 -0.025506523 0.4125089 0.40179366 0.38301408 -0.112737596 0.3927139 -0.120786 0.40130794 -0.12621085 -0.023185821 -0.10227833 -0.11123808 0.4187426 -0.13947093 0.3761765 -0.103255734 -0.115980774 -0.117488906 -0.11194732 0.37470537 -0.12383808 -0.15516533 -0.10958141 -0.05478161 -0.1372123 0.42937288 -0.0064184116 0.3752352 -0.019207796 -0.13528734 0.37333494 0.37767217 -0.048605114 -0.110398635 -0.13065603 -0.012237487 -0.010158519 0.37838644 -0.052783243 0.40565762 -0.120370105 -0.012495608 -0.013311033 -0.011848581 -0.11755946 0.34466255 0.22996841 0.40742868 -0.13080734 -0.017385084 0.4068797 -0.11346324 -0.018748464 -0.11986752 0.38845536 -0.028452825 -0.032869734 0.391778 -0.10891268 -0.10645243 -0.11329451
indicate -0.06264889 -0.040805366 -0.033107 0.4343134 -0.1357561 -0.28171587 -0.05472644 -0.022304803 -0.12494779 -0.031234741 -0.055780947 -0.12226409 -0.09306951 -0.13280234 0.033958346 -0.16238753 -0.04164405 -0.06446781 -0.029700903 0.38308135 -0.22492667 -0.01369122 -0.047537543 -0.019678801 -0.2553514 -0.2520447 0.4549171 -0.2853568 -0.13446292 -0.011446444 -0.046624366 -0.12946971 0.43894663 0.42461157 0.028357282 0.35959655 0.37302792 0.43759984 0.4305182 0.43916175 -0.07262953 -0.13984583 -0.047723137 0.43347037 0.4284126 -0.1462222 -0.29945153 -0.011826735 -0.03360863 -0.05641556 -0.024870425 -0.16386333 -0.25490737 -0.11981992 -0.015095092 -0.3329262 -0.058124676 0.4146067 0.46200058 0.41761816 -0.032471437 -0.09823821 -0.05732238 0.21853983 -0.023677507 -0.112368315 -0.11900907 -0.12945989 -0.31891516 -0.12128547 -0.097366594 0.46222797 0.3735282 -0.25029272 -0.10801583 -0.07641229 -0.2910869 -0.034033604 0.0020254399 -0.029942233 0.4076053 -0.05493999 -0.10380563 -0.08850072 -0.07198086 -0.102085955 0.42889974 -0.014816701 -0.099943265 0.049147036 -0.06938915 0.20943464 0.22396807 -0.11604981 -0.026031107 0.43730447 -0.121829584 0.41726434 0.41124734 -0.114003465 -0.17461237 0.29357204 -0.08036296 -0.03877773 -0.0094101 -0.064565755 -0.10514007 0.4389281 0.41368657 -0.027761668 -0.07479352 -0.037058912 -0.11087762 0.022977853 0.4278076 0.4442519 -0.11410515 -0.05466637 -0.04698462 -0.35062942 0.22688673 0.15370701 0.41915616 0.4219174 -0.02079645 -0.122496225 -0.14515099 -0.12832016 -0.027039714 0.084196456 -0.12431279 0.43054992 0.42239815 -0.09276275 0.40069303 -0.034314755 0.4336594 -0.13321462 -0.10672234 -0.13143776 -0.044873565 -0.10001418 -0.2036674 0.43059126 0.30104312 0.32763898 -0.019927792 0.43652016 -0.068210915 0.42196497 -0.12753336 -0.13783914 -0.10096404 0.39575523 -0.13910277 0.33983344 -0.101642706 -0.018709326 -0.11394484 -0.11868157 0.41062543 0.44142613 -0.08246531 0.15732042 -0.09190226 0.23387954 -0.00069696316 -0.25364262 0.36900696 -0.0784439 -0.13632023 -0.12128525 -0.022689484 0.38018513 -0.12654482 -0.12565121 0.43542853 0.4378146 -0.22623496 -0.02174637 0.41962194 0.40364793 -0.04103148 0.42367816 -0.086248614 -0.11838536 -0.12884326 -0.09425077 0.36834884 -0.085871585 0.40862924 -0.09897917 -0.13996658 -0.12339561 0.4294749 -0.041366532 -0.11099391 -0.11198156 0.39210632 -0.054957762
problem 0.11443677 -0.037369445 -0.07330879 0.28108853 0.19229501 -0.0034267185 0.28588042 -0.11991167 -0.09160552 -0.055783346 0.29167873 0.37840736 0.43123326 0.1444705 0.19406939 0.33806384 -0.13832377 0.09136762 -0.0782694 -0.015923109 0.0009904727 -0.007837037 -0.11045886 -0.057468932 -0.2170569 0.38976657 -0.07310571 0.31988555 0.38468954 -0.043318525 0.27192 0.14544788 -0.001527546 -0.06753735 0.22778453 -0.12472717 -0.06866259 -0.091651365 -0.04705954 0.045279495 -0.10917607 0.16788384 0.053398214 -0.13398351 0.06367094 0.3826641 0.17498584 0.2429865 0.21550828 0.224745 0.39318892 0.14117368 0.19362009 0.41890484 -0.045545954 -0.08616104 -0.035140134 0.39447328 0.014807216 0.09044556 -0.029090011 -0.099658765 0.29675335 0.20902714 -0.033663128 -0.102209024 -0.28349662 -0.02101168 0.25738972 0.26738748 0.34628975 -0.11850177 -0.105999276 0.11958579 -0.13858786 0.15829948 0.26772097 0.2313 0.282521 -0.04274356 -0.115355566 0.3868153 0.22646669 0.2587692 -0.20001957 -0.13466534 -0.09570339 -0.111189425 0.27188057 0.20433731 0.34882963 0.23936167 -0.08507232 -0.038515378 0.2140452 0.20704153 -0.0228502 0.21115763 0.057127196 -0.042077392 0.11920394 0.12532377 -0.10629481 0.14865473 -0.022128016 -0.04578904 -0.07138178 -0.10483574 0.33647716 0.26006147 0.4137917 -0.20796178 -0.12179717 0.21543834 0.09503128 0.22415572 -0.015125249 0.15399924 -0.03292935 0.41332376 0.42755553 0.24334754 -0.04551169 -0.0012154626 -0.026873754 0.10921183 0.1323348 -0.12113428 0.32991573 -0.10825449 -0.099222675 -0.045238677 -0.09258135 0.32714823 -0.06243412 -0.024942195 0.08463415 0.15015993 -0.03449881 0.18037735 -0.11736115 0.27437568 -0.18109487 -0.0763617 0.21419002 0.18987004 0.11421499 0.104826234 -0.07781015 0.04763055 0.40019217 0.1064344 0.4363003 0.25342265 0.1538722 0.1681977 0.13213752 -0.09886473 -0.09670001 -0.0116750505 0.06767877 -0.069204986 0.055881895 -0.1026207 0.22836173 -0.09336847 -0.08961581 0.2167044 -0.08159882 -0.15874581 -0.003947557 -0.04581758 0.2456691 0.111749016 -0.14290401 -0.115159 -0.14102538 0.060570803 -0.12200675 -0.03279748 0.29212114 0.2688413 -0.0368283 0.25799134 0.41722938 0.46101874 0.28858742 0.22469582 0.027486324 0.21049292 -0.02879877 -0.061785612 0.117125936 -0.18300912 0.01792201 0.08380332 -0.101757534 -0.024095152 -0.11970729 0.12159422
critical -0.021258216 -0.008267467 -0.025315017 -0.1311438 -0.013732363 0.3940661 -0.13463728 -0.017119378 0.38674825 -0.12440144 -0.017037844 -0.006108359 -0.019335218 -0.005155986 -0.010854323 -0.015627202 0.31430784 -0.14867894 0.43230549 -0.013276734 0.36649752 0.40263772 -0.006697556 -0.010281964 0.36046723 -0.009848693 -0.01785 -0.01981029 -0.124789014 -0.018475486 -0.12378414 -0.10847484 0.41151604 -0.005551748 -0.018531285 -0.10655409 0.38028044 -0.024002593 -0.13986452 0.44559166 -0.03435782 -0.11426188 -0.11352465 0.39577335 -0.014130038 -0.10735427 -0.0136315515 -0.1132432 -0.10517625 0.3870418 -0.13709205 -0.13229431 -0.016624743 -0.12098534 -0.01984423 0.37888166 0.3922796 -0.025356103 -0.007858421 -0.018567935 -0.0047001317 0.3940672 0.38358977 0.3711815 -0.119252175 -0.114251554 0.3940858 -0.009545618 0.39007613 -0.002896283 -0.12151561 -0.101729445 -0.15806685 0.38273823 0.36314636 0.41010886 -0.009472642 -0.023829231 -0.013964652 0.39364758 0.42424092 -0.034642033 0.4352582 -0.102395445 0.35117972 0.37636524 -0.12585099 0.3461406 0.3270774 0.3311371 -0.041298293 -0.114592254 -0.013079964 -0.012474859 -0.055856545 -0.11913031 0.38403007 -0.010627661 -0.027708571 -0.01564496 -0.03397395 -0.007928729 0.38879737 -0.13697925 0.37109804 0.4114848 0.40950853 0.38845688 -0.118872404 -0.10321136 -0.04927539 -0.10983076 0.34175417 -0.006095314 -0.010495812 -0.021167908 -0.008487432 -0.016437465 0.37232864 -0.1100545 -0.1269259 0.28840625 0.3866951 -0.017494395 -0.1501084 0.37649032 0.37666735 0.41079032 -0.112876914 -0.10938882 0.36077848 -0.015303266 -0.112324595 -0.12540115 0.39199978 0.38604933 -0.11781227 -0.003286304 -0.007898963 -0.020391196 0.40764716 0.4024135 0.38473725 -0.10788041 0.39653027 -0.12087406 0.40108916 -0.120328255 -0.028700484 -0.106225885 -0.11025462 0.4142607 -0.14061235 0.38311407 -0.101830214 -0.10980633 -0.11914678 -0.11145648 0.3792836 -0.12526175 -0.15362611 -0.10599675 -0.054023072 -0.13496622 0.42825487 -0.0015263048 0.3712455 -0.013259662 -0.12776247 0.3694791 0.3796151 -0.048141792 -0.114554465 -0.12353538 -0.017813783 -0.012831706 0.37681335 -0.050781544 0.39902598 -0.12002401 -0.011776272 -0.013194677 -0.011895667 -0.115797475 0.34192494 0.22184403 0.40770206 -0.1333082 -0.01629597 0.4107109 -0.116686374 -0.012021168 -0.11877026 0.3900603 -0.02586786 -0.035305 0.39124638 -0.10934505 -0.109054655 -0.11927278
employed -0.08464702 -0.038735338 0.17799115 0.18717475 -0.088671714 0.03551936 0.022606278 -0.07062832 0.13422653 -0.034776043 -0.08786517 -0.21018694 -0.1180271 -0.13594656 -0.012935738 -0.29713106 0.20334132 0.14254902 0.17481534 0.42957965 0.07267296 -0.017869228 0.18398759 -0.017560821 0.048168764 -0.27822867 0.23853827 -0.22550352 -0.13426277 -0.014495758 -0.07982602 -0.080585554 0.21240439 0.38942283 0.1994468 0.41907814 0.15095285 0.23842476 0.19893834 0.20114031 0.1632573 -0.105239764 0.16665117 0.19770291 0.21529366 0.04569139 -0.18803094 0.0061252774 0.16154113 -0.04333833 -0.07839331 0.10471001 -0.15532176 0.071662456 -0.013044698 -0.0053085648 -0.034528974 0.19072123 0.23313195 0.1412822 -0.04722538 -0.11471128 -0.08760625 0.13373119 -0.032524493 -0.11473847 0.15291831 -0.09019232 -0.25133556 -0.118675165 -0.11679885 0.45512325 0.4011336 0.029404575 0.13633464 -0.07723856 -0.32181945 0.18239254 0.19262147 -0.024328945 0.20417905 -0.01761356 -0.05305119 0.1399123 0.1659103 0.13663647 0.23389335 -0.029984387 -0.12268424 -0.01732805 -0.113760166 0.16569227 0.32262743 -0.07708072 0.04680719 0.22888164 -0.080998674 0.23239137 0.18404558 -0.07729083 -0.17561682 0.04733997 0.15926404 0.18446049 -0.017898876 -0.09014218 -0.06673074 0.22237709 0.17902753 -0.056910306 -0.133994 0.18817946 0.13907035 0.02671871 0.18519068 0.24475798 -0.07149945 0.17177594 -0.08782149 0.010527305 -0.014820602 0.026029773 0.21035032 0.22309579 -0.034731068 -0.13456601 0.1221011 -0.14085183 -0.02930991 0.2169724 -0.0800112 0.44175863 0.40265498 0.12146049 0.22325851 -0.076510176 0.4328376 -0.08629862 -0.117531925 -0.1279795 -0.023727758 -0.11612264 0.07497545 0.21601719 0.11031106 0.27720845 -0.08355345 0.41945654 0.15186438 0.4297037 0.13273628 -0.15099752 -0.18084434 0.12487532 -0.09377064 0.15384954 0.14269607 0.19365358 0.13067207 -0.13693087 0.41760054 0.40762466 0.20193717 0.3128656 -0.12882107 0.33717427 0.22383183 -0.19932571 0.41792414 0.16537355 -0.02349449 -0.12130564 0.19279726 0.17170435 0.07072815 -0.13980073 0.2257673 0.23227514 0.07109283 -0.045547597 0.30047244 0.19775644 -0.036564164 0.18263577 -0.18927252 -0.17904387 -0.14692044 0.16032596 0.42647293 -0.11750293 0.20277816 -0.07558726 -0.15168525 0.12765512 0.1906494 -0.034225106 -0.12343381 -0.077215366 0.20618932 0.17921095
also -0.061062746 -0.038399495 -0.03307864 0.43579337 -0.14196596 -0.27935368 -0.046812315 -0.026057921 -0.12264766 -0.030343529 -0.057743557 -0.12300858 -0.09401442 -0.12834029 0.033116005 -0.16420443 -0.038928814 -0.06858351 -0.029137315 0.38504025 -0.22667709 -0.010009509 -0.043123372 -0.014543782 -0.2545689 -0.2517703 0.4529747 -0.28524473 -0.12890941 -0.011729358 -0.041986335 -0.13165763 0.43905267 0.4263317 0.03341258 0.35428363 0.3765197 0.4359079 0.43204862 0.44097432 -0.06998491 -0.14019345 -0.044606872 0.43445393 0.4300735 -0.13935208 -0.29943722 -0.0056268866 -0.034230523 -0.059650507 -0.026112389 -0.16083533 -0.2565077 -0.11542832 -0.018800233 -0.33260685 -0.05912038 0.41216403 0.4625416 0.4100255 -0.033707943 -0.096166 -0.050405767 0.21831647 -0.025659151 -0.10953522 -0.12599668 -0.1337767 -0.3210321 -0.12167342 -0.10027069 0.4626695 0.37101868 -0.2550086 -0.10878482 -0.07618024 -0.28517228 -0.037372142 0.007320357 -0.03012555 0.41455066 -0.047784697 -0.10443872 -0.0826272 -0.07450275 -0.09933094 0.42942494 -0.011175792 -0.1033735 0.053430688 -0.070823915 0.20865831 0.22151813 -0.11410852 -0.02414991 0.43574485 -0.12332997 0.41641635 0.41358623 -0.11291039 -0.17477952 0.29471785 -0.0751897 -0.03769493 -0.008753968 -0.06569219 -0.10678766 0.44252783 0.40985662 -0.03308367 -0.075975165 -0.037940565 -0.109941885 0.022024734 0.42463982 0.43920428 -0.111880496 -0.05689782 -0.04607521 -0.35279554 0.22836031 0.15219639 0.41900858 0.42911214 -0.02080802 -0.11886062 -0.14869194 -0.12798096 -0.025861595 0.07730846 -0.123004414 0.43655956 0.41748396 -0.094244376 0.40577677 -0.035932694 0.43377388 -0.1330356 -0.11082775 -0.13466108 -0.04312702 -0.09661938 -0.20195109 0.42418906 0.30724978 0.3206974 -0.020421047 0.43870848 -0.066574425 0.42729762 -0.123873726 -0.13798915 -0.09981691 0.396326 -0.14332609 0.34215927 -0.10257045 -0.021388851 -0.109877154 -0.12170834 0.40696713 0.43845925 -0.083468206 0.15937658 -0.091623105 0.23653203 -0.0016809667 -0.24627486 0.3745906 -0.077155754 -0.13305509 -0.12613122 -0.02682225 0.3751006 -0.12500365 -0.12753215 0.43252346 0.4354865 -0.22723216 -0.021502381 0.4191453 0.40351495 -0.04424557 0.42114455 -0.09147518 -0.11916435 -0.12862699 -0.09539345 0.3706221 -0.09067253 0.404926 -0.10457008 -0.13954708 -0.12087232 0.42992902 -0.04292832 -0.11119349 -0.1073583 0.3981776 -0.05652013
cardiovascular -0.06157679 -0.04049171 -0.035878927 0.43833974 -0.1361477 -0.28238744 -0.050672587 -0.022573132 -0.118183285 -0.027113594 -0.05777152 -0.12501518 -0.09751336 -0.13178732 0.037812196 -0.1613097 -0.0350255 -0.06491894 -0.026996104 0.38360307 -0.22684857 -0.01050272 -0.044834986 -0.020474141 -0.2584661 -0.2538754 0.45189655 -0.28500083 -0.13342908 -0.010165317 -0.049215246 -0.12683666 0.43627837 0.4271917 0.027289372 0.35781598 0.3722985 0.43382543 0.43139726 0.4346834 -0.06967008 -0.13884121 -0.049915686 0.4335198 0.432515 -0.13818385 -0.30233902 -0.010155581 -0.029787656 -0.05608167 -0.026225343 -0.15735976 -0.25413695 -0.112368725 -0.013719983 -0.33262783 -0.05757866 0.4088955 0.46156123 0.41317764 -0.035351638 -0.096804485 -0.0535713 0.21566871 -0.02605226 -0.11198849 -0.11970561 -0.13497722 -0.32202458 -0.11891273 -0.10048025 0.4625597 0.3719331 -0.2566544 -0.10266299 -0.07552536 -0.2852661 -0.036504664 0.0070529054 -0.03230066 0.4118994 -0.053454746 -0.1037699 -0.08186825 -0.077134684 -0.09907133 0.42354622 -0.01185957 -0.10336137 0.055917192 -0.071595825 0.20949624 0.2213207 -0.10936394 -0.02843758 0.43962583 -0.11934977 0.4183641 0.41619942 -0.116432905 -0.16895348 0.29304272 -0.07710262 -0.04185448 -0.009030469 -0.063025184 -0.10558626 0.43627644 0.41195285 -0.028733924 -0.07886362 -0.038319685 -0.10902925 0.024008194 0.4217004 0.44078338 -0.11137591 -0.055753633 -0.052263 -0.3546985 0.23042797 0.15312193 0.41621998 0.42917404 -0.014744842 -0.1220915 -0.14286076 -0.1281681 -0.02663834 0.0828095 -0.12548701 0.43082052 0.42247623 -0.09677404 0.4037937 -0.037127916 0.43234536 -0.13546759 -0.10778333 -0.13465369 -0.038810316 -0.09762043 -0.20748362 0.4246159 0.30275247 0.3208686 -0.02083603 0.43790376 -0.06807929 0.4199921 -0.1266273 -0.13928998 -0.09745978 0.39703903 -0.14560485 0.34194493 -0.09795489 -0.015489337 -0.11107433 -0.11576047 0.41103527 0.44514653 -0.08374395 0.16277537 -0.08743308 0.23423168 -0.0030219054 -0.25070268 0.37463585 -0.075924605 -0.13111658 -0.12673979 -0.027897958 0.3752451 -0.12976377 -0.12951452 0.4321892 0.43570125 -0.22732301 -0.017749783 0.41886318 0.4077542 -0.039014526 0.42376524 -0.08389024 -0.1163436 -0.1324021 -0.090528205 0.3655442 -0.086269714 0.40418774 -0.10260912 -0.14277624 -0.12200642 0.43235648 -0.041153587 -0.10758717 -0.10906183 0.3945621 -0.057029184
without -0.05541949 -0.042434964 -0.036496535 0.43761232 -0.13999437 -0.28590918 -0.049287308 -0.025820043 -0.12111919 -0.02841352 -0.055782996 -0.12314506 -0.09471527 -0.12733449 0.034598522 -0.16111058 -0.03581067 -0.06847564 -0.021954361 0.38779348 -0.22865073 -0.01704061 -0.04511156 -0.013496851 -0.25443006 -0.2514363 0.45463985 -0.28538403 -0.13265958 -0.008353952 -0.045414012 -0.13099119 0.4359974 0.42455405 0.0318462 0.36147332 0.3754415 0.43061417 0.43224806 0.44091925 -0.070791595 -0.13640933 -0.047445178 0.4365386 0.42795005 -0.14463575 -0.3059386 -0.008612428 -0.031971138 -0.060880154 -0.025921293 -0.16174434 -0.25627774 -0.113115944 -0.016425084 -0.33734524 -0.063412316 0.41534275 0.46653566 0.4124198 -0.034831177 -0.090824984 -0.051594805 0.21242294 -0.029375503 -0.110482275 -0.11853791 -0.13305192 -0.31815752 -0.114823505 -0.10100804 0.46730307 0.3739681 -0.25368124 -0.109566875 -0.07804552 -0.29079992 -0.03245622 0.0038246736 -0.02902785 0.41336775 -0.04971831 -0.10295029 -0.08477716 -0.071882986 -0.09749412 0.42780185 -0.008193631 -0.10130979 0.05110908 -0.0700832 0.20970254 0.22298378 -0.11380279 -0.026645888 0.44059637 -0.119314395 0.4183398 0.41397437 -0.11697979 -0.17394944 0.29366383 -0.08239014 -0.039223842 -0.014514392 -0.06523462 -0.10533982 0.43952605 0.4118076 -0.03176166 -0.07790362 -0.038299777 -0.109182194 0.020351475 0.42087483 0.4445964 -0.11275065 -0.050217588 -0.04506042 -0.35008773 0.22946124 0.15365554 0.42094132 0.42200363 -0.015680254 -0.12617162 -0.14662546 -0.1260649 -0.0251728 0.07943193 -0.11869627 0.43441862 0.42388242 -0.095823675 0.40462044 -0.037610266 0.43831402 -0.14019546 -0.10949092 -0.13010909 -0.03977726 -0.09856595 -0.20520908 0.42447862 0.30873877 0.32395798 -0.020301066 0.43552816 -0.070079155 0.42220092 -0.13103409 -0.13844444 -0.0969816 0.3983988 -0.14602026 0.34237486 -0.09820827 -0.018695863 -0.11567253 -0.12071525 0.4105852 0.44608232 -0.07977612 0.1586325 -0.09415502 0.23130576 -0.003801619 -0.24859953 0.37329456 -0.07385379 -0.1330415 -0.12090315 -0.024287552 0.3746097 -0.12744169 -0.12868823 0.4328057 0.43554837 -0.22707058 -0.014985366 0.42342174 0.40614453 -0.037695996 0.42747378 -0.08577847 -0.118284166 -0.12917346 -0.09091161 0.36536264 -0.083000876 0.40259784 -0.101740964 -0.14285101 -0.12810442 0.42920852 -0.044130962 -0.111607715 -0.10830145 0.3942677 -0.056672096
falsely -0.11180453 -0.024059417 0.37783918 -0.10240349 -0.02418409 0.38002267 0.11248322 -0.11601203 0.3915035 -0.036619905 -0.0887731 -0.2648058 -0.11535958 -0.14037037 -0.04924849 -0.38403738 0.4330697 0.35560864 0.36001262 0.41275766 0.39745232 -0.016969297 0.40993893 -0.021682559 0.37071693 -0.24269792 -0.025217721 -0.12098208 -0.106216155 -0.014425542 -0.086503305 -0.024369147 -0.052087285 0.29459876 0.3631035 0.42647526 -0.115116514 -0.004459169 -0.07275106 -0.08543453 0.39260215 -0.0674801 0.3799476 -0.08581028 -0.041846372 0.24925868 -0.04628209 0.03683182 0.35549834 0.00048670592 -0.11163794 0.37802935 -0.039540015 0.2777589 -0.007486011 0.35663167 -0.007998769 -0.070112154 -0.05183553 -0.17489028 -0.05670766 -0.116277985 -0.097027235 0.03615938 -0.03869873 -0.10779058 0.4290596 -0.031525556 -0.13369654 -0.0927632 -0.105316184 0.37920243 0.37641937 0.33671582 0.37873897 -0.068909936 -0.29528278 0.41118932 0.3782333 -0.016815605 -0.04586732 0.03586404 0.024723642 0.3752037 0.40076956 0.3725259 -0.0038054893 -0.048779182 -0.111210205 -0.07499249 -0.12343653 0.10068603 0.3825345 -0.024656678 0.12979245 -0.026131805 -0.02868551 0.009491512 -0.089898475 -0.034846485 -0.15289098 -0.22933443 0.39595708 0.41134605 -0.017952958 -0.10729296 -0.020698754 -0.042124145 -0.09091839 -0.0659869 -0.16431154 0.39923787 0.38739467 0.036227494 -0.092811435 0.0050846995 -0.0152414115 0.40201312 -0.11486014 0.4229107 -0.2647219 -0.107432716 -0.041062586 -0.020386703 -0.048453793 -0.1304612 0.39087757 -0.1334959 -0.014578224 0.33055165 -0.022912227 0.39090592 0.32941914 0.35508358 0.0025140839 -0.1138742 0.3688414 -0.033261195 -0.11220616 -0.11094434 -0.0059514116 -0.11105849 0.36025977 -0.04087024 -0.10869269 0.18950902 -0.1461402 0.3273968 0.36449757 0.37571433 0.41547477 -0.14620861 -0.22888248 -0.17775133 -0.043283302 -0.075321235 0.38403934 0.39506254 0.37086836 -0.14228758 0.36627936 0.31530878 0.47635797 0.4301379 -0.13356312 0.38787568 0.43430075 -0.12245269 0.4062522 0.40610665 0.10126224 -0.106544144 0.41848406 -0.07217764 0.2748738 -0.13763231 -0.025869451 -0.020773556 0.38565642 -0.07010106 0.1350498 -0.042162705 -0.029845815 -0.10230041 -0.25472003 -0.21185653 -0.1416592 0.41781285 0.42652285 -0.110647835 -0.04122539 -0.036850397 -0.14191891 0.3779088 -0.09016531 -0.023144156 -0.11427334 -0.028883811 -0.025368009 0.41301018
cardiomyopathy -0.108439006 -0.024850307 0.38515893 -0.096640356 -0.029379986 0.37930936 0.11970015 -0.118684866 0.3951304 -0.041998725 -0.0946939 -0.26343256 -0.110578254 -0.13336493 -0.046852943 -0.38837218 0.4294625 0.35089138 0.36460888 0.41508594 0.4005161 -0.024017973 0.40797564 -0.015934406 0.36955765 -0.24233553 -0.020026064 -0.122796044 -0.11062911 -0.01273717 -0.0841595 -0.020093072 -0.05697877 0.3004595 0.36203724 0.4238024 -0.11724714 -0.00020681554 -0.07342157 -0.08249138 0.39017904 -0.06530109 0.37970796 -0.08163659 -0.038496092 0.24653113 -0.04459859 0.036323447 0.35863072 -0.0018018908 -0.11582785 0.37356207 -0.032036483 0.27215514 -0.0066388203 0.36191335 -0.0050476 -0.06420031 -0.04707344 -0.17130041 -0.053299014 -0.11947631 -0.1030011 0.032516353 -0.03530465 -0.10698408 0.42765218 -0.03156998 -0.13631219 -0.08726987 -0.10847996 0.37837732 0.3739765 0.3323402 0.3836824 -0.073898695 -0.3033718 0.40563953 0.3750141 -0.018596534 -0.04073979 0.029992552 0.033226844 0.38034424 0.40013456 0.36864755 -0.0018374594 -0.04505633 -0.11261629 -0.07995168 -0.12686995 0.097075894 0.3814639 -0.032221697 0.13429108 -0.021061156 -0.02867845 0.007527438 -0.09298194 -0.027737478 -0.15372665 -0.23012106 0.3868308 0.40971375 -0.019720314 -0.10542034 -0.022633528 -0.0367058 -0.0972161 -0.067443445 -0.16360807 0.40481633 0.39536422 0.041550763 -0.09435026 0.0043722824 -0.021115 0.40650252 -0.11334429 0.42835617 -0.26415223 -0.10251312 -0.039472807 -0.016740464 -0.044419356 -0.13061859 0.3986009 -0.12964347 -0.013780819 0.33490327 -0.02636159 0.38888627 0.32187954 0.3530248 0.0022596857 -0.11596383 0.3704434 -0.027321408 -0.11066237 -0.10887229 -0.004165172 -0.11011851 0.3666527 -0.04251507 -0.10277662 0.19809423 -0.14426006 0.33445758 0.36388934 0.380523 0.41566557 -0.14359604 -0.22786124 -0.17592616 -0.043375578 -0.076988585 0.38796288 0.38863492 0.37378317 -0.14486468 0.3659275 0.3156301 0.47704914 0.4319518 -0.1389562 0.3896842 0.43693003 -0.12397363 0.40255028 0.40327018 0.09750055 -0.10229559 0.4225391 -0.06627948 0.2730158 -0.13384233 -0.019889276 -0.021719659 0.3920235 -0.06694431 0.13619645 -0.046635244 -0.026323032 -0.10017799 -0.25263035 -0.21188153 -0.14804289 0.42129073 0.42442822 -0.11290699 -0.048132773 -0.039641377 -0.14424594 0.3795011 -0.09364261 -0.022705335 -0.119936585 -0.027828503 -0.02043287 0.42029542
routine -0.02111743 -0.009220178 -0.020669792 -0.12952152 -0.018928323 0.39637858 -0.13333389 -0.012544708 0.39067972 -0.11697672 -0.00894371 -0.010045659 -0.02515014 -0.0058280034 -0.008818808 -0.013613475 0.31207237 -0.14514792 0.42752555 -0.01300794 0.36627913 0.39589807 -0.004161913 -0.014401599 0.36751318 -0.005684801 -0.012573194 -0.020515159 -0.12721914 -0.021636382 -0.123667985 -0.11453545 0.40821984 -0.005749424 -0.02009506 -0.10520318 0.37997925 -0.022473857 -0.14438367 0.44372103 -0.02819211 -0.111279726 -0.11444682 0.39824867 -0.00932012 -0.10463524 -0.019394131 -0.11724373 -0.101817034 0.38288677 -0.14174487 -0.13001144 -0.016636917 -0.12129358 -0.015575468 0.38012454 0.39433396 -0.02270772 -0.009305219 -0.018286176 -0.004650736 0.39740136 0.38041055 0.37411648 -0.1232757 -0.113993324 0.3879923 -0.011300046 0.3939846 -0.0011932629 -0.12152376 -0.10704938 -0.16440609 0.38312304 0.36066726 0.41022605 -0.012168504 -0.02385517 -0.01960737 0.39605597 0.42874876 -0.029424716 0.4376135 -0.11048476 0.34808204 0.3815958 -0.12152621 0.35068431 0.3293625 0.3261611 -0.037816186 -0.117850095 -0.011917222 -0.010472251 -0.05806322 -0.12544723 0.379222 -0.006771126 -0.02386433 -0.020674273 -0.032401603 -0.007377673 0.38589075 -0.13743603 0.37290028 0.41296554 0.41090903 0.39248553 -0.11663993 -0.10213561 -0.045839805 -0.10775984 0.3404543 -0.005173162 -0.0052924054 -0.018768448 -0.007929909 -0.01601218 0.3668077 -0.116864346 -0.12818202 0.28604096 0.38300064 -0.013167067 -0.14649875 0.37213185 0.3791856 0.41170394 -0.10917703 -0.10680607 0.36047193 -0.016246669 -0.10765655 -0.121441156 0.3889554 0.38736212 -0.11301397 -0.0026771221 -0.008583355 -0.019909013 0.4062463 0.40413818 0.37935954 -0.10794756 0.40038556 -0.12332105 0.40386394 -0.12393648 -0.024571886 -0.1074988 -0.10370871 0.41319874 -0.1349069 0.3803033 -0.10719973 -0.115772925 -0.11364891 -0.11034603 0.37276042 -0.1194779 -0.15337712 -0.106809065 -0.047848485 -0.13382536 0.43048218 -0.0059610354 0.37412348 -0.015591623 -0.13127705 0.37360647 0.37814853 -0.05039435 -0.11771034 -0.13011566 -0.01900278 -0.014002799 0.37585396 -0.058363132 0.4000845 -0.11328575 -0.010513736 -0.006385696 -0.011233988 -0.11296001 0.34398887 0.22495757 0.40226623 -0.1378531 -0.016655141 0.40843952 -0.119403906 -0.012956737 -0.1135107 0.38801977 -0.027768798 -0.028300405 0.38972986 -0.113396674 -0.108408384 -0.115194604
concern -0.0023711494 -0.015508076 -0.06301042 0.44148657 0.094583735 -0.12470217 0.46016583 -0.12423676 -0.082158804 -0.040951382 0.4391903 0.35483795 0.4036698 0.002393561 0.41370845 0.31657577 -0.14049742 -0.021136014 -0.07415396 -0.09916749 0.07327298 -0.006310659 -0.10744971 -0.04849471 -0.2614987 0.4166287 -0.038828272 0.2435248 0.3446954 -0.019047407 0.4365457 0.03998406 0.08025522 -0.03507345 0.41319695 -0.1086708 -0.062006533 -0.078484505 -0.0364998 -0.07748348 -0.10536344 0.044914506 0.15147667 -0.21282448 0.23006067 0.3834012 0.048253793 0.44478038 0.40028587 0.43055636 0.40235665 -0.0004955365 0.05375205 0.39582598 -0.024791636 -0.08057505 -0.013524656 0.40113384 0.1561984 -0.0024405303 -0.005512572 -0.1266994 0.4292388 0.4266254 -0.016300535 -0.11868059 -0.34483865 -0.109494455 0.15890154 0.42527926 0.42832965 -0.07470815 -0.09507842 -0.0006311161 -0.12972257 0.014447106 0.21438079 0.38818946 0.42877117 -0.02524568 -0.26780447 0.45847785 0.39580485 0.41011944 -0.2302187 -0.14805269 -0.09236643 -0.1255583 0.4124085 0.40208226 0.45271647 0.3759701 -0.0777674 -0.13181885 0.39788315 0.40634805 -0.026568748 0.39625022 -0.02893623 -0.029864604 -0.0065970295 0.0018629269 -0.09816517 0.30110592 -0.02182522 -0.027226513 -0.07453156 -0.07340123 0.4287212 0.45517164 0.42684716 -0.25402936 -0.11449372 0.41037425 -0.0031938376 0.4264313 -0.03249751 0.31685954 -0.044608172 0.40936828 0.41283605 0.4056818 -0.01724692 0.14044213 -0.0040848907 -0.009117001 -0.0010173926 -0.13404746 0.43735692 -0.10373333 -0.13374746 -0.029571613 -0.071175545 0.40667385 -0.043424062 -0.019075401 -0.0054748137 -0.0011243238 -0.03995066 0.058097128 -0.124444805 0.4365231 -0.21793854 -0.0778123 0.43279222 0.37089065 0.002273589 -0.0054018004 -0.09903026 -0.028214423 0.39491388 0.0007487966 0.47016245 0.43497422 0.000419599 0.047986522 0.09040412 -0.09610143 -0.11319255 -0.013771402 0.2116451 -0.040997144 -0.080651894 -0.12054549 0.37220615 -0.07567944 -0.08365303 0.10191271 -0.051696368 -0.19117752 -0.10064482 -0.04876338 0.46067885 0.0041323784 -0.16425377 -0.13998573 -0.2940436 -0.05745708 -0.14689986 -0.019933827 0.48273847 0.4320543 -0.03405448 0.18261872 0.42702082 0.47514206 0.21604127 0.14238273 0.13602848 0.36322713 -0.0011677132 -0.06356324 0.0013716356 -0.22883022 -0.06532917 -0.020872895 -0.12804368 -0.021895366 -0.10559354 0.26268005
evidence -0.06512081 -0.027946457 0.09446807 0.27396002 -0.04376222 -0.016895933 0.18009007 -0.08382678 0.061329696 -0.03466582 0.10011729 -0.011399929 0.062429637 -0.10821888 0.14287317 -0.079234585 0.08827522 0.07772872 0.091025636 0.23113944 0.08192994 -0.014491453 0.08563243 -0.025055178 -0.045379363 -0.027190924 0.14158198 -0.07053759 0.034689315 -0.011845096 0.11116587 -0.0534288 0.1717458 0.23626347 0.2677766 0.23334569 0.07826865 0.1332174 0.12369395 0.099004395 0.07520181 -0.070785284 0.15627804 0.049703687 0.22095567 0.15324952 -0.12392764 0.15877002 0.2354975 0.13024576 0.08953479 0.044602077 -0.109338015 0.17607623 -0.017814314 -0.019706625 -0.028992394 0.25655362 0.20623323 0.083368726 -0.031789545 -0.11203311 0.092103094 0.22686386 -0.023658456 -0.109638646 -0.009116505 -0.09877792 -0.11467407 0.07217963 0.07480945 0.26185864 0.22486897 0.006877511 0.049727373 -0.05943267 -0.13294613 0.25742307 0.26949182 -0.02461376 0.03473176 0.14421624 0.11382074 0.22966696 0.035446636 0.042682458 0.12261919 -0.05685807 0.07397299 0.13887525 0.08663857 0.228842 0.18112624 -0.10073706 0.16642225 0.2835087 -0.05583222 0.27896643 0.09901487 -0.053546563 -0.11807175 0.015722636 0.07096458 0.22436363 -0.017907718 -0.06616505 -0.06832044 0.12641014 0.25390083 0.1281716 0.061149456 0.040862568 0.05428561 0.16073188 0.11094888 0.29776433 -0.052560315 0.21411483 -0.07113823 0.14561905 0.13026142 0.15979469 0.13525055 0.19177714 -0.025825404 -0.09080757 0.062169876 -0.13018951 0.13752048 0.103001684 -0.09957312 0.2744537 0.2332233 0.2107024 0.13522793 -0.05521605 0.2622691 -0.085282244 -0.085421614 -0.07650863 -0.048748605 0.08278327 -0.015979853 0.11674448 0.22827628 0.2978395 -0.06401029 0.25603643 0.06656008 0.25314188 0.21069853 -0.10287196 0.05219748 0.22671257 -0.07464925 0.09947935 0.119385466 0.09151342 0.045282736 -0.0956821 0.33304724 0.23856255 0.08910571 0.15821753 0.057038695 0.18900661 0.11826219 -0.10419727 0.24412476 0.04903823 -0.054152664 -0.09449133 0.2779603 0.1046825 -0.004528693 -0.13292004 0.040925227 0.12204244 0.00031923084 -0.029915484 0.35474995 0.27498958 -0.036651757 0.16560012 0.030307915 0.04150779 -0.033345155 0.14395085 0.31539887 0.060037933 0.13404389 -0.06311796 -0.11442076 0.008046416 0.094274014 -0.044256628 -0.11575357 -0.053369932 0.09720249 0.20327647
use -0.110708736 -0.029385211 0.38239595 -0.103816174 -0.022909597 0.38410175 0.11729861 -0.116129614 0.3933642 -0.03482592 -0.08909513 -0.26743487 -0.11006617 -0.13919723 -0.04373027 -0.38501924 0.42947406 0.3530839 0.36817354 0.41672155 0.3949313 -0.02423176 0.4073736 -0.014601183 0.37416846 -0.24511823 -0.017498437 -0.1232395 -0.10650382 -0.012906935 -0.08259277 -0.018372511 -0.0592309 0.29122576 0.3644276 0.42221567 -0.114690155 -0.0046632695 -0.07460585 -0.085952945 0.3925695 -0.06727306 0.37804174 -0.080374464 -0.045364402 0.24266778 -0.04177215 0.0347481 0.35990638 -0.005469262 -0.11657097 0.37224248 -0.032592237 0.2777158 -0.004860143 0.35553846 -0.002108709 -0.0716596 -0.048902802 -0.1686801 -0.056676615 -0.1241372 -0.09762824 0.041283876 -0.041311312 -0.10835319 0.42956504 -0.03580541 -0.13335669 -0.084530614 -0.099639565 0.38142398 0.36878887 0.32858405 0.37996683 -0.07165295 -0.30151984 0.40522453 0.3767227 -0.020793086 -0.04157487 0.029145071 0.025873572 0.3803459 0.4042427 0.36901012 -0.0045405757 -0.048053607 -0.11170512 -0.08123738 -0.12855096 0.10006572 0.38101125 -0.031686526 0.1363628 -0.027022343 -0.035384588 0.0074562216 -0.08745707 -0.028403679 -0.14828534 -0.23423637 0.39121234 0.40531272 -0.01727427 -0.10569138 -0.023233673 -0.043416657 -0.096635334 -0.06280987 -0.15983485 0.4004405 0.39356703 0.039620515 -0.09897908 0.0025026784 -0.016596237 0.40778643 -0.11600105 0.4305586 -0.2655232 -0.10821859 -0.040835973 -0.023129169 -0.051310554 -0.12811406 0.3959327 -0.13292326 -0.012554329 0.33266622 -0.026249273 0.3908369 0.32458767 0.3545596 -0.0028615715 -0.11062357 0.36581886 -0.03582537 -0.113682196 -0.105639406 -0.0025598328 -0.10667709 0.3649522 -0.04244124 -0.10879659 0.18871225 -0.14549395 0.33114278 0.36189234 0.3725264 0.409738 -0.1423288 -0.22614142 -0.1772308 -0.038200945 -0.08258851 0.3785721 0.39158842 0.3718338 -0.14469296 0.36682245 0.310559 0.47818986 0.4295763 -0.13405584 0.39075387 0.4349397 -0.12277371 0.40727192 0.40388706 0.09737785 -0.10395106 0.41836765 -0.0654552 0.26935416 -0.13249929 -0.024125172 -0.020444596 0.38707095 -0.06764214 0.13155589 -0.04732423 -0.033949528 -0.10347396 -0.25652903 -0.21232092 -0.14390758 0.41536793 0.43275893 -0.11923126 -0.046056155 -0.037205793 -0.1494385 0.38565728 -0.090758465 -0.027307626 -0.11497556 -0.03181916 -0.024285063 0.4136403
low -0.02237709 -0.013474698 -0.023175277 -0.12560737 -0.019007288 0.3976431 -0.13655844 -0.017336788 0.38950735 -0.11706241 -0.017031135 -0.013419637 -0.023583693 -0.0061749863 -0.009744017 -0.015907787 0.31297553 -0.15037932 0.43030193 -0.016914058 0.37017143 0.39535612 -0.007219048 -0.012099738 0.36142752 -0.0048582596 -0.0119110625 -0.020155787 -0.12018941 -0.02003293 -0.121319845 -0.1093865 0.41041937 -0.008023971 -0.026048195 -0.10104349 0.38283846 -0.029482858 -0.14314237 0.44363007 -0.030731387 -0.10679247 -0.11024795 0.39571536 -0.015008153 -0.10664136 -0.012244584 -0.11114483 -0.102973625 0.38969654 -0.13875088 -0.13213374 -0.015471483 -0.11681778 -0.013338105 0.38177183 0.39448997 -0.022019245 -0.0056505157 -0.019643854 -0.005408101 0.3927195 0.38619417 0.37089413 -0.11890367 -0.11439416 0.38730863 -0.012081377 0.3900977 -0.0085489405 -0.11846023 -0.10508367 -0.16250591 0.38236392 0.35681167 0.41240692 -0.010941658 -0.024433702 -0.015499315 0.3921111 0.42455152 -0.027648972 0.43225667 -0.107982576 0.3507445 0.380019 -0.119734794 0.35094336 0.3309643 0.3289399 -0.037706543 -0.115879744 -0.00889645 -0.010662548 -0.056641754 -0.11880252 0.38187262 -0.003987698 -0.024167545 -0.01602365 -0.035465952 -0.0072431713 0.38498202 -0.13288674 0.37494925 0.4078794 0.40882117 0.3919403 -0.114029735 -0.106558084 -0.05118851 -0.107305124 0.34348997 -0.0101837665 -0.007203266 -0.015924107 -0.008556708 -0.014197489 0.37160015 -0.11126303 -0.12891768 0.2881606 0.3873708 -0.01722623 -0.14839359 0.378353 0.38283673 0.4146543 -0.11218737 -0.108871914 0.35742745 -0.017259866 -0.1103605 -0.128814 0.3951227 0.38737786 -0.11735773 -0.0033680052 -0.016211737 -0.020369485 0.41303828 0.40037015 0.38524055 -0.11207929 0.39844942 -0.12349038 0.40780205 -0.12102107 -0.024846213 -0.10372987 -0.10805935 0.41517636 -0.14175679 0.37542927 -0.10917103 -0.117289454 -0.11728872 -0.11038531 0.37729323 -0.12031219 -0.14948203 -0.10643946 -0.04989173 -0.13835461 0.42666212 -0.0020078227 0.3736348 -0.0132306125 -0.13408388 0.3742592 0.37654158 -0.049042173 -0.116987795 -0.12984319 -0.013071984 -0.016593615 0.38127083 -0.05361886 0.40085047 -0.11325678 -0.011312861 -0.0063868156 -0.013330412 -0.1186571 0.34826028 0.22221865 0.40727276 -0.13208412 -0.02100634 0.40651545 -0.1174521 -0.012777758 -0.1166807 0.39055848 -0.031672496 -0.031871125 0.3897975 -0.107952565 -0.10902427 -0.11752139
occupations -0.03749965 -0.028437575 -0.058562916 0.4745007 -0.03361173 -0.23928696 0.21161294 -0.075153336 -0.11594107 -0.03717338 0.19959794 0.117441505 0.15281509 -0.074065365 0.23717965 0.073217124 -0.1003346 -0.061480507 -0.05472216 0.14925426 -0.088644296 -0.010817478 -0.08870743 -0.03430043 -0.2874362 0.076119125 0.22209391 -0.03614557 0.11023991 -0.01502934 0.20247678 -0.05819086 0.28109917 0.21139972 0.22886425 0.13673648 0.1728164 0.1948924 0.21747217 0.19102578 -0.10138167 -0.054025616 0.04478303 0.11654895 0.35693333 0.12326184 -0.14280091 0.22519617 0.18776236 0.19556004 0.19705504 -0.10042304 -0.11502886 0.1369426 -0.021044135 -0.23403235 -0.03935136 0.42997557 0.33472192 0.21604382 -0.021905622 -0.116799265 0.19870219 0.34002975 -0.017591953 -0.12022757 -0.25744122 -0.1368784 -0.09859804 0.15757713 0.16534077 0.21396787 0.15304482 -0.15277614 -0.1335296 -0.04194905 -0.050280582 0.18489149 0.22092384 -0.027210573 0.06784938 0.20812403 0.15098006 0.16622463 -0.17127123 -0.13656867 0.18042968 -0.06899301 0.16767053 0.24147514 0.19713926 0.31071392 0.08159573 -0.13613476 0.19320726 0.45233095 -0.074916504 0.4352261 0.19763514 -0.07318432 -0.10300011 0.15270971 -0.10007112 0.13278921 -0.016433883 -0.04963061 -0.09796713 0.19841295 0.44947538 0.22459736 0.1805886 -0.16401058 -0.1296845 0.22653887 0.22090037 0.461122 -0.07262108 0.13056292 -0.043940365 0.007571266 0.33677268 0.29874313 0.21936637 0.29984438 -0.015140077 -0.074865274 -0.09869576 -0.14020868 0.21467206 -0.015001291 -0.13782169 0.2222415 0.1920147 0.15134181 0.1964851 -0.02492572 0.2210761 -0.08211347 -0.0773664 -0.052173704 -0.082612514 0.1767326 -0.2312025 0.18991807 0.39817345 0.36750594 -0.015767686 0.23152854 -0.093360715 0.20875978 0.124706954 -0.07869814 0.1893457 0.44871256 -0.08067381 0.20763554 -0.015584677 -0.06485487 -0.12746853 -0.070935175 0.3355489 0.21481878 -0.10767565 0.022165492 0.14871708 0.08937094 -0.04902508 -0.08710376 0.17391348 -0.14953846 -0.13017687 -0.09140723 0.21942598 0.19792145 -0.155244 -0.14023656 0.06540693 0.20085299 -0.21328782 -0.016591484 0.4862444 0.45206127 -0.03841164 0.32147753 0.17524897 0.18114814 0.03820397 0.009646657 0.27089697 0.14382899 0.22360705 -0.085168004 -0.08301367 -0.19863737 0.19541603 -0.04164886 -0.12307928 -0.07204986 0.15492254 0.10395445
ecgs -0.109439865 -0.02508114 0.376893 -0.10043495 -0.031085897 0.37675738 0.115246765 -0.12212723 0.38965148 -0.038608696 -0.08898204 -0.26467597 -0.11419304 -0.13735431 -0.047098164 -0.3911829 0.43733245 0.34886232 0.3617318 0.4208041 0.39406133 -0.019510275 0.4117403 -0.01977198 0.37153175 -0.24616009 -0.022836117 -0.12385245 -0.11169053 -0.020405412 -0.09133941 -0.018024486 -0.055255935 0.29603916 0.3626375 0.4222617 -0.11445098 -0.003157497 -0.07575701 -0.08355161 0.39412534 -0.06648254 0.37568215 -0.08112166 -0.044467986 0.24412797 -0.041699223 0.034143634 0.35458282 0.00011136243 -0.11868856 0.372927 -0.0386718 0.26958475 -0.00538915 0.36393508 -0.0010670414 -0.06283445 -0.04931514 -0.17060906 -0.053110477 -0.11610887 -0.101152815 0.034712598 -0.04254094 -0.10061845 0.42881432 -0.03281534 -0.13873018 -0.086737506 -0.10021824 0.38021034 0.37691757 0.333382 0.3823682 -0.072623625 -0.2985052 0.41282624 0.38288683 -0.013028413 -0.03726663 0.030205833 0.024963427 0.3788614 0.40208325 0.37230802 -0.006519528 -0.04411369 -0.110919505 -0.07533245 -0.12844288 0.09369486 0.38995138 -0.031070627 0.13215488 -0.020142283 -0.030385228 0.008268687 -0.091798045 -0.02802212 -0.15633246 -0.23040967 0.3945043 0.4098135 -0.018532023 -0.10368062 -0.022037808 -0.0364315 -0.09207133 -0.06232729 -0.15993394 0.39944476 0.39214677 0.03792047 -0.09474545 0.0031003621 -0.025153687 0.40270972 -0.121672064 0.42403224 -0.2631961 -0.10381068 -0.044554126 -0.018463897 -0.04529129 -0.12902394 0.3930803 -0.13062178 -0.017090417 0.33059585 -0.022929328 0.38805223 0.32679516 0.3509745 0.00031712 -0.11192242 0.37011275 -0.034287155 -0.11166363 -0.10859902 -0.0013307869 -0.10552097 0.3621473 -0.045085154 -0.101968765 0.19010866 -0.13896856 0.33167905 0.3640618 0.37986678 0.41139382 -0.14221978 -0.22350584 -0.17544761 -0.039485898 -0.08136225 0.38403857 0.38967764 0.37367755 -0.14318706 0.36682966 0.31058273 0.47828257 0.42661297 -0.13252592 0.3906031 0.43480518 -0.11995295 0.4014997 0.4013105 0.09360331 -0.10109039 0.41522482 -0.07219524 0.27527064 -0.13910636 -0.027350863 -0.019055497 0.3882438 -0.06627122 0.13311389 -0.043266628 -0.024889115 -0.10120159 -0.26083362 -0.206902 -0.13948101 0.41531402 0.42802495 -0.11887609 -0.0396893 -0.03783424 -0.14867963 0.38571244 -0.0918899 -0.024275634 -0.117895186 -0.027518064 -0.02138799 0.42201474
overtreatment -0.10447277 -0.032498088 0.3773227 -0.0948611 -0.022618856 0.37879854 0.11966678 -0.11409784 0.39390486 -0.034740817 -0.09427297 -0.2626685 -0.11574241 -0.13557592 -0.049041566 -0.38833594 0.42960513 0.34857434 0.3599541 0.4183255 0.39115393 -0.023995796 0.40685648 -0.017144563 0.36942077 -0.25040686 -0.016126333 -0.11794871 -0.11369958 -0.010721929 -0.08215891 -0.024128001 -0.052168153 0.29505628 0.3676486 0.42627355 -0.11004798 -0.0066246097 -0.077009045 -0.082650535 0.3948864 -0.06097585 0.38267502 -0.082788944 -0.04063803 0.24191898 -0.041522875 0.033784337 0.35407218 0.00068180496 -0.11707968 0.3715029 -0.038501553 0.2723112 -0.009741166 0.3620243 -0.0020744158 -0.062513076 -0.04401686 -0.1733005 -0.056082305 -0.12447662 -0.103853755 0.03988666 -0.041323446 -0.10731638 0.42429456 -0.035865415 -0.13251556 -0.087996714 -0.10706537 0.37971744 0.37444633 0.33525816 0.37960887 -0.0764559 -0.29968026 0.40940082 0.38358867 -0.015959956 -0.042510275 0.036654722 0.031693406 0.3736489 0.40926856 0.37331125 -0.0026980666 -0.046865627 -0.11117865 -0.08093714 -0.12885372 0.09933186 0.38637227 -0.029299367 0.13279167 -0.027473021 -0.029641405 0.0045047747 -0.08826001 -0.031811856 -0.15200423 -0.23432969 0.39341056 0.40555918 -0.018328153 -0.108081125 -0.019823443 -0.03425816 -0.08904409 -0.061012637 -0.163891 0.40295875 0.38943037 0.042998094 -0.090594895 -0.0018111947 -0.017787859 0.40430623 -0.11364587 0.42462102 -0.2624699 -0.10581421 -0.03803052 -0.02519044 -0.046352044 -0.12920648 0.39120623 -0.13435075 -0.013268796 0.3305087 -0.024215735 0.38429826 0.3226629 0.35400796 -0.0023333626 -0.11564385 0.36372507 -0.0315763 -0.11395253 -0.108968005 -0.008095257 -0.10436406 0.36939973 -0.041408196 -0.10679481 0.1944199 -0.14516437 0.3340239 0.36335072 0.3743859 0.40892082 -0.1456103 -0.22747158 -0.18405136 -0.03461585 -0.083161876 0.38417333 0.38919747 0.37637472 -0.13946858 0.36823726 0.31340486 0.47645122 0.4272931 -0.13270916 0.39507768 0.43397838 -0.11788763 0.401213 0.40953565 0.09823939 -0.10269603 0.41776478 -0.06932979 0.27064177 -0.13794076 -0.022655679 -0.026325487 0.39208263 -0.06830573 0.13654543 -0.049918845 -0.024868293 -0.10584858 -0.25989306 -0.21353538 -0.13947207 0.4162058 0.43346173 -0.113756984 -0.042602826 -0.03491985 -0.14584787 0.37696305 -0.0984685 -0.021632176 -0.120981924 -0.026989298 -0.024259616 0.41283712
recommendation 0.0008009316 -0.02270247 -0.063385665 0.4441603 0.09010874 -0.124457456 0.4613646 -0.122559324 -0.088127576 -0.037344225 0.4444693 0.35556927 0.39794812 -0.000896757 0.4138567 0.308923 -0.13678637 -0.018029455 -0.06876443 -0.10058975 0.07843948 -0.0044882037 -0.101318195 -0.04720701 -0.2597154 0.41708076 -0.040031455 0.24060096 0.34434777 -0.014049863 0.43583557 0.034442764 0.08269701 -0.03495261 0.41258553 -0.10611874 -0.06189061 -0.07355716 -0.033796214 -0.07699947 -0.100653276 0.050343417 0.15205087 -0.2138291 0.22859553 0.38538504 0.047602106 0.43804485 0.39876077 0.43576887 0.4026043 -0.001531603 0.05901341 0.40011972 -0.021198098 -0.07492061 -0.01756702 0.39771116 0.15104203 0.0022142204 -0.007691427 -0.13085523 0.42958596 0.4214748 -0.0135951415 -0.115620404 -0.3477846 -0.109103255 0.15402584 0.4228782 0.42529076 -0.07980414 -0.094247796 0.0021985013 -0.13122645 0.015043756 0.20940764 0.38084385 0.42224053 -0.030658122 -0.26442105 0.4570759 0.38897726 0.41182026 -0.23040195 -0.15547909 -0.09357202 -0.1179612 0.41373006 0.40583026 0.4483961 0.37437513 -0.07229899 -0.13416624 0.39878342 0.4034692 -0.023118198 0.39479852 -0.03200203 -0.028466592 -0.005255955 -0.0009367182 -0.09893396 0.3028093 -0.021460537 -0.02780625 -0.07336155 -0.07165743 0.4300297 0.46047595 0.42956203 -0.25605056 -0.116142996 0.407955 -0.0046643624 0.42315364 -0.032728627 0.32251936 -0.04570995 0.40810615 0.41389647 0.40341145 -0.021771569 0.13530202 -0.010775464 -0.0131664695 -0.0066886963 -0.13685846 0.44107813 -0.103159234 -0.13001531 -0.030188104 -0.077570535 0.40591562 -0.04732055 -0.01883775 -0.0071869274 0.00030460162 -0.038393572 0.052332617 -0.124755174 0.4411414 -0.210908 -0.073411845 0.43185332 0.36857602 0.0063141515 0.0008794223 -0.101837374 -0.029696953 0.3882221 0.0015626831 0.47517553 0.43167055 0.0011283308 0.046962347 0.091197625 -0.09754492 -0.11248817 -0.011538866 0.20687073 -0.03893016 -0.07958253 -0.11800635 0.36558035 -0.07584816 -0.08262377 0.10158782 -0.057203807 -0.18986438 -0.102143556 -0.04926713 0.4569659 0.0020309272 -0.16597974 -0.14162147 -0.29449105 -0.055584997 -0.14524329 -0.020037927 0.4799703 0.43105897 -0.031155683 0.17985623 0.4239186 0.47167116 0.21429119 0.14927001 0.13897528 0.3642789 0.0005871025 -0.067823395 -0.0039658826 -0.23073083 -0.06257589 -0.021621805 -0.122954056 -0.018333768 -0.11364527 0.26682436
considered -0.0621187 -0.03929036 -0.033620376 0.43530646 -0.14020117 -0.28431424 -0.050052676 -0.020780023 -0.12340854 -0.026330754 -0.059864745 -0.12365406 -0.09556356 -0.13009447 0.030482426 -0.16694511 -0.03973583 -0.06900894 -0.025142418 0.3863305 -0.22607677 -0.011410169 -0.050993115 -0.012741164 -0.2602199 -0.25395638 0.45036232 -0.2905964 -0.1347498 -0.0071871984 -0.04260937 -0.12612115 0.4383904 0.42844358 0.03236193 0.36028582 0.38005173 0.43566152 0.43164366 0.43476972 -0.07221214 -0.13360721 -0.04771397 0.43348056 0.43013012 -0.14495003 -0.30090827 -0.0071782093 -0.034682903 -0.056646463 -0.024778761 -0.15700796 -0.2545609 -0.11299634 -0.013773341 -0.33245093 -0.062303655 0.40904254 0.4652287 0.41386062 -0.036439996 -0.09476782 -0.054255813 0.21900603 -0.02405128 -0.11420641 -0.12264087 -0.12848 -0.3221565 -0.1194237 -0.10128749 0.46203986 0.36941206 -0.25561255 -0.10848201 -0.07544433 -0.2869882 -0.035394292 0.0035764659 -0.028583359 0.410244 -0.048964538 -0.10423153 -0.08476697 -0.07263224 -0.097098954 0.4266373 -0.011530859 -0.10277377 0.053897288 -0.07447701 0.205649 0.22485556 -0.108131826 -0.023325013 0.43671605 -0.11706497 0.41934976 0.41529307 -0.11592516 -0.1691528 0.29918784 -0.08233329 -0.0415504 -0.012188546 -0.06357984 -0.10309392 0.4408088 0.41391617 -0.029062947 -0.07508987 -0.041320983 -0.11231956 0.023954192 0.42081568 0.4433387 -0.11109145 -0.0509613 -0.046045452 -0.3507724 0.23014818 0.15087433 0.41817167 0.42658252 -0.0138929095 -0.12246724 -0.14260362 -0.13127755 -0.022745818 0.079204634 -0.12406374 0.43787462 0.41714936 -0.09588885 0.4018622 -0.032363184 0.4397102 -0.13421494 -0.1036425 -0.13375907 -0.043706194 -0.095337 -0.20947859 0.4261358 0.30504286 0.3207428 -0.015376004 0.4426604 -0.070407465 0.42097157 -0.12532797 -0.13628303 -0.10260321 0.39664355 -0.1410625 0.342941 -0.09953711 -0.01991115 -0.114390776 -0.1195395 0.41281345 0.4409679 -0.08369265 0.15976734 -0.09166672 0.23697017 -0.0032066016 -0.25234854 0.37063846 -0.078874424 -0.12975691 -0.12497773 -0.024239775 0.3779559 -0.12402776 -0.13131073 0.43139938 0.43805736 -0.22848436 -0.020390023 0.42058462 0.4041651 -0.04128799 0.42084235 -0.08622972 -0.11626088 -0.13131821 -0.09464296 0.37048367 -0.084639095 0.40189832 -0.104440555 -0.13737115 -0.12415913 0.4329521 -0.044321362 -0.110179864 -0.11514396 0.39176318 -0.05562333
cardiac -0.1090929 -0.024855204 0.37801385 -0.10038004 -0.022375535 0.3796737 0.11803524 -0.1177774 0.39211452 -0.038001303 -0.095141664 -0.26311314 -0.1177385 -0.14131191 -0.048599236 -0.38560554 0.42969158 0.3529065 0.36583218 0.41863847 0.39319384 -0.019717136 0.4097302 -0.01778569 0.3766276 -0.24201667 -0.017214583 -0.11697987 -0.11135678 -0.020589871 -0.08911045 -0.021458223 -0.059237882 0.29996035 0.3657214 0.4294015 -0.112884164 -0.0020998174 -0.07060497 -0.08007941 0.3979959 -0.061049324 0.38457456 -0.08755655 -0.039640035 0.24517453 -0.04267254 0.03226826 0.3612018 -0.0086587705 -0.112708114 0.36994237 -0.031868733 0.27714562 -0.002212976 0.3611873 -0.00037638098 -0.07104701 -0.047668435 -0.17205217 -0.056591928 -0.12188816 -0.105788775 0.039863832 -0.035905622 -0.10061181 0.42555717 -0.031382397 -0.13878837 -0.08491006 -0.104673214 0.38487253 0.37143183 0.3309089 0.38649115 -0.06998498 -0.30077848 0.40885678 0.37653336 -0.015788335 -0.04176043 0.030751294 0.02465307 0.37381923 0.40416104 0.37353235 -0.0019947449 -0.04606077 -0.1134429 -0.07571979 -0.12737155 0.100752704 0.38662592 -0.029471047 0.13490517 -0.021577684 -0.0314461 0.004178318 -0.088434756 -0.030482503 -0.15729047 -0.22974552 0.3891717 0.41120592 -0.017236756 -0.10558643 -0.016705366 -0.035533212 -0.088440314 -0.060301553 -0.1610629 0.4037827 0.39645386 0.036781963 -0.09113307 0.0034570214 -0.023421368 0.40352932 -0.11416788 0.4242933 -0.2652602 -0.10633218 -0.036010932 -0.02013917 -0.04677774 -0.12861104 0.39484262 -0.129598 -0.01819338 0.33529374 -0.020892559 0.38591725 0.3295312 0.3566242 -0.00057778694 -0.11156052 0.36410254 -0.027442345 -0.11659049 -0.11294514 -0.004265662 -0.114055894 0.36242232 -0.046101354 -0.10624322 0.19644625 -0.13874836 0.3350535 0.3714883 0.37407786 0.4098357 -0.14664817 -0.23201616 -0.1799075 -0.03389901 -0.0834077 0.38053447 0.39331877 0.37224564 -0.13833866 0.3674781 0.31334025 0.4781888 0.42679608 -0.13448551 0.38975126 0.4343693 -0.12003622 0.4028498 0.400635 0.0954238 -0.09962336 0.41373572 -0.06770683 0.2759733 -0.13862032 -0.02149866 -0.022066146 0.3929233 -0.0700415 0.1320819 -0.045458697 -0.033921834 -0.108835004 -0.2615878 -0.21183965 -0.14056796 0.4136476 0.4280181 -0.11464491 -0.045574453 -0.042493183 -0.14686413 0.3816574 -0.09106014 -0.021283377 -0.11310411 -0.02699805 -0.019993901 0.41317108
may -0.10399058 -0.027845696 0.384525 -0.09845431 -0.0294642 0.37571716 0.11501338 -0.11625283 0.38948503 -0.03550838 -0.09780831 -0.26913762 -0.109429635 -0.1328431 -0.049956292 -0.39085776 0.42995295 0.35167405 0.35858232 0.42103207 0.40053812 -0.021400437 0.4116449 -0.018292658 0.3738615 -0.24370244 -0.02403273 -0.116545275 -0.114376135 -0.013831743 -0.08333298 -0.01737 -0.05418357 0.29792923 0.36158442 0.42100736 -0.11668425 -0.0056094592 -0.07241313 -0.08220976 0.39089715 -0.06005161 0.37994972 -0.0884876 -0.039572675 0.24353851 -0.03946303 0.03358078 0.36357182 -0.0056491047 -0.12027329 0.37176114 -0.032739278 0.27693933 -0.009245826 0.3643727 -0.0004063323 -0.06508682 -0.044428676 -0.16821323 -0.05364379 -0.12467154 -0.10368681 0.03865031 -0.034863546 -0.10330396 0.42694226 -0.03620988 -0.14109285 -0.08763465 -0.10010806 0.38525453 0.3693651 0.3295463 0.3837713 -0.069197446 -0.29640928 0.40666983 0.38038784 -0.014823664 -0.043895297 0.035515536 0.031250488 0.37318668 0.40500134 0.37170705 -0.0067499983 -0.04610831 -0.1108266 -0.07382058 -0.12935814 0.10226177 0.39011294 -0.026814105 0.13097537 -0.01966139 -0.028725587 0.00984834 -0.094707295 -0.033667024 -0.15238315 -0.22714193 0.3902999 0.4053573 -0.021548955 -0.10776338 -0.0191839 -0.03745371 -0.09360324 -0.059598383 -0.16639699 0.40474048 0.38880014 0.040450007 -0.09725503 0.0038856836 -0.020404354 0.4058307 -0.12081139 0.42576894 -0.26649153 -0.10075651 -0.04211016 -0.017471263 -0.044904344 -0.13698593 0.39093572 -0.12968905 -0.011998775 0.3288262 -0.026574459 0.3853863 0.32502156 0.35281435 0.0035648718 -0.10901027 0.36598602 -0.0336498 -0.10921606 -0.1131413 -0.008098197 -0.10882875 0.36663195 -0.047502898 -0.10680978 0.19441298 -0.14612302 0.3362344 0.36841697 0.37128899 0.41263607 -0.14576308 -0.2259316 -0.18329304 -0.034490157 -0.079397544 0.38034907 0.392054 0.37593907 -0.13646609 0.3677701 0.3105787 0.47626388 0.42754596 -0.13579066 0.3947753 0.43703434 -0.120537385 0.40377963 0.40317822 0.09700923 -0.1025679 0.4152069 -0.06877064 0.27595058 -0.12994267 -0.024014253 -0.019095499 0.38405085 -0.0657793 0.13091297 -0.050299022 -0.025131665 -0.107461065 -0.25697312 -0.20673904 -0.14736222 0.4183695 0.42424715 -0.11163157 -0.048822626 -0.037775315 -0.14779659 0.3798454 -0.0931315 -0.029684618 -0.11305774 -0.028850969 -0.024186566 0.4139487
among -0.0030981137 -0.01886208 -0.06960556 0.44451773 0.09034103 -0.12891321 0.4672877 -0.121947944 -0.08026061 -0.038939588 0.44355044 0.35761517 0.4001741 0.006673802 0.41265297 0.31583947 -0.13802162 -0.024484675 -0.069933586 -0.10064308 0.07978367 -0.009067187 -0.100821696 -0.043856416 -0.25619277 0.4171665 -0.03946319 0.24447067 0.3471031 -0.015659275 0.4332262 0.041981705 0.08228435 -0.04090914 0.4123392 -0.1091246 -0.065085046 -0.079868466 -0.03294956 -0.07426185 -0.09869202 0.050119385 0.14867644 -0.21588583 0.23082049 0.38211697 0.047857944 0.43901524 0.39600694 0.4339738 0.40589347 -0.0018136951 0.055809557 0.3973134 -0.024077684 -0.07700305 -0.020346433 0.40297765 0.1537843 -0.0011482505 -0.0067081256 -0.1263526 0.42860752 0.42289045 -0.014003951 -0.114795946 -0.3473656 -0.11482269 0.15331258 0.42761767 0.42441046 -0.07300752 -0.09047573 -0.0056829834 -0.13215616 0.01743197 0.2097788 0.38043728 0.42217672 -0.02908656 -0.27047947 0.45701587 0.38816735 0.413676 -0.22883318 -0.15545383 -0.095133916 -0.11839226 0.41415492 0.40837872 0.44811064 0.37793377 -0.079923876 -0.13574855 0.39601836 0.40103078 -0.019683741 0.39273614 -0.03553908 -0.02667402 -0.007669496 -0.004320947 -0.09874185 0.30518156 -0.023956858 -0.026218127 -0.07530229 -0.07440881 0.42833096 0.45591545 0.42670533 -0.25661165 -0.11396966 0.41596094 -0.0026657823 0.42232022 -0.026968136 0.31694517 -0.040630598 0.40796083 0.41359785 0.40934366 -0.014308808 0.13349119 -0.0106836725 -0.0127649205 -0.0015644347 -0.13713388 0.43507704 -0.104736015 -0.12876679 -0.030179733 -0.07321364 0.4101873 -0.03922414 -0.018765368 -0.00021223398 -0.004265146 -0.037922915 0.05225984 -0.121551625 0.43391615 -0.21047142 -0.077292725 0.436946 0.3688512 0.0021095746 -0.0051119262 -0.09957538 -0.029472295 0.39481434 -0.005207285 0.4695248 0.43364346 0.0039488105 0.04405854 0.09492031 -0.09494761 -0.113050394 -0.016063528 0.21200964 -0.040808454 -0.07949436 -0.11823623 0.37288707 -0.07642619 -0.08870528 0.10151997 -0.05591853 -0.1916488 -0.10038018 -0.048140794 0.46077335 0.007659269 -0.16558233 -0.14218505 -0.29487765 -0.053057082 -0.14450948 -0.020585053 0.47933233 0.43017784 -0.03346751 0.18047561 0.4266728 0.47057742 0.20971012 0.1417355 0.1341801 0.3644514 -0.002823804 -0.064073086 -0.0011350987 -0.23048866 -0.063384145 -0.022420872 -0.1204534 -0.017149867 -0.10807966 0.2639612
procedures -0.023927119 -0.014170393 -0.023035351 -0.1319488 -0.012203872 0.3958115 -0.13118485 -0.013079684 0.38642758 -0.11914735 -0.011278155 -0.0065619904 -0.017473951 -0.006440659 -0.0073472606 -0.013090999 0.31566328 -0.14918086 0.42779556 -0.015108299 0.36988524 0.39532596 -0.0073241107 -0.0076900376 0.36210728 -0.0043678754 -0.013074496 -0.01652021 -0.123367056 -0.023476724 -0.12047073 -0.11086135 0.41195303 -0.010239967 -0.018259753 -0.10731744 0.3791811 -0.026646059 -0.14649259 0.44540486 -0.026467253 -0.11467712 -0.10742575 0.39967963 -0.008783404 -0.1062577 -0.0135955615 -0.11612565 -0.10934657 0.38752544 -0.13810775 -0.12480706 -0.023816573 -0.12090666 -0.020676397 0.37859485 0.39632547 -0.020541131 -0.013708976 -0.024432167 -0.010268955 0.39638942 0.3807574 0.3726455 -0.118614405 -0.11331871 0.3902348 -0.008715966 0.39475104 -0.006704146 -0.11434119 -0.10333236 -0.15789385 0.37842727 0.3586358 0.4115005 -0.00543295 -0.028263845 -0.013950496 0.3961402 0.4256711 -0.031516545 0.43375707 -0.10992073 0.3545267 0.38025165 -0.12270729 0.35219944 0.3270774 0.33251247 -0.03860527 -0.11834569 -0.010337334 -0.010333022 -0.05352335 -0.11833729 0.38213965 -0.010652084 -0.026228001 -0.015062712 -0.035945483 -0.009913511 0.38380513 -0.13627249 0.3756963 0.41139516 0.41463462 0.39544472 -0.112491086 -0.09962087 -0.04750596 -0.11096284 0.3419648 -0.0024121036 -0.009863384 -0.018987745 -0.01357953 -0.012991598 0.36696172 -0.11255596 -0.12426883 0.28456473 0.38256067 -0.01785237 -0.14403443 0.3723504 0.37519446 0.41230404 -0.106469795 -0.105505824 0.3556169 -0.019253887 -0.109155074 -0.12895215 0.39093846 0.38768977 -0.116435654 -0.006680224 -0.011919166 -0.021443807 0.4114971 0.4008363 0.38004342 -0.11526461 0.39283407 -0.1173116 0.40638396 -0.12484007 -0.02608467 -0.107269965 -0.10786063 0.41236368 -0.13525553 0.38000044 -0.10506888 -0.11488805 -0.11894326 -0.10934419 0.37931392 -0.122422405 -0.1551921 -0.10763048 -0.0498683 -0.13841648 0.42872706 -0.006474687 0.3738105 -0.0157277 -0.1307928 0.3728435 0.37297776 -0.045877725 -0.11301991 -0.131451 -0.018834714 -0.0112153115 0.37843388 -0.051394578 0.4002131 -0.118303776 -0.0132284695 -0.010968462 -0.011007649 -0.11297546 0.3483137 0.22624089 0.40842512 -0.13407126 -0.021442961 0.4040472 -0.11616507 -0.01767009 -0.12060383 0.3878969 -0.030055318 -0.02971594 0.39389563 -0.11327818 -0.109112814 -0.117856026
screening -0.00033504167 -0.017829977 -0.0648869 0.4452029 0.09483242 -0.13087595 0.4678928 -0.11910209 -0.08149877 -0.037177373 0.44367555 0.35946324 0.39923483 -0.00068525085 0.4158262 0.3121669 -0.13975804 -0.024988119 -0.07338897 -0.09470739 0.07409422 -0.00447377 -0.10835837 -0.045104384 -0.25427797 0.41943753 -0.043976624 0.23922044 0.35198262 -0.01943711 0.43205732 0.03977726 0.085583024 -0.035540156 0.4136753 -0.10791213 -0.068624474 -0.073622935 -0.035926774 -0.07913494 -0.10633706 0.05043578 0.14655699 -0.21714985 0.22408986 0.38645923 0.0493227 0.4407509 0.40209186 0.43617094 0.40414563 -0.0035626853 0.06015899 0.39488515 -0.022672549 -0.0769541 -0.014382671 0.4035607 0.15720233 -1.9759987e-05 -0.013466432 -0.12944779 0.43540305 0.423554 -0.01341819 -0.11291625 -0.34311455 -0.109706655 0.1587946 0.42627406 0.4263265 -0.072262995 -0.09616055 -0.005143813 -0.13716367 0.015813813 0.21117 0.38516998 0.42640945 -0.023305288 -0.26416978 0.45626682 0.3946937 0.4178343 -0.22918217 -0.15405421 -0.09583946 -0.121149525 0.41410354 0.40737373 0.44840446 0.37920702 -0.07295868 -0.13155626 0.39545995 0.39833295 -0.023902748 0.39599964 -0.028654944 -0.02881225 -0.0017768019 -0.0054212413 -0.09536302 0.30695418 -0.01887916 -0.027717303 -0.07474608 -0.07518336 0.4293304 0.45873615 0.43141416 -0.25049177 -0.11507479 0.41313705 -0.008762511 0.42473632 -0.02595944 0.3151732 -0.039374184 0.4083001 0.41733772 0.40252542 -0.017990112 0.13861725 -0.009797661 -0.010268847 -0.0049265316 -0.1375421 0.43396592 -0.099778354 -0.13377434 -0.028220275 -0.07153564 0.4048956 -0.04204215 -0.025521263 -0.0011518751 -0.0052358466 -0.043099474 0.058876667 -0.12771787 0.43797484 -0.2119647 -0.073373936 0.43774763 0.36366078 0.0032734205 -0.003468725 -0.098960616 -0.028198877 0.39124572 0.00032546115 0.47379717 0.43595386 0.0032669762 0.04765797 0.09764779 -0.09062043 -0.109700896 -0.018014362 0.21392149 -0.04043292 -0.079669125 -0.11341801 0.36842585 -0.072216585 -0.08271335 0.10819596 -0.04980161 -0.19529693 -0.097032875 -0.045142658 0.46282697 0.0035984549 -0.16130847 -0.1378626 -0.29984623 -0.05779358 -0.14665699 -0.024183527 0.48600388 0.42804277 -0.032801382 0.17916794 0.42391664 0.47087392 0.21222559 0.14620641 0.13722922 0.36438224 -0.0059978743 -0.06895466 -0.0040848386 -0.23550686 -0.062662214 -0.019680686 -0.11993419 -0.017917978 -0.10901504 0.26856405
health -0.026480947 -0.013939156 -0.019156355 -0.13081887 -0.018124789 0.3939795 -0.13648169 -0.0137848295 0.38917288 -0.11955878 -0.013557357 -0.008900015 -0.020641122 -0.008442024 -0.010102862 -0.018910348 0.31460354 -0.1434786 0.43347943 -0.017463326 0.3636274 0.39722416 -0.0073840916 -0.011547909 0.36450264 -0.00873079 -0.013843356 -0.019689303 -0.11912179 -0.020609083 -0.12250233 -0.11515252 0.4126485 -0.011403783 -0.019422049 -0.102984264 0.38417044 -0.024677679 -0.14624317 0.44623056 -0.034137957 -0.111081466 -0.10796733 0.39445192 -0.013165117 -0.102415375 -0.014272292 -0.11659693 -0.10933829 0.3856298 -0.1392335 -0.13085912 -0.015707577 -0.11930591 -0.020439198 0.38079262 0.3942096 -0.021110449 -0.0139179425 -0.022722814 -0.0090465285 0.39316162 0.38351187 0.3682384 -0.121600375 -0.11011989 0.38660285 -0.008671333 0.3933321 -0.0050984723 -0.11863198 -0.10457843 -0.1640963 0.3856396 0.35957006 0.40852922 -0.012446633 -0.02854105 -0.019100802 0.3922835 0.426251 -0.027593678 0.4340299 -0.10455146 0.35091558 0.37859666 -0.12179254 0.3501318 0.33212405 0.3307203 -0.044140965 -0.119886786 -0.008896241 -0.013294756 -0.053011995 -0.11848879 0.3772106 -0.00629998 -0.030402217 -0.016723827 -0.036439322 -0.006093356 0.38620123 -0.13624273 0.37749678 0.41102576 0.40985107 0.39212516 -0.116205364 -0.09899556 -0.047027435 -0.111703955 0.34231782 -0.008677844 -0.010968028 -0.017439857 -0.013874349 -0.012110202 0.37134188 -0.11761058 -0.12864138 0.28544173 0.38219255 -0.015622858 -0.14969988 0.3789832 0.37577078 0.4126765 -0.10993815 -0.10478777 0.36350995 -0.012908024 -0.11403674 -0.12587906 0.38956386 0.3866934 -0.11722956 -0.004341053 -0.010865283 -0.024215683 0.41197798 0.40603536 0.3856247 -0.11074446 0.39478362 -0.12093906 0.40649533 -0.12112229 -0.02588878 -0.104858994 -0.110140264 0.41678202 -0.13638085 0.37665698 -0.102401465 -0.116465524 -0.119652614 -0.10888326 0.37449172 -0.122169815 -0.15572035 -0.109859616 -0.053556908 -0.13586661 0.42732373 -0.0018676308 0.3700444 -0.020409118 -0.13437235 0.37109864 0.37662384 -0.046116948 -0.11323641 -0.12408815 -0.015811991 -0.013900288 0.37612972 -0.05789211 0.39988342 -0.11604485 -0.009111132 -0.011451578 -0.014911693 -0.11938147 0.34341183 0.22318952 0.40750593 -0.13125718 -0.02197174 0.40413812 -0.114492595 -0.016655648 -0.116280824 0.38739145 -0.03158187 -0.033127517 0.3923369 -0.112442166 -0.11076445 -0.11589396
death 0.0014928358 -0.015520204 -0.06952433 0.44108108 0.09048697 -0.12962659 0.46108878 -0.120974734 -0.08476527 -0.037942853 0.44295236 0.3523072 0.402059 0.003906325 0.41677433 0.3099138 -0.13895907 -0.01903402 -0.07175716 -0.09924916 0.07508659 -0.007430064 -0.10747056 -0.046754714 -0.25659925 0.4173098 -0.046708524 0.23960663 0.35123724 -0.018662041 0.43805563 0.034171253 0.08344184 -0.037164766 0.41051775 -0.10767922 -0.062161244 -0.08078753 -0.032569036 -0.07301778 -0.10612989 0.042983852 0.14983194 -0.21491228 0.2242865 0.3809546 0.04431207 0.44428602 0.40128124 0.43633878 0.40703014 0.00097431405 0.059902616 0.40039468 -0.026374258 -0.078834794 -0.015438479 0.3976081 0.15257025 -0.0017119433 -0.012455993 -0.13106644 0.42905346 0.42334014 -0.011483235 -0.11301243 -0.34318072 -0.114884995 0.15893817 0.42533416 0.4232793 -0.07922739 -0.095890604 -0.00060571707 -0.13364989 0.017793965 0.20832695 0.38482264 0.4241148 -0.027264325 -0.2660639 0.45800704 0.38912022 0.4102945 -0.23046848 -0.15517706 -0.0918785 -0.12223162 0.41235152 0.40153033 0.4525502 0.3741749 -0.07896505 -0.13462551 0.403814 0.40217367 -0.023501083 0.39710343 -0.029402386 -0.024534153 -0.006103948 -0.005909122 -0.1018179 0.30633733 -0.021372717 -0.029447408 -0.07282704 -0.07651036 0.42878908 0.45934343 0.42758352 -0.25675857 -0.1120127 0.4079264 -0.006736103 0.42721188 -0.03322531 0.32024392 -0.039476953 0.4102252 0.41780013 0.40814173 -0.019627227 0.13557163 -0.004590744 -0.009959043 -0.0048115263 -0.13753782 0.43295702 -0.105565324 -0.13534003 -0.031169785 -0.075494535 0.40405267 -0.043521635 -0.020485595 0.00029575126 -0.001485636 -0.04085788 0.051632516 -0.12394369 0.43663472 -0.21297103 -0.08000141 0.43578076 0.37053648 -0.001138373 -0.0052871713 -0.103375666 -0.030647567 0.38933417 -0.0005348993 0.47202063 0.43399227 0.0009030169 0.047742583 0.09781066 -0.091001734 -0.105979376 -0.016495923 0.20742375 -0.0433491 -0.08470939 -0.11758393 0.37065813 -0.076051384 -0.08349971 0.102189384 -0.05592224 -0.1932411 -0.10282912 -0.04661066 0.45743325 0.00332481 -0.16342862 -0.14278688 -0.295806 -0.058406733 -0.14671622 -0.018753119 0.4788562 0.42992756 -0.03512384 0.18053228 0.42658255 0.4717116 0.21315932 0.1417677 0.13827491 0.36405107 -0.0032144734 -0.06490417 0.001897004 -0.2288953 -0.062332716 -0.02305257 -0.12149783 -0.017609125 -0.113042526 0.26652837
part -0.056340948 -0.038365748 -0.03313642 0.43675742 -0.13530228 -0.2784944 -0.051629435 -0.018814452 -0.12201223 -0.026620075 -0.0630139 -0.123821765 -0.09179114 -0.13103703 0.032833844 -0.16311675 -0.041518852 -0.0676039 -0.02447714 0.38102233 -0.22211559 -0.014400506 -0.043287896 -0.01931506 -0.25579628 -0.2513118 0.45114022 -0.28778526 -0.13097242 -0.0069574113 -0.045287594 -0.13067411 0.43608937 0.42615023 0.031955037 0.36085683 0.37277412 0.43227398 0.43448067 0.43672544 -0.07173376 -0.13986889 -0.046612907 0.4338819 0.4286167 -0.14610739 -0.30416662 -0.009196943 -0.03160128 -0.06274969 -0.027222207 -0.16344124 -0.2607355 -0.11976192 -0.017331224 -0.33660406 -0.0579762 0.41295606 0.4617089 0.41606086 -0.037537795 -0.09439385 -0.05392118 0.214113 -0.024669038 -0.11426063 -0.12608382 -0.13444379 -0.3192967 -0.11771743 -0.102450006 0.46153826 0.3714412 -0.25200605 -0.10999889 -0.07897861 -0.2902419 -0.0354999 0.003449859 -0.029707238 0.41413742 -0.05265456 -0.10712259 -0.086598106 -0.074314 -0.09588993 0.42564955 -0.009547151 -0.105483115 0.054835346 -0.07611828 0.2100952 0.22528572 -0.10849759 -0.030386314 0.4415383 -0.117361896 0.4172534 0.41763118 -0.115552664 -0.17427298 0.29239836 -0.076792434 -0.04389307 -0.009121498 -0.06187246 -0.1000203 0.43847626 0.4115085 -0.034162864 -0.072269976 -0.040465586 -0.112020865 0.020383002 0.42673898 0.4430033 -0.11160895 -0.05323253 -0.045051187 -0.35074684 0.22379856 0.14951839 0.414705 0.42182237 -0.016373726 -0.11972256 -0.1463574 -0.12621897 -0.02439758 0.08431987 -0.12258737 0.4321875 0.41804132 -0.09980413 0.4063007 -0.0316554 0.43580303 -0.13581783 -0.11025983 -0.1342174 -0.042523477 -0.09943649 -0.20154649 0.42324898 0.30407488 0.31976852 -0.021256901 0.44236153 -0.0679746 0.42612883 -0.12506454 -0.13492131 -0.102469094 0.3992888 -0.13884157 0.34146315 -0.10419855 -0.017206889 -0.11101788 -0.11907683 0.40703332 0.4400855 -0.082904406 0.16022517 -0.093525775 0.23767975 0.0029220753 -0.25227907 0.37299445 -0.0773152 -0.13652878 -0.12111642 -0.025661793 0.37404218 -0.12989889 -0.13043462 0.43231896 0.4388165 -0.22705357 -0.018742062 0.423213 0.4038029 -0.037228018 0.4256131 -0.08712392 -0.120287605 -0.13141407 -0.09729018 0.36493212 -0.08664864 0.40285707 -0.10231731 -0.13954253 -0.1250625 0.43314272 -0.04163439 -0.108583935 -0.11464474 0.39093232 -0.057975996
pilots -0.056488484 -0.041383065 -0.036289997 0.434993 -0.1384803 -0.28285372 -0.049090136 -0.019578785 -0.124991655 -0.034184862 -0.05960845 -0.12632303 -0.09587094 -0.13174865 0.035941005 -0.16501564 -0.03507117 -0.06637818 -0.029142322 0.38468042 -0.22973695 -0.010399269 -0.04444702 -0.013103814 -0.25756973 -0.2523818 0.45112664 -0.28409418 -0.12756409 -0.013243787 -0.04845992 -0.13200212 0.44122848 0.42583397 0.029901274 0.3592255 0.3776496 0.43235803 0.43641514 0.438922 -0.07296896 -0.1346389 -0.04429425 0.43260762 0.43093687 -0.14311859 -0.30434644 -0.012764826 -0.030422822 -0.05820041 -0.023557499 -0.15772057 -0.25892058 -0.113516375 -0.017102078 -0.33197236 -0.057902865 0.40765762 0.46336773 0.41050398 -0.03368135 -0.09496492 -0.053336617 0.21615574 -0.025507303 -0.11025132 -0.12168706 -0.13293558 -0.32028174 -0.12149583 -0.10332431 0.4688948 0.37161782 -0.25373185 -0.10228291 -0.07655799 -0.28743196 -0.03179383 0.003080465 -0.03537943 0.40795106 -0.048106108 -0.10532092 -0.08366035 -0.0773535 -0.10161488 0.42469364 -0.010814465 -0.10520576 0.055804174 -0.072846204 0.2083419 0.22548042 -0.11437535 -0.024019683 0.4379555 -0.116318054 0.41881084 0.41473827 -0.111839384 -0.17078723 0.2974854 -0.08064752 -0.038806535 -0.015820578 -0.06516908 -0.10310614 0.4404245 0.40880322 -0.027849318 -0.07173133 -0.03754061 -0.112853676 0.02719828 0.42174086 0.44233274 -0.112605184 -0.053875875 -0.049415104 -0.35719916 0.2265824 0.15175782 0.42119473 0.42504537 -0.014050845 -0.12569058 -0.14971295 -0.12614408 -0.02632697 0.08139744 -0.11865976 0.4375717 0.41826355 -0.095220655 0.40325874 -0.032614984 0.43683726 -0.13353528 -0.1062993 -0.13378832 -0.039001983 -0.095185205 -0.20927748 0.42672217 0.3089703 0.3273135 -0.017600108 0.43844336 -0.0701461 0.42128465 -0.1257197 -0.13980427 -0.10430545 0.39786005 -0.14273563 0.34725064 -0.09820885 -0.018821685 -0.113610476 -0.11580804 0.40641782 0.4420407 -0.07904182 0.15696503 -0.090699814 0.23248954 -0.000109509565 -0.24970308 0.37188545 -0.075812 -0.13664898 -0.12280425 -0.022847187 0.38021138 -0.13052575 -0.12923057 0.42842612 0.43440035 -0.22995391 -0.019481994 0.41690886 0.40270612 -0.04502745 0.41994143 -0.09156973 -0.116600506 -0.12666787 -0.09489078 0.37098616 -0.090765126 0.40887332 -0.10034228 -0.14205015 -0.12597588 0.4307096 -0.044333793 -0.110211484 -0.111097425 0.3929151 -0.056334395
aircraft -0.02790945 -0.013941266 -0.022505052 -0.12633231 -0.018488687 0.3993752 -0.13340947 -0.012518633 0.3872246 -0.12236455 -0.011546613 -0.006079325 -0.024403216 -0.011141452 -0.006430999 -0.019283473 0.31389838 -0.14594382 0.4302467 -0.01203289 0.36315376 0.40126002 -0.0041642506 -0.014117629 0.3654869 -0.009629952 -0.012053518 -0.02273513 -0.12180245 -0.018809274 -0.11640978 -0.11211838 0.4083602 -0.007794602 -0.02213208 -0.103686556 0.3808857 -0.023567772 -0.14697114 0.44557267 -0.03134138 -0.10812319 -0.108437605 0.39727002 -0.00921462 -0.10801101 -0.016498957 -0.112777136 -0.10168233 0.38451794 -0.14239138 -0.12626639 -0.023089083 -0.11704969 -0.015134373 0.38277465 0.39543828 -0.022225726 -0.010836981 -0.025232553 -0.008371815 0.39723018 0.38595173 0.36851326 -0.12520847 -0.11365586 0.38804257 -0.016182572 0.39190778 -0.0025373374 -0.11550442 -0.10569877 -0.1646653 0.37962663 0.3641021 0.41136324 -0.008846229 -0.022729328 -0.01495422 0.3973065 0.4274496 -0.030675191 0.4329219 -0.10499287 0.35206798 0.37878516 -0.11806902 0.35265765 0.33365571 0.32564074 -0.039781705 -0.11756854 -0.008460263 -0.0127224345 -0.055142883 -0.120257296 0.3829079 -0.0048175985 -0.02457768 -0.018378697 -0.032481603 -0.009601245 0.38287377 -0.13364702 0.37111855 0.41385186 0.41503048 0.3901454 -0.11715731 -0.10503148 -0.046320256 -0.110970706 0.33978796 -0.004886472 -0.008913621 -0.018305505 -0.012520592 -0.014264807 0.37022018 -0.11461951 -0.12635659 0.28483438 0.38240865 -0.014840838 -0.14677194 0.37718207 0.37911597 0.4142756 -0.106409006 -0.110899545 0.35674736 -0.017127968 -0.11130002 -0.12639688 0.38695145 0.3862854 -0.11476557 -0.006562776 -0.014363524 -0.022897264 0.41105768 0.4050995 0.37938008 -0.10928191 0.39258677 -0.11883886 0.40182334 -0.12046503 -0.024250196 -0.09981296 -0.107140906 0.41215435 -0.14069997 0.3783094 -0.1101089 -0.11585116 -0.12121461 -0.111862645 0.37335908 -0.117977895 -0.15114933 -0.10753378 -0.048091955 -0.13727908 0.4267415 -0.0048470963 0.37225994 -0.016993199 -0.13038184 0.37582955 0.37669218 -0.050183233 -0.11358426 -0.1276447 -0.01945104 -0.0096042715 0.37784785 -0.052857567 0.40637344 -0.11355519 -0.013421175 -0.011097967 -0.011030444 -0.1182296 0.34499475 0.22911198 0.40571615 -0.13786876 -0.019227272 0.40809909 -0.119895145 -0.0110925855 -0.11582336 0.39249527 -0.0341466 -0.029526755 0.39550543 -0.107374765 -0.104491904 -0.12010904
